{
  "layers": [
    {
      "activation": "tanh",
      "num_neurons": 24,
      "neurons": [
        {
          "bias": -0.08228810901181989,
          "weights": [
            -0.1926424607021557,
            -0.2891890727422054
          ]
        },
        {
          "bias": -0.11251785583783479,
          "weights": [
            -0.3635761954159552,
            -0.10728023400559614
          ]
        },
        {
          "bias": 0.0789785937070621,
          "weights": [
            0.09393038590842173,
            0.2578505206558079
          ]
        },
        {
          "bias": -0.04505742034474719,
          "weights": [
            0.2630652210285223,
            0.26777317698208175
          ]
        },
        {
          "bias": -0.12345259033265191,
          "weights": [
            -0.34660387345612137,
            -0.12542791012365917
          ]
        },
        {
          "bias": -0.09268619605704571,
          "weights": [
            -0.350103904686442,
            -0.10746406022155201
          ]
        },
        {
          "bias": -0.056208715419646574,
          "weights": [
            -0.32504399673045997,
            -0.23344080930065822
          ]
        },
        {
          "bias": -0.11696514828288383,
          "weights": [
            -0.3212600618764017,
            -0.3194904952093939
          ]
        },
        {
          "bias": -0.06933421598757149,
          "weights": [
            -0.09828959143972706,
            -0.25690960502504345
          ]
        },
        {
          "bias": 0.017925927043237932,
          "weights": [
            -0.3539388087218362,
            -0.1962277106070063
          ]
        },
        {
          "bias": -0.039266831994451995,
          "weights": [
            -0.3601379388737869,
            -0.1499977311150139
          ]
        },
        {
          "bias": 0.1173116644217819,
          "weights": [
            0.2329833263562765,
            0.2661870920026269
          ]
        },
        {
          "bias": -0.05482449559860576,
          "weights": [
            -0.37194897807112026,
            -0.15816794959795547
          ]
        },
        {
          "bias": 0.08759978309603006,
          "weights": [
            0.31846247992053967,
            0.1703208642800607
          ]
        },
        {
          "bias": -0.09627720126641949,
          "weights": [
            -0.3789918686403417,
            -0.14642669707383027
          ]
        },
        {
          "bias": -0.10021749021559784,
          "weights": [
            0.08654153863135577,
            0.2855046747951865
          ]
        },
        {
          "bias": 0.07461475152531828,
          "weights": [
            0.4417442786322539,
            0.2422401500062931
          ]
        },
        {
          "bias": -0.03348089528549336,
          "weights": [
            -0.3625923589202197,
            -0.27918305808347965
          ]
        },
        {
          "bias": -0.03718199670611497,
          "weights": [
            0.10004504488469412,
            0.27063229854080634
          ]
        },
        {
          "bias": -0.1242524643366938,
          "weights": [
            -0.30977374267721147,
            -0.2707420096581376
          ]
        },
        {
          "bias": 0.10719392761467297,
          "weights": [
            0.373162630379844,
            0.2874372715174069
          ]
        },
        {
          "bias": -0.10085622099425384,
          "weights": [
            -0.25716672620804576,
            -0.25545501100055207
          ]
        },
        {
          "bias": -0.062052075612967536,
          "weights": [
            -0.08028704108878203,
            -0.2747275334259806
          ]
        },
        {
          "bias": 0.0004711741627323723,
          "weights": [
            -0.3848104302670337,
            -0.15982523760231324
          ]
        }
      ]
    },
    {
      "activation": "tanh",
      "num_neurons": 24,
      "neurons": [
        {
          "bias": -0.06309399794106463,
          "weights": [
            -0.3099588850389185,
            -0.018967432621089308,
            0.03458293257845014,
            -0.047744938068357834,
            0.3719612431244791,
            0.027701988097988683,
            -0.2911929922644605,
            0.3365280545583458,
            0.05798834960002928,
            0.3098028488177083,
            0.01565968638333623,
            -0.29506843899161295,
            -0.11740095653273046,
            0.24348216483439802,
            -0.10960998294668255,
            0.3041703960879198,
            -0.12107420503847673,
            0.18439660894741547,
            -0.15299438256345405,
            0.2020975991270024,
            -0.1104900739544883,
            -0.0851784293181778,
            0.24467061864559017,
            0.08957434311731599
          ]
        },
        {
          "bias": -0.004104748563517579,
          "weights": [
            -0.15890805550751722,
            -0.15567839235442535,
            -0.22642114926572005,
            -0.12368741640534475,
            0.12472902731048836,
            0.35369916047865724,
            -0.14321220823442737,
            0.24924678698827418,
            -0.333871225562117,
            -0.30573932521828445,
            0.2457942376165153,
            0.09808756577769956,
            0.004556681116144403,
            -0.002636769776142117,
            -0.03105113860376091,
            -0.1150661413021303,
            -0.147649276776216,
            0.0389396138421899,
            0.18831748839609752,
            0.18415959397841047,
            0.24612037209975454,
            -0.27017821685304333,
            0.08618785194900667,
            -0.10388543123844034
          ]
        },
        {
          "bias": -0.009444636152245932,
          "weights": [
            -0.009538566960150345,
            -0.06469084451211793,
            -0.2003583894370441,
            -0.23867740399761297,
            0.04360888857535384,
            0.08262934565663105,
            -0.018175140642755026,
            -0.12576189423021367,
            -0.27585543122026945,
            0.02701111065103023,
            0.026267994432485068,
            -0.020830399362348744,
            -0.16328046520351785,
            0.34184130726714834,
            0.33629035018652137,
            -0.31654060299837516,
            0.3208584703701436,
            0.23841586298597844,
            0.026324342433520824,
            -0.13536303115171106,
            -0.306520693384021,
            -0.26644455953336293,
            -0.276816550988405,
            -0.18046138944282436
          ]
        },
        {
          "bias": -0.07733872914664422,
          "weights": [
            0.04483842147746832,
            -0.1267515344989472,
            0.09190746499298318,
            -0.28607317124193793,
            -0.23740683810228635,
            0.07404774757956642,
            0.3535478500731597,
            0.1845042990901676,
            -0.04113808456189324,
            0.2372514897942561,
            0.14952083734753222,
            -0.14492793673392027,
            -0.1532011516993844,
            -0.34546204029341365,
            0.267206145388453,
            -0.17824473501238314,
            -0.08664650881002542,
            -0.17283128878993845,
            -0.16047743906026277,
            -0.09017648220598536,
            0.020993414707334332,
            0.16626714060141057,
            -0.060811297937319805,
            -0.02170517045873742
          ]
        },
        {
          "bias": 0.05705226536890106,
          "weights": [
            0.050045697892678744,
            -0.04233051946067357,
            0.19099933894439486,
            0.2920577771189675,
            -0.1439355793822129,
            -0.30789804095210743,
            0.22145151746032637,
            0.14975731367046916,
            -0.06788729724921412,
            -0.0675104168513838,
            0.1185067280800751,
            0.3324971980145039,
            -0.09991659995973715,
            -0.15879407737859907,
            0.1668755122723783,
            -0.051710542954733964,
            0.2896765147239713,
            0.0008035514403193112,
            -0.31805110888454663,
            0.2952305389152499,
            0.1582642484872134,
            -0.38723938922404133,
            -0.03002067660536448,
            -0.07013748233741428
          ]
        },
        {
          "bias": 0.020267939488288193,
          "weights": [
            -0.03010298624427636,
            -0.1734480273934921,
            0.40913380809807326,
            0.2796015997738174,
            -0.20387443398514288,
            0.06201060326125005,
            0.2240712735511927,
            -0.20034613194308554,
            0.14525604337093878,
            0.21063491240680907,
            -0.3597062889931337,
            0.16197646958702186,
            0.032740293550900315,
            0.08581869837939791,
            -0.029931917837882304,
            -0.2629092477583939,
            0.14226136207884058,
            0.20067339381110455,
            -0.275661290233685,
            -0.35966222717744284,
            0.22893955639532515,
            -0.30753456637664656,
            0.022366709599903663,
            -0.050255902960268044
          ]
        },
        {
          "bias": -0.021810663036087974,
          "weights": [
            -0.07864350877701475,
            -0.023638041522637473,
            0.23867966808065638,
            -0.32793738752118673,
            0.1461940887060843,
            -0.07453814311075706,
            -0.09066083199426757,
            0.05045692431770693,
            -0.15371913332094636,
            -0.04510006989725113,
            -0.0011087703753743605,
            -0.25601272698120514,
            -0.09819908992906302,
            -0.262274048072795,
            -0.07298477464450004,
            0.28862758131306826,
            0.04293254924663574,
            -0.08832469670411795,
            -0.24329070459282462,
            0.15536744203613104,
            0.1250886816443678,
            -0.153890838525096,
            0.3065714728577008,
            -0.14769988795066247
          ]
        },
        {
          "bias": 0.0343506839345695,
          "weights": [
            -0.16648017727125722,
            -0.26406991577862543,
            -0.003919559129866438,
            -0.10526070834971664,
            0.046106769413854165,
            0.28333367999371833,
            -0.23802511073290294,
            -0.23566593586425474,
            -0.27170810125263833,
            -0.23784381866900656,
            0.1551252461520618,
            -0.21859546593876708,
            -0.16518947533257236,
            0.011198146257000538,
            -0.0892500117971132,
            -0.27729359812268073,
            0.1033308381937481,
            -0.21776491992700964,
            -0.09488705635038774,
            0.04861806642569627,
            0.13324241782971175,
            -0.16409415684686615,
            -0.1471136051311071,
            -0.03751407300787987
          ]
        },
        {
          "bias": 0.05281359038921429,
          "weights": [
            -0.3704001409768757,
            -0.21448701010306775,
            -0.27811520615664204,
            -0.15181172048089747,
            0.2808257622753042,
            -0.3131780812285573,
            -0.1847110088952413,
            0.04386444841332638,
            0.13134866809446796,
            -0.39078677295567193,
            0.19987528080343425,
            -0.029438063984853033,
            0.19831895445241687,
            0.3005045828379205,
            -0.22532052133461872,
            0.13427078601546963,
            0.22623136237973365,
            -0.20255292793354537,
            0.08667591061226938,
            0.1814689425665859,
            -0.15553377127692247,
            0.1654091536112123,
            -0.22205482157221826,
            -0.15247785062883254
          ]
        },
        {
          "bias": -0.006544718866921215,
          "weights": [
            -0.15502520115114696,
            0.2089201928760621,
            -0.0051081129021789485,
            0.23636315140296973,
            -0.3542333242509745,
            0.2507616098289982,
            -0.09519345396021936,
            0.20293235423218492,
            0.07656439970301382,
            0.021079403877628144,
            -0.06456886895722704,
            -0.12874345825684813,
            -0.11372202762848355,
            -0.22562883832572575,
            -0.26486337089735895,
            0.036830823879452745,
            0.3305227143008056,
            -0.03586796082103554,
            0.11133907416170463,
            -0.12402663992079807,
            -0.07267445364780753,
            -0.16585591327342752,
            0.02005365827210813,
            -0.146848376803453
          ]
        },
        {
          "bias": -0.032785018271412225,
          "weights": [
            -0.1142916850499663,
            -0.1073153589980148,
            0.2994394586769577,
            -0.28036875964769714,
            0.33799058138251425,
            0.35829831852458965,
            -0.30750005266516794,
            0.009277353541013784,
            -0.067776673460232,
            -0.09830485008462396,
            -0.08442465086551981,
            -0.07805218896379933,
            0.29991985228237045,
            -0.22302537015680138,
            -0.19412362192852553,
            -0.1182979431790715,
            -0.3298478313905972,
            0.05738224939504957,
            -0.26207031047192514,
            0.25384306008139795,
            -0.35042852483847853,
            -0.14421430493565576,
            -0.033513480567792915,
            -0.31569819645206304
          ]
        },
        {
          "bias": 0.03854118810383569,
          "weights": [
            0.27115288705787316,
            -0.25409252919568426,
            0.19031187546372624,
            -0.04209887445684495,
            -0.04915486043413105,
            0.015057974350077502,
            -0.2068295653573761,
            -0.2529762108527347,
            0.16717119559802676,
            -0.1828218902317609,
            0.018011314590721455,
            0.33847812333963795,
            -0.13562111318112066,
            -0.1382832938512994,
            -0.2742572721733405,
            -0.011916631295016094,
            0.05314305128839338,
            -0.16275721469227644,
            0.3106063804102592,
            -0.27624756520043875,
            -0.24221504204389138,
            0.037040612974820274,
            0.12994329998886048,
            0.09472979221216046
          ]
        },
        {
          "bias": -0.0007657531727695312,
          "weights": [
            -0.07358754678951829,
            0.2025854936070614,
            0.034271468441367296,
            0.04530522682049436,
            -0.1212522253506032,
            -0.3227859853799601,
            -0.11174175487381378,
            -0.004351417075863859,
            -0.16694490678175725,
            -0.13867218377712676,
            0.19262340131858574,
            0.36321984099242605,
            -0.2438236420051268,
            -0.26032227175922124,
            -0.2567604416114353,
            0.02069579879939393,
            -0.18814197142110067,
            0.10938946818117698,
            -0.09603296501909114,
            -0.2828057901178665,
            0.058432335748005534,
            -0.22433054191211135,
            0.09341229055910406,
            -0.34842348578715565
          ]
        },
        {
          "bias": 0.006892963204441632,
          "weights": [
            -0.1284317720481988,
            -0.2723697153127005,
            -0.12214601672010833,
            0.09307518287569946,
            0.008589902979333323,
            -0.03998833107273522,
            -0.09095628387406114,
            -0.28391413702543,
            -0.012843730363547357,
            0.26994285591782435,
            -0.1493721751852848,
            -0.3027244403580282,
            0.04332252603864098,
            0.0498766746037048,
            0.03269563225966944,
            0.12024029724197577,
            0.29017749198123133,
            0.11304114948680423,
            -0.09874722362315283,
            0.01833245015734723,
            0.10650100369006832,
            -0.31632990728824806,
            0.13025434343372297,
            0.07962285491782113
          ]
        },
        {
          "bias": 0.017967597319790616,
          "weights": [
            0.18372477306857543,
            -0.10936441682868402,
            -0.18861175879260775,
            0.19212406748487193,
            -0.09735928208488437,
            -0.13360290337552508,
            0.07367911442209987,
            0.2901934962120107,
            -0.25010865415916506,
            -0.11011246546491074,
            0.325483476898655,
            -0.22616258581240448,
            -0.004168614973449853,
            -0.0838741042396027,
            -0.21323309761292272,
            0.20373654145999415,
            0.13906206597988646,
            -0.060278685617199707,
            -0.24034172919424504,
            -0.2266181141121186,
            -0.16366067946786148,
            0.29525559534111484,
            0.030305340211422692,
            0.19870472119220248
          ]
        },
        {
          "bias": -0.06034063098051079,
          "weights": [
            0.32293163006547865,
            0.03507334610014231,
            -0.03670966768519776,
            0.2096626302963869,
            0.17725580974946004,
            0.18910533669301396,
            -0.10118807315660637,
            -0.29179576668148,
            0.09514589732184692,
            -0.33266576592754526,
            0.28309987012692267,
            0.26044739475454687,
            -0.20774472447539008,
            0.22687667510972603,
            0.25784503464851954,
            0.3906996457032295,
            -0.16021092998473363,
            -0.014767101053917065,
            -0.30736594885730745,
            0.19999660430181354,
            -0.2918316667722073,
            -0.27181198991141403,
            -0.33130369217160643,
            0.22626054243885352
          ]
        },
        {
          "bias": 0.010135992652483125,
          "weights": [
            -0.20613464059524872,
            -0.02742121650917026,
            -0.20721388246202593,
            0.3718699891923955,
            -0.11759438479094594,
            -0.08421510391892782,
            0.2735433201175095,
            -0.1370594103525227,
            -0.3803416493234003,
            0.20686615448182868,
            -0.10823713576108686,
            -0.12583632864133854,
            -0.28214107429553037,
            -0.27144985746463,
            0.28912233605414067,
            0.07782079905274498,
            -0.1911859337188013,
            0.09965594740921019,
            -0.24915243222683248,
            -0.10361741564609277,
            0.07140895632303171,
            0.28616006203921174,
            0.307432155904236,
            -0.009624493787131441
          ]
        },
        {
          "bias": -0.044858957042624104,
          "weights": [
            -0.04798123679236587,
            -0.005515169604355849,
            0.091484006827007,
            -0.31792531015438036,
            0.24426504963393295,
            -0.22651075603618473,
            0.09431611615342775,
            0.3319862681476648,
            -0.24739750378881556,
            -0.33048281531800894,
            -0.2432498113532777,
            0.036547944110381404,
            0.2878131899725763,
            -0.3356530396106731,
            0.0642093859646222,
            0.21108317578150326,
            -0.2732274526624925,
            -0.05885821758736506,
            -0.12539852257571824,
            -0.11700453384488599,
            0.2567935925590557,
            0.18247395479057574,
            0.22881897098594245,
            0.059882277567665135
          ]
        },
        {
          "bias": -0.03356619792821598,
          "weights": [
            0.19851539858871156,
            0.1613883012122043,
            0.12404136951099028,
            0.030658426388679355,
            0.31818118389805766,
            -0.23303093536435385,
            0.25191556956422073,
            0.21178205084861648,
            -0.26656897518069345,
            -0.10718523458946995,
            0.0032634567326789536,
            -0.2562009531985151,
            -0.09505954136238515,
            -0.09269435137231669,
            0.06783710331935673,
            0.3136758799541997,
            0.1891260729791955,
            0.1347052320144091,
            -0.15634842747918037,
            0.13933569094247905,
            -0.2544794134475655,
            0.19911133623149097,
            0.16479253446285744,
            -0.028932010624475517
          ]
        },
        {
          "bias": 0.04321716387661482,
          "weights": [
            -0.08977785991820737,
            0.24226411917149765,
            0.07082974892388555,
            -0.24166876008826435,
            -0.18316604739140366,
            0.2825868562730842,
            -0.16569211352938018,
            0.003696866319478883,
            0.2413296674010061,
            0.11030341983484827,
            0.040304224279337546,
            0.29167276146971727,
            -0.3085599358185145,
            0.24339116401841307,
            0.10407625110200158,
            0.1933835347481945,
            -0.040706497456313266,
            0.006637188254718684,
            0.2513440464933224,
            -0.2248950226019424,
            -0.1809811203063832,
            0.09383598870023362,
            0.1281535767761168,
            0.027461483838317365
          ]
        },
        {
          "bias": 0.03528402386095604,
          "weights": [
            -0.3164056537500581,
            -0.18409748870184475,
            -0.19368854789706652,
            -0.05016034990853875,
            -0.3033570660993952,
            -0.19263620257971906,
            0.1994643501799338,
            -0.22020735605667363,
            -0.1733552040638927,
            -0.24727271064399434,
            0.31325569574312273,
            -0.11580415186793304,
            0.029172724271178917,
            0.000320517741705308,
            0.0672474132560874,
            -0.192821006724647,
            0.05098313717967629,
            -0.20689196843907276,
            -0.0858394055078163,
            0.012936486635119995,
            0.11240002454480777,
            -0.07226095437346097,
            0.041193888778074575,
            0.00661412756546039
          ]
        },
        {
          "bias": -0.07777030446029108,
          "weights": [
            0.33655187208361115,
            0.21398239847822637,
            0.0980716358675458,
            -0.1855178364355126,
            -0.27361767232338446,
            0.11941050172112135,
            -0.22861522584327224,
            -0.2856323422683094,
            -0.0666366291719035,
            0.24729455259488323,
            -0.28050244447911765,
            0.1720117470194382,
            0.3106706363721464,
            -0.2693336478465788,
            0.20954356773013968,
            0.046638672907910496,
            -0.27150276540026,
            -0.2258273897196123,
            -0.2668580245762204,
            0.2839136328483598,
            -0.24265186271626102,
            0.08401648034255656,
            -0.044869770610259076,
            0.2336814099779638
          ]
        },
        {
          "bias": 0.0069049018682612595,
          "weights": [
            0.18720862851441933,
            -0.35530129874456584,
            -0.05969128830370167,
            -0.12781868863616025,
            0.26375611488370726,
            -0.0877940276009894,
            0.0849946448932213,
            -0.12768030044822412,
            0.1363807454374519,
            -0.24486943169541062,
            0.11405567681096175,
            0.21072819436699539,
            -0.08126914163240097,
            -0.04411498915495587,
            -0.1420548941887529,
            -0.1426772063231964,
            0.07454832712004436,
            -0.060406365921307915,
            -0.01607019084887208,
            0.1010040052815887,
            0.28362575911942256,
            -0.26872297936130407,
            -0.33005233994387495,
            0.2984734947622167
          ]
        },
        {
          "bias": 0.00466149414001516,
          "weights": [
            0.13874309411150987,
            0.27623729838165634,
            0.3509999067020054,
            0.08072599514146143,
            -0.12319069267831284,
            -0.2676457058885733,
            -0.14130609223427942,
            0.04347490503855636,
            0.2978470048836566,
            0.2682824824003486,
            -0.10514556545852048,
            0.1411353627237605,
            -0.3696668400178896,
            0.17102036741265791,
            0.07312485734854376,
            0.10862317996282181,
            -0.002530912051493823,
            0.07774045606609312,
            0.18706330061993223,
            -0.3496704178887183,
            0.030894405512855695,
            -0.14229172550821176,
            0.06183322466352768,
            -0.016857048276860995
          ]
        }
      ]
    },
    {
      "activation": "None",
      "num_neurons": 11,
      "neurons": [
        {
          "bias": 0.04255833660357391,
          "weights": [
            0.10734461152604054,
            -0.15037282771910168,
            0.24050833188283413,
            0.06818089690014077,
            0.007282912008011426,
            -0.06060877008092066,
            0.2511970342461358,
            -0.0530773524189837,
            -0.21541257420684765,
            0.19190629931838443,
            0.23244302017498436,
            -0.380072239521414,
            0.21758460420354955,
            0.33969414784649044,
            -0.20842332515924578,
            0.23363937398716655,
            -0.04361773160711967,
            0.2819405530866517,
            -0.24475490824804458,
            -0.23281090229122156,
            0.2502690018703433,
            -0.36423766884931713,
            -0.370179576454892,
            -0.05936844249122563
          ]
        },
        {
          "bias": 0.0029929495020446424,
          "weights": [
            -0.1795834091971738,
            0.06512197298590329,
            0.2497493675275847,
            0.1413211284486233,
            -0.09584602103364102,
            -0.28544197037092883,
            0.09771061491607368,
            0.24074639854819987,
            -0.14264470124886816,
            0.10992759945831776,
            -0.19124220708383097,
            -0.035616049241289735,
            -0.24401623543297454,
            -0.1262808300796376,
            0.06517137943156738,
            0.05842842904188924,
            0.2140970961962065,
            0.36377521571983845,
            -0.14760881477081106,
            0.03936817706322953,
            0.2016442650451346,
            -0.1656605299178955,
            0.19972198379069614,
            0.0622021692289603
          ]
        },
        {
          "bias": -0.05628093030850092,
          "weights": [
            0.1061426570398595,
            -0.0696731686256948,
            -0.07769722249396425,
            0.29607026268751324,
            0.02231050365957337,
            0.0021253546835867487,
            0.11574291240843806,
            0.046725268510315124,
            -0.1579888631137111,
            -0.11893830414532801,
            -0.2205877656312142,
            -0.23505287356364882,
            0.14755955315412606,
            -0.3678328343327458,
            -0.09779300590300094,
            -0.10906528699944487,
            0.10214075568671147,
            -0.1704045253198471,
            -0.12353928148691666,
            0.1330670225586332,
            -0.16663944242010403,
            -0.18458626262415606,
            0.2813490229742079,
            0.31044038887433073
          ]
        },
        {
          "bias": -0.015215210015396717,
          "weights": [
            0.031333575371221604,
            -0.035348830498295715,
            -0.38328743013773764,
            0.2671364514922714,
            0.16604853516777324,
            -0.14863902703074175,
            -0.15794281206814859,
            0.35558811260551126,
            -0.19865072253917956,
            -0.18376011836985412,
            0.06753302525789374,
            0.030748272377062725,
            0.216537920144887,
            0.1879472685955193,
            0.18007738999248807,
            0.08790992965874525,
            -0.26354848449418483,
            -0.047005299458724045,
            -0.015887670260796915,
            -0.08599759349466067,
            0.16928512616941202,
            0.08088475682288251,
            -0.24176314537475568,
            0.22899098901513987
          ]
        },
        {
          "bias": -0.014851857054709044,
          "weights": [
            0.23542392373936424,
            -0.06274525784237864,
            0.3514380199451088,
            0.07493706744212461,
            -0.23136961514468762,
            -0.07252722521319714,
            0.06663283611155826,
            0.36251312656703466,
            0.23804946981240502,
            0.07926176477280975,
            0.2712893904318324,
            -0.15693412972325824,
            0.31685304546943116,
            0.33007806548015184,
            0.02461889433094647,
            -0.12103560147878453,
            0.21657271832933506,
            0.24731108781863625,
            -0.20101343774332697,
            0.40454547909554467,
            -0.22802213478154118,
            0.2018772153478856,
            0.2785544187582547,
            -0.17813872053529595
          ]
        },
        {
          "bias": -0.08160746371176598,
          "weights": [
            -0.28616500009348705,
            0.04538124549375745,
            -0.18956973890117093,
            0.29681663160323446,
            0.2777212497304004,
            -0.20070925415562835,
            0.03355960262152033,
            0.31184671520678536,
            0.06751997452185259,
            -0.48016238978497305,
            0.22143361892366392,
            0.2238470506717167,
            -0.07032494160710838,
            -0.09403050892408878,
            0.02431161368687885,
            -0.06621926051117864,
            0.07666616226606497,
            -0.20528855171761368,
            -0.05075490981036667,
            0.1058499558225536,
            -0.131776410349907,
            -0.09582806481437284,
            -0.1807873374302269,
            0.3073699913821836
          ]
        },
        {
          "bias": -0.012437429920155141,
          "weights": [
            0.012566636376902125,
            -0.1947667458443593,
            0.16782678037260312,
            0.04963720455846788,
            -0.051750395640365536,
            -0.034131553044161225,
            -0.03317856000262062,
            0.1330820983017036,
            0.12173360417756783,
            0.24247531011893764,
            -0.004551011058097078,
            0.10676799937084197,
            -0.04260533934208227,
            -0.25914426723915823,
            0.10763924000655048,
            0.1503023772686074,
            0.09739346830724323,
            0.19808154953323567,
            -0.2774636755893364,
            0.0660005038237598,
            0.28071865084927805,
            0.3119565034792111,
            0.03499212700619224,
            -0.17229507736659141
          ]
        },
        {
          "bias": 0.07247508854823616,
          "weights": [
            -0.12553782495697471,
            -0.026989989199503024,
            0.28851442597730653,
            -0.16541937356214245,
            -0.22609597658717265,
            -0.2862085623639005,
            -0.26290012374976446,
            0.08076466414419298,
            0.3819250412677014,
            -0.16996516191151373,
            -0.20322511024986983,
            -0.1616935004862547,
            -0.07323075077471652,
            0.3164462884942405,
            -0.15214884917099566,
            0.02935865338914851,
            -0.019547349707700376,
            0.1213261397982122,
            0.12875270190806234,
            -0.18248264703023254,
            -0.28525315349519326,
            -0.2966694042559028,
            -0.10760655634003144,
            -0.3211105129584623
          ]
        },
        {
          "bias": -0.10564244486116586,
          "weights": [
            -0.14849488790496995,
            -0.10563053367152628,
            -0.3694584038465129,
            0.02712129984233378,
            0.4064575707748819,
            0.17792234108818256,
            -0.1516040432608464,
            0.2661128182676191,
            -0.20350008001039832,
            0.021015355053136724,
            0.17873365602869207,
            -0.3437309018843865,
            -0.01771641749285184,
            -0.16675439672577938,
            0.2440445526852065,
            0.03334318023136896,
            -0.23602152187075837,
            -0.4063165495324438,
            0.0791468649950269,
            0.19316943977848736,
            -0.050958639889664974,
            -0.17752423606639503,
            0.24192630125414766,
            -0.3732586529118928
          ]
        },
        {
          "bias": 0.025777897132949427,
          "weights": [
            0.0599346403534084,
            -0.036292524169280915,
            -0.4058218171992443,
            0.2965239836024726,
            -0.1303679630260943,
            -0.08133457581176493,
            -0.07145649812098319,
            -0.2998108965995379,
            0.0359869378625439,
            -0.034695728836861804,
            -0.3495638219937426,
            0.2708068506483491,
            -0.2288016137153512,
            0.20404395007724394,
            -0.08918307601063181,
            0.22092617161785302,
            0.08525946255820474,
            0.28777893367104823,
            -0.28171446732086664,
            -0.2580207395692827,
            0.14083168364585474,
            -0.10247362299862739,
            0.11288902396434383,
            0.19462951424565356
          ]
        },
        {
          "bias": 0.02656571448081219,
          "weights": [
            0.21028533981444772,
            -0.2611311693203158,
            -0.11284433104499803,
            -0.2989416821710554,
            0.35366435791647644,
            -0.0258450266480886,
            -0.2550142905715102,
            -0.23643077544634256,
            -0.32755743946139065,
            0.44966592249053244,
            0.02459528734653844,
            0.34170032744924705,
            0.017566078300578873,
            -0.12955437106768547,
            0.11492772834731822,
            -0.0534332454492761,
            -0.08105217660873484,
            0.21789187486881115,
            0.24587622579055163,
            0.21428536910680707,
            0.22124631356514127,
            0.08208538724684608,
            0.1144759338404395,
            -0.29576755070613936
          ]
        }
      ]
    }
  ]
}