{
  "layers": [
    {
      "activation": "tanh",
      "num_neurons": 24,
      "neurons": [
        {
          "bias": 0.03945161099478456,
          "weights": [
            -0.11568051311411207,
            -0.2575958175547064
          ]
        },
        {
          "bias": -0.0503373633939711,
          "weights": [
            -0.3731716130544915,
            -0.1880273036465304
          ]
        },
        {
          "bias": -0.08587511667037084,
          "weights": [
            0.11241063068544298,
            0.25553874923503606
          ]
        },
        {
          "bias": 0.09987186350967855,
          "weights": [
            0.32351616715354653,
            0.37650524659328716
          ]
        },
        {
          "bias": -0.021236114741573605,
          "weights": [
            -0.32871545528447876,
            -0.09558467081112608
          ]
        },
        {
          "bias": -0.023579859236339644,
          "weights": [
            -0.2878655591169346,
            -0.12594669348796525
          ]
        },
        {
          "bias": -0.07518957086914912,
          "weights": [
            -0.3405369348735141,
            -0.3247966392340501
          ]
        },
        {
          "bias": -0.1298669793278982,
          "weights": [
            -0.2928444948546679,
            -0.12633095045605236
          ]
        },
        {
          "bias": -0.09668149953852147,
          "weights": [
            -0.0991154076431283,
            -0.183626900607039
          ]
        },
        {
          "bias": -0.03806011136162688,
          "weights": [
            -0.41230432063255507,
            -0.1613883772013979
          ]
        },
        {
          "bias": -0.06947220891522314,
          "weights": [
            -0.39248012578584945,
            -0.028748795203204516
          ]
        },
        {
          "bias": 0.08607185976480074,
          "weights": [
            0.0847693097416852,
            0.15648152459583947
          ]
        },
        {
          "bias": 0.03602603767689258,
          "weights": [
            -0.42924125832056237,
            -0.07770488359096228
          ]
        },
        {
          "bias": 0.05110073874189706,
          "weights": [
            0.23274195861795854,
            0.20296617050182447
          ]
        },
        {
          "bias": -0.049325015733997335,
          "weights": [
            -0.315065422333842,
            -0.19968353657905513
          ]
        },
        {
          "bias": 0.04508467273246135,
          "weights": [
            0.08288456203701423,
            0.18892577703142827
          ]
        },
        {
          "bias": 0.07606912254988031,
          "weights": [
            0.4581651769926859,
            0.3525496344535415
          ]
        },
        {
          "bias": -0.04216540388697588,
          "weights": [
            -0.21900609708552174,
            -0.19647893664450924
          ]
        },
        {
          "bias": -0.004115545065623724,
          "weights": [
            0.08758005719914005,
            0.21136587708629712
          ]
        },
        {
          "bias": -0.08830407929499226,
          "weights": [
            -0.2512319080772574,
            -0.2627318389220442
          ]
        },
        {
          "bias": 0.023499193524597374,
          "weights": [
            0.2635160845982614,
            0.1843504802828616
          ]
        },
        {
          "bias": -0.061859740816700766,
          "weights": [
            -0.33619643546023464,
            -0.31220549395186725
          ]
        },
        {
          "bias": 0.06549473979515619,
          "weights": [
            -0.0942646671135631,
            -0.16031622497341477
          ]
        },
        {
          "bias": -0.006206259258504627,
          "weights": [
            -0.3136013457689602,
            -0.12230989915707462
          ]
        }
      ]
    },
    {
      "activation": "tanh",
      "num_neurons": 24,
      "neurons": [
        {
          "bias": 0.024815633088861117,
          "weights": [
            -0.31703393447546035,
            0.005082906933746386,
            0.06978186423074795,
            -0.05662968165365953,
            0.3807183843648312,
            0.016170530056571923,
            -0.3187303765553519,
            0.3497093243198422,
            0.05255204565184457,
            0.3327835715655385,
            0.032238521959435204,
            -0.2978505103354236,
            -0.120495804320358,
            0.26040159192623025,
            -0.08642680358477468,
            0.2856069990393135,
            -0.09458890734283262,
            0.20424412901846153,
            -0.1448814681642802,
            0.18900097659975598,
            -0.09786399517669801,
            -0.10369147887125832,
            0.17284954709246658,
            0.09838773599548585
          ]
        },
        {
          "bias": 0.0022829583631558906,
          "weights": [
            -0.12838628474312985,
            -0.13459553124612988,
            -0.30126089313523274,
            -0.18337187571174213,
            0.18262498425722035,
            0.2647690636900088,
            -0.09310964742542183,
            0.26341613020819715,
            -0.24720164265729855,
            -0.23082873943440035,
            0.2788248328237178,
            0.0403383942873011,
            0.03649689915336897,
            -0.07145270348448429,
            -0.008849531566077573,
            -0.2703896484920673,
            -0.21986094702611286,
            0.1061820536375686,
            0.11732402952587995,
            0.23650781350835945,
            0.1888642898591027,
            -0.22712013683097462,
            0.12901342404042815,
            -0.019300084965097497
          ]
        },
        {
          "bias": 0.001225907058359074,
          "weights": [
            -0.00863287694722183,
            -0.1361523985307697,
            -0.2296955853063747,
            -0.19851699236115025,
            0.051152766114747915,
            0.03443440779972839,
            -0.04921049176716286,
            -0.16106953765751522,
            -0.23629779447376292,
            0.051857019159985016,
            -0.00010617261025712736,
            -0.04680894817092233,
            -0.22665530649074067,
            0.3464779932699438,
            0.29399460959288765,
            -0.2886241304858756,
            0.3304745329301625,
            0.24533826493249947,
            -0.006286815970442789,
            -0.15819496251999096,
            -0.2741756670474116,
            -0.30476885658831676,
            -0.24759720421796627,
            -0.14771420754306377
          ]
        },
        {
          "bias": 0.049425831962659046,
          "weights": [
            -0.014116928248039258,
            -0.15980003897086645,
            0.08313360538518984,
            -0.21268187103753242,
            -0.2604005812515719,
            0.06784113395392094,
            0.26764336424497726,
            0.16449952896696793,
            -0.0031988182731814566,
            0.2071194518315795,
            0.15756212775844122,
            -0.177192065649824,
            -0.2113578020992119,
            -0.284625013115826,
            0.22409201728911207,
            -0.08866330344491082,
            -0.008163519581129758,
            -0.19301150850189513,
            -0.17742150077292343,
            -0.14238336465551785,
            0.08500110142052501,
            0.0673913926614137,
            -0.07804267867245182,
            -0.07563873317344848
          ]
        },
        {
          "bias": 0.008459805807648366,
          "weights": [
            0.09256142076751253,
            -0.019992166823612264,
            0.27726691223264993,
            0.21848800901402118,
            -0.11315608949649995,
            -0.3048578395529587,
            0.26559061209478185,
            0.21778543814264575,
            -0.0843173976745016,
            -0.06214811462856608,
            0.20366366796211702,
            0.27213220163971336,
            -0.12012072836154167,
            -0.21118145324881085,
            0.1770131658945467,
            0.015688278925429375,
            0.28281199758372483,
            0.06679058328537496,
            -0.26115790695816826,
            0.36054020293847266,
            0.1209719698107423,
            -0.32574970940522485,
            -0.12322605222664036,
            -0.08311312203102468
          ]
        },
        {
          "bias": 0.018678431147484034,
          "weights": [
            -0.05317029094409178,
            -0.18621022697898942,
            0.39034578510631013,
            0.3056614857315842,
            -0.18735763312495965,
            0.05986031495235705,
            0.19334395133827553,
            -0.1576795234347555,
            0.1448132598150762,
            0.2442288548932397,
            -0.30954149075396725,
            0.1915062777997419,
            0.037507076047868,
            0.0784500131092157,
            -0.020182213603918718,
            -0.2699478448702373,
            0.15699092702556186,
            0.2322589043381148,
            -0.28778476534490727,
            -0.37540679445460456,
            0.2302546486178111,
            -0.33506255511624644,
            0.049569817342635006,
            -0.03396804609884131
          ]
        },
        {
          "bias": -0.043958473922773716,
          "weights": [
            -0.029059932139007708,
            -0.0009527670324396877,
            0.25663573877732754,
            -0.39121277661454423,
            0.21962639152140492,
            -0.0337670782498061,
            -0.009435351244883254,
            0.09417175225237176,
            -0.17027652481112732,
            0.009697878569097146,
            0.07033428180919496,
            -0.27263680404621615,
            -0.07093258573325813,
            -0.3546188355159912,
            -0.033125586061415885,
            0.22432019057853003,
            -0.03818360814467926,
            -0.05321793694896536,
            -0.20704160797863705,
            0.20834180045507106,
            0.054703004792084335,
            -0.07403794223628568,
            0.2745668811296093,
            -0.10264544860353945
          ]
        },
        {
          "bias": 0.020920251664127545,
          "weights": [
            -0.16728065515894072,
            -0.2615234972037663,
            -0.00616080181995796,
            -0.11960774549658951,
            0.055151440845905654,
            0.2735462848193468,
            -0.2282289772810704,
            -0.2333019419766229,
            -0.2473012352342155,
            -0.21226211232858472,
            0.15794460171236738,
            -0.24930174136234254,
            -0.13733576527164879,
            -0.007568697035640089,
            -0.08073191841958235,
            -0.33329623697648963,
            0.1048118860471311,
            -0.2154452362185356,
            -0.11037458111223458,
            0.06180175627722828,
            0.10655870654315547,
            -0.15057342532595916,
            -0.1512861098218283,
            -0.005794549482266752
          ]
        },
        {
          "bias": 0.015582885787084041,
          "weights": [
            -0.332629238363818,
            -0.1978511817282211,
            -0.3001417633874906,
            -0.16400756214440843,
            0.30572421880815875,
            -0.3346675352689197,
            -0.16503128412663526,
            0.1085266779194433,
            0.16268601886028983,
            -0.3700396365172993,
            0.2262158264965009,
            -0.10044129800519014,
            0.20793155973930355,
            0.2791636851486668,
            -0.21712786607996942,
            0.18071409868162883,
            0.23180133322116506,
            -0.1463051514627498,
            0.08061141549457783,
            0.21879811345603392,
            -0.17626227604991507,
            0.19874793522224743,
            -0.2088507025390593,
            -0.1429034404616879
          ]
        },
        {
          "bias": 0.01891454591202736,
          "weights": [
            -0.21435700080064338,
            0.23576856867736326,
            0.073551833276727,
            0.2460891278955747,
            -0.3231601110089386,
            0.264950358375616,
            -0.09660036186535978,
            0.16258725664132162,
            0.015505119880128749,
            0.030996991937602608,
            -0.053094989604211926,
            -0.06652769183142705,
            -0.08297891777641817,
            -0.20022638926953676,
            -0.23170754252509335,
            0.10306299282137962,
            0.3067852825542804,
            -0.05326224376180411,
            0.16054501145112285,
            -0.16076528673170876,
            -0.0415405329109612,
            -0.2019199272113249,
            -0.06391214132062104,
            -0.11914046797901996
          ]
        },
        {
          "bias": -0.00526338050185191,
          "weights": [
            -0.14305140041919176,
            -0.20616728807397403,
            0.23979273175235183,
            -0.24390257591570624,
            0.30997038242286407,
            0.3224887622253316,
            -0.37197525046813595,
            -0.025600267881443133,
            -0.02240541277609972,
            -0.13307821786478688,
            -0.10015356896747676,
            -0.04888288604909361,
            0.18704203596420058,
            -0.15224370308028365,
            -0.2758342238655829,
            -0.018893368091051185,
            -0.26847559256093373,
            0.02473951327464188,
            -0.31741857606195434,
            0.18764457845611482,
            -0.2771379330549386,
            -0.21587739625870142,
            0.030106074277924454,
            -0.3612118201256545
          ]
        },
        {
          "bias": 0.04119349563428598,
          "weights": [
            0.2611933245915881,
            -0.2648604144358275,
            0.2158119975029441,
            -0.01404401293063099,
            -0.044626242368581,
            -0.019300400103047784,
            -0.24566894913779866,
            -0.25749898765644763,
            0.1688377704484356,
            -0.21574601377611516,
            0.037113847028437494,
            0.31721738722336235,
            -0.13788999835319166,
            -0.11856175855865078,
            -0.28565536430182165,
            -0.013240707037457208,
            0.10245955884142999,
            -0.15915747905615535,
            0.31544554762964067,
            -0.2753932907926476,
            -0.2290463748267772,
            0.01893509935968271,
            0.07454202954052346,
            0.06576050748757105
          ]
        },
        {
          "bias": 0.03641682555821836,
          "weights": [
            0.015081369672870378,
            0.19346457002059597,
            -0.022559969308356045,
            -0.005937727191778892,
            -0.12574306623015746,
            -0.33748791030998765,
            -0.05708179462219557,
            -0.004788866600798012,
            -0.07438168331957562,
            -0.07471888722046617,
            0.20724857261531923,
            0.2877478448650211,
            -0.23944561915230678,
            -0.3265355881901771,
            -0.2490181034657945,
            -0.045313719923595015,
            -0.23875401020611367,
            0.13243303918296767,
            -0.1899405133019555,
            -0.20059581704591128,
            -0.01069356755649922,
            -0.15002226486763945,
            0.12865618620651467,
            -0.2699748125844668
          ]
        },
        {
          "bias": 0.0003949474183201332,
          "weights": [
            -0.10888681514539024,
            -0.2906188699973753,
            -0.047888526293231676,
            0.03552247400026956,
            -0.001435357189393567,
            -0.10507521505792569,
            -0.09755865602779447,
            -0.26948766398077423,
            -0.06738633139094041,
            0.23721851690463178,
            -0.0877064201625316,
            -0.31815509313123436,
            0.08578314236519123,
            0.036802860607688406,
            0.05265897616051714,
            -0.015989040680488512,
            0.2647569896909457,
            0.09609538503420659,
            -0.012268350253329553,
            0.03647307871947261,
            0.07467724992382854,
            -0.29049205104608605,
            0.09270381462733332,
            0.08249245919754229
          ]
        },
        {
          "bias": -0.05055757176677893,
          "weights": [
            0.16942318884525373,
            -0.08014498090547309,
            -0.1507053577778893,
            0.19427570929573929,
            -0.10994177278267141,
            -0.17148077448872823,
            0.1079253294443391,
            0.2886818604236348,
            -0.25874994674457735,
            -0.10555651007228783,
            0.29933082467565836,
            -0.22243758708074948,
            0.0030658447818199914,
            -0.0507804046794103,
            -0.24462281827834298,
            0.2946792974006476,
            0.055648015250295425,
            -0.062385099439903696,
            -0.23048826855585786,
            -0.2350086688381743,
            -0.14073252517338106,
            0.30274704541696473,
            -0.0454055724971467,
            0.23741133178583174
          ]
        },
        {
          "bias": 0.055214453076391175,
          "weights": [
            0.2421042973844003,
            0.04091087965871455,
            -0.0640168849144186,
            0.27726415734834436,
            0.12726062966021984,
            0.25140496314176064,
            -0.1666176949272321,
            -0.32303169088907546,
            0.09258487914083978,
            -0.36883912642547223,
            0.2920704930083608,
            0.2867723488341114,
            -0.25030373361504166,
            0.2653513869303746,
            0.255874802657955,
            0.2640685323156637,
            -0.08190709044897143,
            -0.05852925816782753,
            -0.3192563356920421,
            0.14377681133727443,
            -0.25534771918027344,
            -0.34554838542679217,
            -0.2846577056316991,
            0.17344025918527645
          ]
        },
        {
          "bias": -0.0063483120617229905,
          "weights": [
            -0.1769779536010862,
            -0.04509766553417177,
            -0.2049344976840265,
            0.30867142354725674,
            -0.14905796663798457,
            -0.08988778731419786,
            0.2938456658839174,
            -0.141259537699521,
            -0.3238196992112869,
            0.21211974265090203,
            -0.17227458988497277,
            -0.14963662618929857,
            -0.32873309325308864,
            -0.24423883875568458,
            0.23720599105995013,
            -0.04440011532668607,
            -0.2173520598137227,
            0.08750455519732303,
            -0.26464709847584333,
            -0.1067055402117607,
            0.0879292834808973,
            0.2926902409406733,
            0.20413496082872923,
            -0.010470969220636932
          ]
        },
        {
          "bias": -0.016486390054083516,
          "weights": [
            -0.050520414401771796,
            -0.014026245810893255,
            0.14224248416745802,
            -0.3204565194543176,
            0.26836246069298614,
            -0.12866350617709568,
            0.06581536715652754,
            0.33760017335450776,
            -0.29673458928570157,
            -0.3209229176677318,
            -0.24248198429303056,
            0.07690576218351874,
            0.32458969922691017,
            -0.2941223537575,
            0.09719285621578964,
            0.3842184632586527,
            -0.26993054400623323,
            -0.06602390836325052,
            -0.07757499726696222,
            -0.14722143770232687,
            0.2860618917970806,
            0.14565036713016707,
            0.1726552685792789,
            0.06946955156304185
          ]
        },
        {
          "bias": -0.0028985463976717966,
          "weights": [
            0.1746194141943969,
            0.12029654523211207,
            0.17900034957010164,
            0.08477887124413609,
            0.30509856114302214,
            -0.2534556508977216,
            0.2211601754293048,
            0.22332600481684844,
            -0.3007972580663139,
            -0.11835482380557928,
            0.00584618141404423,
            -0.26909639632543425,
            -0.1080913609594828,
            -0.08974091811521984,
            0.041595551246054414,
            0.34806550428043764,
            0.20778790608265124,
            0.15028217677896352,
            -0.11557903013058651,
            0.13474478484912863,
            -0.2582883553599987,
            0.18725368436480128,
            0.11896657724240804,
            -0.04720893593615433
          ]
        },
        {
          "bias": 0.0038005169417412873,
          "weights": [
            -0.027442713697838756,
            0.25067575309205287,
            0.15274744751823152,
            -0.320559268774648,
            -0.17940801888083446,
            0.20635520790564318,
            -0.13033392580034686,
            0.02208150755575457,
            0.26372881471780407,
            0.1768715257445609,
            0.06570250689790845,
            0.18028648893941024,
            -0.2997979654543208,
            0.15397315307671997,
            0.09402804850503414,
            0.1379220565410733,
            -0.10142296507084823,
            0.06316505095583161,
            0.2225725354897982,
            -0.14150210672866775,
            -0.2898326786155214,
            0.15812232726739472,
            -0.022884234085567116,
            0.12194700408362012
          ]
        },
        {
          "bias": 0.059687282929610994,
          "weights": [
            -0.31878750582894116,
            -0.24398420781095292,
            -0.2157243638515,
            -0.02721530557898875,
            -0.3398945059764686,
            -0.22213642609069073,
            0.18866500331302408,
            -0.2436041761704175,
            -0.14809184462195102,
            -0.20751188406865365,
            0.2688262096948165,
            -0.11860727119973452,
            0.018993973234278136,
            -0.006506271402897217,
            0.04952594142090343,
            -0.2168499238801368,
            0.0517819023612259,
            -0.22805311905490425,
            -0.14114286913921886,
            0.0021103576128304494,
            0.1081644167484714,
            -0.08970081344517268,
            0.07577095218956395,
            0.04024843408958738
          ]
        },
        {
          "bias": -0.04304677373157621,
          "weights": [
            0.3170507213988151,
            0.20147882243070836,
            0.16818000600513625,
            -0.17041886530525466,
            -0.2547842660337504,
            0.05219872165082896,
            -0.26798200882835616,
            -0.2638518670716854,
            -0.08706790596129375,
            0.2548364000492548,
            -0.23748239587651648,
            0.14276812755985643,
            0.3575730554550151,
            -0.26085539537985597,
            0.2213580246011147,
            0.061028945924197525,
            -0.21640925019952045,
            -0.198750668698057,
            -0.21945158255353897,
            0.27405017775732393,
            -0.23843725189541504,
            0.05797440251015307,
            -0.15664347287857391,
            0.22833535286883883
          ]
        },
        {
          "bias": 0.004653480830213887,
          "weights": [
            0.2670302178223844,
            -0.32587730911383067,
            -0.07482931051304471,
            -0.19648488009749995,
            0.25837101857794964,
            -0.09597661445587002,
            0.06884199885849827,
            -0.14418500783145918,
            0.14304087707290797,
            -0.2869039178830108,
            0.045127213936348526,
            0.18834351321214413,
            -0.0678699530555961,
            -0.030016416241207693,
            -0.14555800621199058,
            -0.2626285546005911,
            0.09632275547684066,
            -0.0569704873432663,
            -0.07227569528378652,
            0.1331691655629188,
            0.252333608695278,
            -0.23814171593599112,
            -0.35734480630599674,
            0.25822671167222466
          ]
        },
        {
          "bias": 0.02502581192880231,
          "weights": [
            0.13464451602918642,
            0.3191702771581502,
            0.31463713715170527,
            0.11362378938691756,
            -0.09351610132568541,
            -0.25350574646378515,
            -0.14733480177237412,
            0.08395224451662373,
            0.3339408099766041,
            0.3001432541537358,
            -0.07501878742384759,
            0.10301286720038692,
            -0.33641558295525764,
            0.1620358516577523,
            0.1094471830640206,
            0.05880365376339497,
            -0.016323560804828864,
            0.09222597943266662,
            0.16325502154080013,
            -0.34480261149198155,
            0.01903941948703592,
            -0.145891235858782,
            0.08285019665831066,
            0.0017253130916679252
          ]
        }
      ]
    },
    {
      "activation": "None",
      "num_neurons": 6,
      "neurons": [
        {
          "bias": 0.017589139576859616,
          "weights": [
            0.07816012196646574,
            0.0842295558924064,
            0.07967746417828099,
            -0.09370582585704965,
            -0.07674899731955441,
            -0.3850303293546528,
            0.19542360443903223,
            0.3219987046095021,
            -0.2677517247315935,
            0.2838426524197812,
            -0.15875245068620641,
            0.28697144587684914,
            0.07890839005718751,
            0.2388362003922156,
            -0.02599594640699041,
            -0.21723999528411778,
            -0.21973486325554722,
            -0.053663081360948224,
            -0.021659821343276986,
            0.2970998081390503,
            0.07907136715734994,
            0.3820921931598954,
            0.30656382084284617,
            -0.045456984356849306
          ]
        },
        {
          "bias": 0.013234251451241278,
          "weights": [
            -0.36844843760414725,
            -0.3059495770675556,
            0.14789275136612776,
            -0.4292826376608827,
            -0.2855495783331481,
            -0.26102165181591536,
            0.08675316380726893,
            -0.1468683733595765,
            0.4195954878357287,
            0.09721221953397069,
            -0.048325800198752406,
            0.0772668126304227,
            -0.12949888776987514,
            0.23060100193028724,
            0.30892955486723517,
            -0.214171628375315,
            0.1114475382185404,
            -0.14189333396738454,
            0.3239487117889558,
            0.05903284266756696,
            -0.22396274283001233,
            0.08001298458020237,
            -0.10781597962040257,
            -0.10535934899102217
          ]
        },
        {
          "bias": 0.020026628769076873,
          "weights": [
            0.06402908218107262,
            0.02827660387235503,
            -0.24254791775249995,
            -0.2850841089927353,
            0.26191090421234486,
            -0.13025554355971156,
            0.2713446014981408,
            0.015509647619353976,
            -0.22493282521155966,
            -0.32251202933548917,
            -0.3289444884851446,
            0.017658775291390753,
            0.16969066563740146,
            0.3002401258040736,
            -0.3537137245580906,
            0.028449670157330114,
            -0.3275344725335236,
            -0.3884887490657823,
            0.25179793043265103,
            0.09663191985663601,
            0.008130756929599877,
            -0.18037278759064956,
            0.06582506225892616,
            -0.21688985742454261
          ]
        },
        {
          "bias": -0.0250085574238322,
          "weights": [
            -0.14249936538088626,
            -0.08133243937077961,
            -0.20250240103050857,
            -0.3196922069886695,
            -0.2625894202789798,
            0.06598025507064442,
            0.07711887411452369,
            -0.11061350724554547,
            -0.14169722166158066,
            0.025332164711555055,
            0.1260261436339102,
            -0.15143337602252663,
            -0.20540924135704725,
            0.06080579317025633,
            -0.20078146705513078,
            0.004536804595472029,
            0.0348932627224878,
            0.3489532824963724,
            -0.17533769796597878,
            -0.27064659215167425,
            -0.07633271495323576,
            -0.242038553184652,
            0.2939451103961532,
            -0.23240021410877873
          ]
        },
        {
          "bias": -0.018611907326653618,
          "weights": [
            0.4092829674661153,
            0.05849601885571914,
            0.22887557487010635,
            0.27363365520224625,
            -0.017150699066039436,
            0.04850387988324881,
            -0.12012043008303705,
            0.07817869130068922,
            0.3246015244450627,
            -0.2075645294364376,
            0.0054490480121901115,
            0.18291421214342518,
            -0.2205481725849025,
            0.30848182129732293,
            -0.28416860452953335,
            0.012834151332493694,
            0.07613169123854514,
            -0.18121583773111655,
            -0.28764580282289964,
            0.5148994684447143,
            -0.05767961865625211,
            0.2063732325663893,
            0.23560614068377306,
            0.007812228260513502
          ]
        },
        {
          "bias": -0.04526768745083287,
          "weights": [
            -0.21289680850204923,
            0.09274932553080906,
            -0.27539092637173734,
            0.3464868266889744,
            0.22436336289800485,
            0.2738688451063301,
            0.07980982569240529,
            0.16685549110877948,
            -0.14460572738618505,
            -0.19861898191340424,
            0.0014293122225596284,
            0.07640614275174117,
            -0.08760932789515227,
            0.2425343540843101,
            -0.13990426929846347,
            0.24991034707623522,
            -0.09299095930990327,
            0.13173759783594563,
            0.05452263292008057,
            -0.39062430057408654,
            -0.2624803482175362,
            0.32927665817644386,
            -0.08012975934201455,
            0.2690570865850524
          ]
        }
      ]
    }
  ]
}