{
  "layers": [
    {
      "activation": "tanh",
      "num_neurons": 26,
      "neurons": [
        {
          "bias": -0.1391301245882529,
          "weights": [
            -1.0375769683946676,
            -0.16570596592081283
          ]
        },
        {
          "bias": -0.31664581446015894,
          "weights": [
            -4.211251685486626,
            4.895391827164385
          ]
        },
        {
          "bias": -0.25569146163339157,
          "weights": [
            1.0419249002684183,
            1.0653472303553926
          ]
        },
        {
          "bias": 0.6654356342342144,
          "weights": [
            0.3702451126460149,
            -0.7170664465124587
          ]
        },
        {
          "bias": -1.1870204536334352,
          "weights": [
            0.7642427806104847,
            -1.0843960366553398
          ]
        },
        {
          "bias": 5.999695352239084,
          "weights": [
            -6.308233522875619,
            -6.069770744191528
          ]
        },
        {
          "bias": -0.06027801624616025,
          "weights": [
            -0.35970668741786316,
            0.30886198901035383
          ]
        },
        {
          "bias": 0.6093798385974325,
          "weights": [
            0.19738269692456697,
            -1.430403547118839
          ]
        },
        {
          "bias": 1.4974882569214758,
          "weights": [
            -0.7286699437659029,
            -0.4111907112050338
          ]
        },
        {
          "bias": -0.0548599408434484,
          "weights": [
            0.923796667659737,
            0.5720026565509969
          ]
        },
        {
          "bias": -1.0056947153583793,
          "weights": [
            -0.3496396702907056,
            0.19163767816830243
          ]
        },
        {
          "bias": -1.3092712718832182,
          "weights": [
            -1.519150418427603,
            -0.7635887347228301
          ]
        },
        {
          "bias": -0.2992404016478589,
          "weights": [
            -0.06798270717848721,
            -0.5518732597599176
          ]
        },
        {
          "bias": -5.749264425428016,
          "weights": [
            6.038146282272434,
            5.753301792774877
          ]
        },
        {
          "bias": -0.7046321933421946,
          "weights": [
            0.04345308906727537,
            1.5741038302449655
          ]
        },
        {
          "bias": 0.9361027082023404,
          "weights": [
            -0.47940008511864324,
            -0.9472267785455724
          ]
        },
        {
          "bias": -0.05638774431574058,
          "weights": [
            -0.2567231387824445,
            0.2207517675595823
          ]
        },
        {
          "bias": 2.2080582534960635,
          "weights": [
            -1.421958563022948,
            -0.19182872780388718
          ]
        },
        {
          "bias": 0.3129282174268678,
          "weights": [
            1.3081318323158089,
            0.5386549245011585
          ]
        },
        {
          "bias": 1.9045757497897495,
          "weights": [
            -1.033403164243229,
            -1.4278029451053005
          ]
        },
        {
          "bias": -1.3244993225223178,
          "weights": [
            -0.34612737434329965,
            -1.811300788040017
          ]
        },
        {
          "bias": -0.3340837314782945,
          "weights": [
            -0.15686300731739286,
            -0.37925168223139094
          ]
        },
        {
          "bias": -1.217041767127062,
          "weights": [
            0.521138557876123,
            0.053881591761067826
          ]
        },
        {
          "bias": 0.5457196076537145,
          "weights": [
            -0.4440492902169668,
            -0.4902044917146735
          ]
        },
        {
          "bias": 2.7644975029169356,
          "weights": [
            -11.563325779740596,
            5.66026467803134
          ]
        },
        {
          "bias": 0.5955140336955663,
          "weights": [
            0.5908774660960604,
            -1.7892891425935395
          ]
        }
      ]
    },
    {
      "activation": "tanh",
      "num_neurons": 26,
      "neurons": [
        {
          "bias": -1.7761850020525247,
          "weights": [
            0.05747163228489362,
            -0.5935791908298106,
            0.6193665840338158,
            -0.4133705332430041,
            0.321038533800981,
            -0.2625760654465227,
            -0.04093284982357363,
            0.19962470014262612,
            -0.3160944388667579,
            -0.3120792097094396,
            0.5483136338731933,
            0.5364122222459804,
            0.2514774232014793,
            1.7151269565394849,
            -0.060799023500662484,
            0.2665447348089813,
            0.23090763733801947,
            -0.8964695557598122,
            -0.7467749733594111,
            0.1317630668536562,
            0.43260723606340246,
            0.444929386641016,
            0.1578535093667098,
            1.0317284572506964,
            1.7730578603600153,
            -0.3941123090209795
          ]
        },
        {
          "bias": -1.017790795134838,
          "weights": [
            -0.3170526009044833,
            2.6234190659122945,
            -0.27614919479258115,
            0.030591330229170786,
            -0.960574264494405,
            -0.23966269173647117,
            0.16650491194556738,
            -0.00689626129980655,
            -0.10665986392311419,
            0.22881565184926142,
            -0.1741869744268883,
            0.3011105607321108,
            0.16009789579971273,
            1.6322677260249392,
            0.32156490024917245,
            0.016934787029927196,
            -0.20101970079943987,
            0.4063268547369736,
            -0.1382865608009208,
            -0.3090558292461597,
            -0.05514828173693924,
            0.2191693217726859,
            -0.09146859533220741,
            -0.6380561757596267,
            -1.909493770385924,
            0.15800337442026463
          ]
        },
        {
          "bias": 0.735269521595019,
          "weights": [
            -0.32585747413493055,
            2.442031741686125,
            0.6234989225199471,
            0.33628776524916715,
            0.5160804798536259,
            0.07861900182997673,
            -1.2571094628429083,
            -0.8208570895120196,
            -0.5687801901389694,
            -0.6157635494003914,
            -0.27112610644671886,
            -0.13442958075601572,
            -0.5270296111990987,
            1.6978718244719462,
            0.246519763209229,
            -0.11229753679138482,
            0.45272555819002863,
            -0.7786295391015194,
            -0.04129036219192688,
            -0.4204073226658689,
            -0.055681445736334434,
            -0.057563598958485104,
            1.126864948540747,
            -0.8610302626445894,
            -1.1715108869234,
            0.15897773568781448
          ]
        },
        {
          "bias": 0.6478137423515395,
          "weights": [
            -0.3502478626766389,
            -0.5904177033710795,
            -0.5522371856149472,
            1.0701887733133117,
            -0.5880211339928797,
            -0.8650939839870793,
            -0.4622050863785037,
            -0.010810899993685903,
            -0.013800697110127606,
            -0.7058434468088588,
            -0.2765842206079972,
            0.2569638294199852,
            -1.6255302247205243,
            -0.6750206745840616,
            -1.592343051658581,
            -0.5143412875660492,
            1.0170697923544887,
            -0.8235389571460555,
            -0.27370253821003854,
            0.014002393214650294,
            1.1401276974248724,
            -0.7128996036139766,
            0.2629821834853412,
            0.20351066598803616,
            -1.1145933951422737,
            -0.0009885434581793954
          ]
        },
        {
          "bias": -0.28021094337910646,
          "weights": [
            -0.6085523110600521,
            -0.2320796877821269,
            -0.1146053962931562,
            -0.28550077809826996,
            -0.22487017221297154,
            0.31897819109362546,
            -0.15801772900809713,
            0.7800913804214535,
            -0.13403822268392673,
            -0.4306184386439099,
            -0.30244822113203507,
            -0.5547796597810547,
            -0.6674043163672542,
            0.4967226253804651,
            -0.42255155724907295,
            -0.005121262489453106,
            0.1404973068157287,
            0.24709113923741124,
            -0.058286894365743414,
            -0.3129620607963143,
            -0.02480972034325273,
            -0.16617440117027235,
            1.3748645176561198,
            -0.2214575610317867,
            0.10251247414853844,
            0.1871336235666179
          ]
        },
        {
          "bias": 1.147652213594426,
          "weights": [
            -0.28818830573218146,
            0.21958787204607014,
            0.5951358658786173,
            0.7366710587368828,
            0.11983455965955978,
            0.1606003882886935,
            -0.9437477363587363,
            0.18290899578203734,
            -0.1199662728940814,
            0.10106101239495273,
            -0.5231386827977831,
            -0.2796851776776974,
            -0.7908009558184271,
            0.029195772038836956,
            -0.9507973726168889,
            0.23026955337390964,
            0.4109385781100866,
            -0.8543251947813735,
            -0.34639768174113733,
            -0.25598681640021015,
            0.08578440054058678,
            -0.39139709074333334,
            0.7821674077590964,
            -0.4156500810994617,
            0.1621678447610832,
            -0.21861807275458658
          ]
        },
        {
          "bias": -0.10192959751730493,
          "weights": [
            -0.36529514037307476,
            -0.017292604102829755,
            -0.06896273934976152,
            0.2787522302739841,
            0.057018956472339705,
            -0.5534908838394664,
            -0.11890583873194487,
            0.21164806989275348,
            0.49039633967616636,
            -0.10716178449292435,
            -0.13842997661183903,
            -0.16087707456002923,
            -0.22615705037445838,
            -0.5202571627921571,
            -0.13029745378600632,
            -0.5774800184979243,
            0.14487252170193024,
            -1.424137830026068,
            0.17988138280098656,
            -0.14101043224218118,
            0.010998110588555593,
            -0.3456922478606263,
            0.07409568834086716,
            0.7052688801862614,
            0.03748887643580376,
            0.35831201724033107
          ]
        },
        {
          "bias": 0.8239638117896751,
          "weights": [
            -0.5258724686204757,
            0.09796949595630164,
            0.0718489972404511,
            0.0659342100467303,
            0.6691111920244973,
            0.11702864360556936,
            -0.7130295254254748,
            -0.5749463902256026,
            0.10118638816356365,
            0.20031048330712217,
            0.4042677968520427,
            0.7699430898035853,
            0.021712370088877008,
            0.6921347601383461,
            -0.37446497520724,
            -0.22522081886979706,
            -0.17520644238888633,
            0.4314171348478577,
            0.07203283103873392,
            0.08242749004371241,
            0.5488612420061632,
            0.15729365625151523,
            -0.584985152306605,
            1.1018966762229356,
            0.10863660799641955,
            -0.6497345923667729
          ]
        },
        {
          "bias": -0.08081090626657997,
          "weights": [
            -0.894708013004882,
            -0.05415889402837292,
            0.502358142299568,
            0.3738435249622971,
            0.6058696392177063,
            -0.24833814258246642,
            0.002652702171220139,
            -0.027509930140044506,
            0.3789325116765094,
            -0.8563358541499446,
            -0.03551136612414355,
            -0.3226964029575676,
            -0.18410873703451475,
            -0.09404598728036032,
            -0.6469948929107183,
            0.44514245226592625,
            0.15633083959212166,
            -0.2330129262546087,
            0.4008081810176416,
            0.24328297512270697,
            1.4440040429941732,
            -0.002466370809037817,
            -0.11451859372942547,
            -0.9139299409820223,
            0.011621661043110467,
            -0.34120490517914737
          ]
        },
        {
          "bias": -0.1542456225205986,
          "weights": [
            -0.3064661004166008,
            -1.1641187392573453,
            -0.771370325439088,
            0.7139185257963141,
            -0.20880219384263146,
            -0.14364582784463065,
            0.29907280750490456,
            -0.159913844279225,
            -0.19594413964962495,
            0.06070789832451209,
            0.10045669012439983,
            -0.023358907531949566,
            -0.10795770422660407,
            -1.745815827941498,
            -0.08749235006991857,
            -0.6519007491116134,
            0.3624990842299859,
            0.06871429624380385,
            -0.0340221622336159,
            0.7482818376847267,
            0.866883167737186,
            -0.7336523923170569,
            0.11123419320819891,
            1.3116172703713846,
            -0.08560980548146478,
            0.611988540876121
          ]
        },
        {
          "bias": 0.27826051537641544,
          "weights": [
            -0.3824399382237895,
            0.041404390479039134,
            -0.46483504246127094,
            0.9237621278847226,
            -0.2918043039032112,
            -0.31363232751580183,
            -0.520164278409616,
            -0.7290888961375162,
            -0.06228514924396482,
            -0.34235246765677224,
            -0.33606992072701675,
            0.33977719003752377,
            -0.36121696669887937,
            -0.3247271848096083,
            -0.0022670247647194075,
            -0.9238071316078849,
            0.6747094037726462,
            -0.4217672818030267,
            0.28874143979392647,
            0.5461584236583252,
            -0.22034065492735794,
            -0.519527604931765,
            0.4438144992459707,
            0.8114881841987793,
            0.040446527756729134,
            -0.31370981713352947
          ]
        },
        {
          "bias": 0.5315093000726534,
          "weights": [
            -0.1313690269252356,
            -0.23698074849220957,
            0.167388705858381,
            -0.0001836637299407099,
            -0.12404596040088725,
            -0.35667621065046134,
            -0.32846325980135027,
            -0.18520458871008355,
            0.1632695649215444,
            -0.21537588316925602,
            -0.4504095847842049,
            -0.06258541052347638,
            -0.4395964523665525,
            -0.055076098325275616,
            -0.3251923817062218,
            -0.9860515097432754,
            0.286389734988121,
            -0.31684606515720165,
            -0.29562764550515475,
            -0.35515345640120516,
            -0.18077936777268214,
            -0.1507444396048396,
            0.4316443233744233,
            -0.49602677469486256,
            -0.1107694560679702,
            0.4277936700952878
          ]
        },
        {
          "bias": 0.3294587422456451,
          "weights": [
            0.1339865028083401,
            0.08228461692861865,
            -0.3347279816164855,
            0.3954835836866933,
            0.35346190493253626,
            -0.827412377442005,
            0.40141818315577965,
            -0.5319097602788924,
            -0.7839071493758497,
            0.21563262593576132,
            -0.1783044324618158,
            0.03425583382319296,
            -0.38729672776270113,
            -0.5230402437770765,
            -0.11730293489670471,
            1.033061236418556,
            -0.3272072759175578,
            -0.40592869949930416,
            0.17287502014991912,
            0.19979050426027842,
            -0.05128767799794015,
            -0.002129410213591586,
            -0.27578469200011924,
            -0.8911495872984985,
            0.03408471410758941,
            -0.12833760353282914
          ]
        },
        {
          "bias": 0.20069576845540996,
          "weights": [
            -0.3784480533505451,
            0.5460946061767219,
            0.5582726984723833,
            -0.32781620931907046,
            -0.011074646130735655,
            -0.9128094070346477,
            0.27889829011169026,
            -0.37046958746743786,
            -0.3891218304891385,
            0.3657961330357432,
            0.07655760744403185,
            0.5110072280956891,
            0.512032443991531,
            -1.114021270346414,
            0.3132987435663437,
            -0.37185330512137943,
            -0.01881101832652773,
            -0.13036384173806345,
            0.4652251123106467,
            0.4980403439966852,
            0.23580120134132668,
            -0.06676724137828155,
            -0.08547424522042539,
            1.5771026756953117,
            1.0801003505246682,
            -1.0317238753419125
          ]
        },
        {
          "bias": -2.099837014251167,
          "weights": [
            0.15543530973686462,
            0.5766711671552809,
            0.2784633258190763,
            0.18829644145758334,
            -0.3127151597179933,
            -0.8377751081928967,
            0.03434702402027876,
            0.5507749786101954,
            -0.6121532622776273,
            0.4298429239705498,
            0.024260089277723107,
            -0.7365574030849836,
            0.3965605120634632,
            0.43601761791715654,
            0.5577917433437279,
            -0.04489910601104394,
            0.13680233540515446,
            -0.16647623432955358,
            0.05370051394192952,
            -0.9674661674568922,
            0.16355155611539257,
            -0.3216397332939425,
            -0.17787579441604767,
            0.6634351505241882,
            -2.0773393253698242,
            -1.519952395567181
          ]
        },
        {
          "bias": -0.854604993414446,
          "weights": [
            -0.6403692740715392,
            -1.3102706817621599,
            0.5133482481970012,
            0.10850125768603806,
            -0.06853395655972538,
            -0.4147962559897915,
            -0.6300664562181848,
            0.08660339923966434,
            -0.6574257374351777,
            0.6344110427941542,
            0.2721849524134417,
            0.2073963833369677,
            0.24641390059385643,
            0.3281512262133771,
            0.5138869244263529,
            -0.6332463829956883,
            0.4505486002721348,
            -0.028062596072423906,
            0.790273717740389,
            -0.5437569309191987,
            -0.4221830216639269,
            -0.19267250815211123,
            0.051242578298489175,
            -0.09258655064266974,
            0.023832797673956792,
            0.8251292986704274
          ]
        },
        {
          "bias": -0.8286321343378167,
          "weights": [
            -0.506912316649895,
            0.9108673911501007,
            0.014821971435550942,
            0.2448331864275072,
            -0.1379437335324198,
            -1.489014160893106,
            -0.4800652471688511,
            -0.1649124269648483,
            -0.5238504213277133,
            0.1676196409199353,
            0.4016830107967865,
            0.18054587610966327,
            -0.45197156706515024,
            0.4025948791189993,
            -0.19127222399624133,
            -0.27604080451022517,
            -0.09027066316781907,
            -0.28737092130331177,
            0.4911056778513839,
            0.18516071661725236,
            -0.26953322200628616,
            -0.48201538970805247,
            0.5049242576329239,
            -1.084418797273762,
            1.240398226132934,
            -1.2575445368032636
          ]
        },
        {
          "bias": -1.0616656539098832,
          "weights": [
            0.2201865619767939,
            -0.09662398695036754,
            0.6336672307807835,
            0.038569202316146405,
            -0.8791125822069222,
            0.19361399403721996,
            -0.2979223463580251,
            -0.5804865913076324,
            0.30243566170316427,
            -0.38500768065898855,
            -0.029282491925006107,
            0.09664895436938871,
            -0.3505626119657103,
            0.11738122752809493,
            -1.167261376471491,
            -0.7790369950548535,
            0.5749476392499862,
            0.4870521094500408,
            0.6210176523633779,
            -0.6698136774285348,
            -0.20256338523191503,
            -0.09820310645387166,
            0.3191372083440498,
            -0.7775352354141183,
            -0.025515737746813358,
            -0.18437673747675498
          ]
        },
        {
          "bias": 3.4212461798952676,
          "weights": [
            -0.9058776266228987,
            -0.6092532645659389,
            -0.5436767283095589,
            1.1727682625881366,
            0.1791309580133374,
            -0.608018442884872,
            -0.47434038684858615,
            0.28647050928144063,
            0.4258033955560321,
            0.2148051306603753,
            -1.0009061439470672,
            -0.7430046205208923,
            -1.0175258164922651,
            -1.0338143013849814,
            -2.444594725033286,
            0.7529970986688559,
            -0.5897854617718046,
            0.7807301306424809,
            0.2840902391424011,
            1.7776687576744754,
            -0.47292243510449894,
            -0.5835458732237404,
            0.6884163080127909,
            0.7152103433721047,
            -0.6090924464166877,
            0.7277560755178724
          ]
        },
        {
          "bias": -1.3275853510245534,
          "weights": [
            -0.13275295297593445,
            0.5728028407037256,
            0.09990421169979147,
            0.774589602865015,
            -0.15008131740204053,
            -0.8519081475650727,
            -0.6880749522861889,
            -1.8222291173632221,
            -0.1255335020403247,
            0.23479974472184326,
            0.005062105674635922,
            0.38684985033275276,
            -0.15264090726853702,
            0.42974153028488193,
            -0.4861978995575141,
            -0.35942235076491874,
            0.08301642115954806,
            -0.4518515031830696,
            -0.16989731608905922,
            -0.646046524010056,
            -0.17199651074289954,
            -0.2753202554130036,
            0.34756087762642934,
            0.7692920446816106,
            -2.0643861044916405,
            -0.9459574152391523
          ]
        },
        {
          "bias": 0.5309448386291539,
          "weights": [
            -0.8971686433476422,
            -0.054626098414976273,
            -0.36009378688814286,
            0.6487988898538813,
            -0.40625855404509065,
            0.08462361693297116,
            -0.11464071788999065,
            -1.4033761854743856,
            -0.2962491988791372,
            -0.06155881806565733,
            -0.2903764476957347,
            -0.12590807863427067,
            0.25834058887216593,
            0.04856448184923013,
            0.34494027415241874,
            -0.38231376463505784,
            0.2505696987465623,
            -0.5911007204566378,
            0.28723482420706964,
            -0.05462944598391368,
            0.44487670346769914,
            -0.4411771484818183,
            0.36137539368100313,
            -0.5297764611860148,
            -0.031934975990360374,
            0.9384113135958805
          ]
        },
        {
          "bias": 0.12905913867605595,
          "weights": [
            0.5897396320208753,
            0.29405384413117963,
            -0.34867235116804973,
            0.016862910234288583,
            0.30991522237118374,
            -1.219934548499085,
            -1.0296736764598435,
            0.6467975233487455,
            0.27543538103340326,
            -0.5764505494053037,
            -0.1422902302382717,
            -0.7701163685567917,
            -0.06115890408053547,
            -0.9577836516528444,
            -0.3195232714851261,
            0.04154941794952584,
            -0.37041243586627426,
            -0.5163644471683099,
            0.792682303664877,
            -0.18444221253488985,
            0.009574849012503191,
            0.45272438348800026,
            0.06800617145209557,
            0.4743033127054419,
            0.0044760409975292195,
            -1.227402591933073
          ]
        },
        {
          "bias": -0.22999349573619104,
          "weights": [
            0.600560835803329,
            -0.3067372584382788,
            -0.24747935294961876,
            -0.03592296414926359,
            -0.06854417395505698,
            0.08369181350855226,
            0.5775702478952636,
            -0.15273723645919599,
            0.14858449388002176,
            -0.24972912316374526,
            -0.5478660370847032,
            -0.2017211779359489,
            -0.24628185583610057,
            -0.4228059958731847,
            -0.01927528769898052,
            0.5777674113613939,
            -0.013294343160807555,
            -0.15473859543465618,
            -0.43629185893338257,
            -0.25832935996823336,
            -0.019625359264187216,
            0.1603850329790821,
            -0.6291715484186299,
            0.676293036185903,
            -0.2231933129397456,
            0.5575150595433042
          ]
        },
        {
          "bias": 0.730218096096977,
          "weights": [
            0.740170185946811,
            0.11270866019786031,
            -0.43914440264974025,
            -0.06421423646849271,
            0.44644320734945,
            -1.0709616624828915,
            -0.015363234314957178,
            0.2681238962584139,
            -0.4136101933756701,
            -0.15988297700848658,
            0.11999290791715034,
            0.3044045149450863,
            0.3369335713703588,
            -1.1256588069453968,
            1.0601301479633845,
            0.7102273944961619,
            0.07600362291004639,
            -0.2267993441697928,
            0.05724686220627984,
            -0.8710802518363315,
            -0.43378040366821613,
            -0.0299629415374304,
            -0.2262533577873212,
            -0.9800697424109044,
            0.11999798323519188,
            0.9975493289952443
          ]
        },
        {
          "bias": 0.48172684040545743,
          "weights": [
            0.9108289997959528,
            -0.15549845304376364,
            1.2230481595381557,
            -0.45155912246833535,
            -0.2308599385934144,
            -0.02630133629302905,
            0.16860208086076942,
            -0.3873613482821212,
            0.47294724468383276,
            1.0541575921115294,
            -0.040816331412396406,
            0.424128561574781,
            -0.31513713008639577,
            -0.007913186775024391,
            -0.0035974683469244873,
            0.5653069942600433,
            -0.07278510564444914,
            0.7512467203052187,
            -0.17653685921021728,
            0.6377115816846795,
            0.3396819273811465,
            0.144183081258015,
            -0.5942602688259079,
            -1.7240261499931238,
            -0.16716568363668743,
            1.208056963374192
          ]
        },
        {
          "bias": 1.0885158631026453,
          "weights": [
            -0.16850073195138027,
            1.2197785089421513,
            0.14844274182151848,
            -0.13370427622848993,
            0.6700306591036793,
            -1.3442263653510833,
            0.026278779218171556,
            -0.15014434797729997,
            -0.21373491940768916,
            -0.15512953522086947,
            0.4670093855359042,
            -0.1527046090509638,
            0.027626986449115782,
            0.2247596751834436,
            0.4176158214695232,
            -0.33019275951373994,
            0.008546070415189864,
            -0.39324538509401125,
            0.4168930837040518,
            -0.0319200116371718,
            -0.10134208007662905,
            0.36998341297413057,
            -0.2683253445191934,
            -0.9893575835475402,
            0.17042793481633411,
            -0.30016058305606924
          ]
        }
      ]
    },
    {
      "activation": "None",
      "num_neurons": 4,
      "neurons": [
        {
          "bias": -0.41025276523173554,
          "weights": [
            1.3340667118819747,
            0.06137189330710375,
            -0.0787188712071808,
            0.47734790635296026,
            -0.5811227539029219,
            0.26701066285720815,
            0.6407388350200791,
            0.6340782998137824,
            -0.07338691097711712,
            0.6003988738751761,
            0.8745004457702565,
            0.41670836889501606,
            -0.7617738857982899,
            0.475219912539482,
            -1.1843437039695028,
            0.008238711262519275,
            -0.06380827223158789,
            -0.5334864264251828,
            0.5438851068977877,
            1.177535118530497,
            -0.30295425295442496,
            -0.5471683056448138,
            -0.10158162998547868,
            0.09997288454779515,
            0.7288500871283979,
            0.6028813274246815
          ]
        },
        {
          "bias": 0.8861819722764995,
          "weights": [
            0.08325664966990139,
            -0.012100214997086826,
            -0.003510460066580647,
            -0.022056475204277504,
            -0.39755455115145805,
            0.2814917420765894,
            0.018606746550840672,
            0.41719791676178514,
            -0.8968460931875147,
            -0.10277837219606782,
            -1.2344100853008602,
            -0.06172885509543097,
            0.8858964912062756,
            -0.022165814420998322,
            -0.08189310913718481,
            0.02304046912267705,
            -0.013894332155455297,
            -0.49438856933957265,
            -1.7074834666226255,
            0.08096268374712795,
            0.2564437597300913,
            -0.8617659899839677,
            0.24618929476521803,
            0.5994774932904339,
            1.6669947044474356,
            -0.09397813614948801
          ]
        },
        {
          "bias": -0.05124188156141508,
          "weights": [
            0.9696584453438826,
            0.012205876461457203,
            -0.023069566616685855,
            0.08038676486990255,
            -0.3132621567075137,
            0.6844371054214514,
            -0.7474333843630193,
            -0.3337964962213232,
            0.7177187666968928,
            0.10346320766308167,
            -0.36436832230671845,
            0.24723877319759602,
            0.36861105442905445,
            0.07977130727244429,
            -0.8554262424405354,
            -0.04469269083084328,
            -0.007032686049837959,
            0.3016543107487229,
            -0.09522546122761308,
            0.857033292455354,
            -0.7759787343802886,
            -0.4532737029575184,
            -0.2593813655787835,
            1.4679703548374505,
            2.356744917211129,
            0.08688110036743514
          ]
        },
        {
          "bias": 0.08291787733464337,
          "weights": [
            -1.7247089314255841,
            -0.09510196700517946,
            0.11927879387938577,
            -0.693214241984133,
            0.8098306239765569,
            -0.47822712591882627,
            -1.0966321668848424,
            -0.9971404861583681,
            0.23461419133664943,
            -0.9300632738960412,
            -0.8585716323657621,
            -0.5436950844494192,
            1.0922145289721337,
            -0.6883603181664911,
            1.7843611999563862,
            -0.014154937561324705,
            0.09278794101327685,
            0.4873269625349732,
            -0.2874023408089136,
            -1.7760016588362404,
            0.6186139773181267,
            0.7223937165312789,
            0.11718105947881166,
            0.17806979055606942,
            -0.7707065790758236,
            -0.9274795255951156
          ]
        }
      ]
    }
  ]
}