{
  "layers": [
    {
      "activation": "tanh",
      "num_neurons": 26,
      "neurons": [
        {
          "bias": -0.025804665787591465,
          "weights": [
            0.16343027001688745,
            0.17467200906168376
          ]
        },
        {
          "bias": -0.019748612598643873,
          "weights": [
            -0.2773041194198489,
            -0.009879917327023813
          ]
        },
        {
          "bias": -0.0381836261862129,
          "weights": [
            -0.25907230818510224,
            -0.04451763217759368
          ]
        },
        {
          "bias": 0.040284185319006245,
          "weights": [
            0.24163373368192584,
            0.20046747296446463
          ]
        },
        {
          "bias": -0.055747544594942675,
          "weights": [
            -0.23617723916237768,
            -0.2239202395123354
          ]
        },
        {
          "bias": 0.022410307933480582,
          "weights": [
            -0.31126024145338826,
            -0.1084660293025263
          ]
        },
        {
          "bias": -0.04592013490150308,
          "weights": [
            -0.29731303236337797,
            -0.21934165395910032
          ]
        },
        {
          "bias": -0.07493495031311419,
          "weights": [
            -0.236632134532931,
            -0.1581323976250903
          ]
        },
        {
          "bias": -0.004813729418659863,
          "weights": [
            -0.0047234643694594475,
            -0.0020099327256463233
          ]
        },
        {
          "bias": -0.018708914444629618,
          "weights": [
            -0.26256377667326847,
            -0.03150661204281635
          ]
        },
        {
          "bias": -0.12039104894059896,
          "weights": [
            -0.18069632277935732,
            -0.0743894078555741
          ]
        },
        {
          "bias": 0.09049554617526621,
          "weights": [
            0.1864494597139701,
            0.20217403720555996
          ]
        },
        {
          "bias": -0.04990363401415836,
          "weights": [
            -0.25669151238586485,
            -0.053226136579035244
          ]
        },
        {
          "bias": 0.031291595558772416,
          "weights": [
            0.22059088402363866,
            0.1628489873278596
          ]
        },
        {
          "bias": 0.004868949233317479,
          "weights": [
            -0.22459041942426963,
            -0.06468989825165727
          ]
        },
        {
          "bias": -0.06851665199803034,
          "weights": [
            -0.21083739278689426,
            -0.18871168471857874
          ]
        },
        {
          "bias": 0.05652350662027885,
          "weights": [
            0.2897070363376602,
            0.15627147962772975
          ]
        },
        {
          "bias": -0.04552859062303327,
          "weights": [
            -0.1798685294051197,
            -0.0930891812263814
          ]
        },
        {
          "bias": 0.013588686255354823,
          "weights": [
            0.18108317037508154,
            0.18120021043509751
          ]
        },
        {
          "bias": -0.10933461944686522,
          "weights": [
            -0.20918363709732715,
            -0.1547381511348584
          ]
        },
        {
          "bias": -0.07147663286209371,
          "weights": [
            -0.16176548860568446,
            -0.17954972860495394
          ]
        },
        {
          "bias": 0.012990834420912558,
          "weights": [
            -0.17826512631887484,
            -0.1203740764520246
          ]
        },
        {
          "bias": 0.01825229882045472,
          "weights": [
            0.23540091767826593,
            0.1279700223593163
          ]
        },
        {
          "bias": 0.1347426574844232,
          "weights": [
            -0.1801535417666144,
            -0.15945671492110616
          ]
        },
        {
          "bias": -0.029632115248578565,
          "weights": [
            -0.2574243157859614,
            -0.03647361285719523
          ]
        },
        {
          "bias": -0.1936628701009158,
          "weights": [
            -0.14134431039344703,
            -0.24544661403226004
          ]
        }
      ]
    },
    {
      "activation": "tanh",
      "num_neurons": 26,
      "neurons": [
        {
          "bias": -0.05025516136873484,
          "weights": [
            -0.2671590336818964,
            -0.1262525379386795,
            0.21977012418017236,
            -0.28885263745952156,
            0.32479415932596795,
            0.2800928023554128,
            -0.13978668226081126,
            0.30757198848948825,
            -0.3240613388678967,
            -0.08977234109627978,
            0.2770436851930788,
            0.17482018148425962,
            0.24218663259640164,
            0.3076979170499002,
            0.013175574932449256,
            0.041226622264029886,
            -0.05912769702607899,
            -0.2740602335083771,
            -0.2300928620441512,
            -0.16168300750653364,
            0.2590076928277149,
            0.144904906909998,
            0.011285563309049361,
            -0.2293482744323569,
            -0.35030993871560334,
            -0.2736983353406519
          ]
        },
        {
          "bias": -0.014673760458902533,
          "weights": [
            -0.14270362498170155,
            -0.09769219913509732,
            0.34557187335120454,
            -0.1187268618215583,
            -0.3036981259466978,
            0.001182847116334239,
            -0.0025469788212964255,
            -0.2744065681795969,
            -0.29445710787904134,
            0.13771795366649786,
            -0.3117357341747214,
            0.11124843004844344,
            -0.04244790219442637,
            0.17185118466532157,
            -0.28484741768448757,
            0.16769651331333246,
            -0.10825549912044212,
            0.3484538946418049,
            0.06071492708491508,
            -0.22691139855916495,
            0.1431385734083029,
            0.10405964615977197,
            0.16470481826594136,
            0.00975838551893486,
            0.3045980019585305,
            -0.3193740365889579
          ]
        },
        {
          "bias": 0.001961807286076404,
          "weights": [
            0.010963515855585481,
            -0.0821877718875914,
            0.23772115739740995,
            -0.19854331573013584,
            0.2576217700946351,
            -0.3158648682757369,
            0.09671460245294962,
            -0.16412315570803074,
            -0.23077459353929555,
            -0.2672401046810928,
            0.03774031690023683,
            -0.14178846803044015,
            0.29260937767207706,
            0.1893020395660972,
            0.320003220871288,
            0.15262917673274556,
            0.04882568079346571,
            -0.2005418920689217,
            -0.23053075374724138,
            -0.000718888778319718,
            0.20081701457203702,
            0.08088755678231345,
            0.3378845291996101,
            0.14187691098310093,
            -0.1402160623093938,
            -0.32851421464231734
          ]
        },
        {
          "bias": -0.03533870083981413,
          "weights": [
            0.07087471887740017,
            -0.10057808062151909,
            0.01075600398444824,
            0.21788149719259384,
            -0.059615721002901995,
            -0.01565421097515598,
            -0.14022841440213837,
            0.30628191158858553,
            0.24263052726758022,
            0.20286155289969826,
            -0.07228776040401308,
            0.038263431603969375,
            -0.23268074179469492,
            -0.02288991737903062,
            -0.2530760178365703,
            0.330947076776438,
            -0.13890892192286622,
            -0.0685235612004314,
            0.23433468971215385,
            0.27541719394827796,
            0.004245104540578056,
            -0.08865559723322038,
            -0.02647492008120711,
            -0.20460431172362728,
            -0.21524906833938393,
            0.16325370199196185
          ]
        },
        {
          "bias": -0.01648620587642995,
          "weights": [
            0.0212288772385431,
            -0.04280787872597183,
            -0.24707104437287591,
            -0.29013146836322373,
            -0.11999168168768327,
            -0.13688715399108906,
            0.37409078055640427,
            0.26234042332652685,
            -0.08481455861534896,
            -0.253142861979787,
            -0.26708277663151336,
            -0.23048891183417988,
            -0.1840139542045095,
            -0.11207158537902659,
            0.13342438782425006,
            -0.27458624637297063,
            0.019125945701198473,
            -0.18785980258982918,
            -0.16264137521217983,
            -0.2750766176100343,
            0.01072938546482686,
            -0.31567608433377387,
            0.062027728417715026,
            0.01298784829267914,
            0.2563243282260539,
            -0.19197118761577256
          ]
        },
        {
          "bias": -0.04370747212796133,
          "weights": [
            0.012559817297192978,
            -0.21249278685409748,
            5.948725511272589e-05,
            -0.035710180560243235,
            0.0007259124619677859,
            0.22179628131396825,
            0.06963999899950915,
            0.0008423671973514039,
            -0.10552060754033346,
            0.2599688856928964,
            0.1213283767052969,
            -0.1993636365691771,
            0.028369625447563215,
            -0.09948307401764357,
            0.034026493155128776,
            0.09503783069250771,
            0.12036533243165556,
            -0.29999664742365684,
            -0.07525119899237513,
            -0.17378187200803485,
            0.05948524529619409,
            0.09521287454918496,
            -0.10129095478111555,
            -0.06016336833789967,
            0.08230561503307733,
            0.03975305338143865
          ]
        },
        {
          "bias": -0.03692974747819186,
          "weights": [
            -0.04329438890366085,
            -0.244130134403005,
            0.27870549452642884,
            -0.05076436180560034,
            -0.06319316266857063,
            -0.017397536225911538,
            0.27783324871021653,
            -0.1847562297673878,
            0.1530202091350154,
            0.006106302034857195,
            0.005280125289158102,
            -0.14175869274384284,
            -0.18680582731124967,
            -0.1951975085666661,
            -0.10557177614541875,
            -0.12962332705894364,
            -0.009552989258880934,
            -0.25385064747709213,
            0.23021601766027477,
            0.14686491333079452,
            -0.25748194330195545,
            0.0975724993230085,
            0.08122488200937304,
            0.2525625601381079,
            -0.030835306818874492,
            -0.010255390953367475
          ]
        },
        {
          "bias": -0.011062405545297303,
          "weights": [
            -0.12743909618373742,
            0.25465163655115697,
            0.2329761674405261,
            0.01251964700857086,
            0.15015788391453702,
            -0.16457546989039423,
            -0.13141392218736156,
            -0.29948780849038104,
            0.2686910786127745,
            0.2736917450332651,
            -0.07963882637549988,
            0.007938308364676978,
            0.02021739848976239,
            -0.2541473503718018,
            0.06933818502664396,
            0.2571441534280279,
            -0.06817992137175401,
            -0.026290646281258167,
            -0.12919161572479437,
            -0.16255881394196053,
            -0.1378101274671932,
            -0.022378817180002352,
            -0.2824874621172257,
            0.017720832115879905,
            -0.2727687791846777,
            0.22158132572956674
          ]
        },
        {
          "bias": 0.023891952890636763,
          "weights": [
            -0.24625145819975652,
            -0.17069558068866605,
            -0.05686743651490703,
            0.17142872338666795,
            -0.12986556894686868,
            -0.23073207088108824,
            0.16837162148460338,
            -0.14064681146376978,
            0.23749154469266454,
            0.060848409336775766,
            0.25584881026369394,
            -0.10000635538765283,
            0.26037168068731364,
            -0.24513355630373296,
            -0.013185251209973669,
            0.1194477480109804,
            0.09479366914878475,
            -0.19711433497817923,
            0.06520065717659386,
            0.22957561592288558,
            0.2703945736515834,
            -0.16512590526547466,
            -0.2533145248149454,
            0.18412265800877917,
            0.12425791692511734,
            -0.16869435908281782
          ]
        },
        {
          "bias": -0.029995289805344313,
          "weights": [
            -0.16782730231850146,
            -0.21964014626845957,
            -0.10809936359485925,
            0.2457451553332498,
            0.19249085358882728,
            0.28235555668779483,
            -0.2588946768700079,
            0.07253508708558473,
            -0.25866633943200484,
            0.10093290356343419,
            0.14774949203730484,
            -0.18607711652571382,
            -0.18265350864014238,
            -0.2779082895546014,
            0.18249065928535527,
            -0.12794859506341122,
            -0.08710126733716171,
            0.207925990231198,
            0.2183891362811869,
            0.03151221160825215,
            0.13137494813999206,
            -0.06153329621880769,
            -0.019409208433856347,
            -0.06536150257510212,
            0.020547366601376293,
            0.15934339452157345
          ]
        },
        {
          "bias": -0.006839151195537181,
          "weights": [
            -0.12280617937931346,
            0.06863057510858442,
            -0.14318376509018926,
            0.30907676878092033,
            0.372345444847214,
            -0.2148529898375244,
            0.0881778858140079,
            0.15420880686926638,
            0.03432130485226664,
            0.10511697655179009,
            -0.23542748284106263,
            0.19131981160469647,
            -0.26469159004156534,
            -0.25570236728715684,
            0.20328222131084,
            -0.1935630017291332,
            0.17864835574450794,
            -0.12881460805497805,
            0.09709797087578487,
            -0.04872238785706699,
            -0.19444068976860673,
            -0.06512437622485379,
            0.1521029331610854,
            -0.07464506916812337,
            0.23116811494975778,
            0.08038570170167696
          ]
        },
        {
          "bias": 0.03700283298981534,
          "weights": [
            0.2667236816803592,
            -0.2153370604062416,
            -0.030746167972915822,
            -0.31490175326173936,
            -0.17612075387236242,
            0.029406110123395137,
            -0.10979543901236388,
            -0.27015817661961006,
            0.1928990316175722,
            -0.22590402557073647,
            -0.18653289202208648,
            -0.0781231346117196,
            -0.043412401461662115,
            0.016370711716330078,
            0.3801027078685637,
            -0.2904972367299117,
            -0.02509354204808895,
            -0.22053106484521243,
            -0.2975171334625969,
            -0.2655457041841646,
            -0.07491025985774254,
            -0.02583555391909263,
            0.3021718239458047,
            0.12364564140939978,
            0.30797766016161693,
            -0.022265981880020377
          ]
        },
        {
          "bias": 0.019823356228282882,
          "weights": [
            -0.02907807236947925,
            -0.10015987470947943,
            -0.2418094240765387,
            -0.017453392493446015,
            -0.34826750359473674,
            -0.06068157145947964,
            0.24586039645922653,
            -0.2602954104654779,
            -0.047558119082392214,
            0.03750086530943955,
            -0.09188746382154372,
            0.23724143578209558,
            -0.2395796175170986,
            -0.2053180730707342,
            0.016210774563121783,
            0.15066793774425885,
            -0.14981656445741603,
            -0.09804176496398807,
            -0.12136661378541602,
            -0.26320670666642754,
            -0.05438181476840846,
            -0.16836639637727652,
            -0.05433850375163202,
            -0.19844267198153526,
            -0.0001392527875593825,
            -0.2574892487774849
          ]
        },
        {
          "bias": -0.012169200953335322,
          "weights": [
            -0.12620626654136632,
            -0.09168103848816753,
            0.13241363283413685,
            -0.2930789278506531,
            -0.3293499194697306,
            -0.2110882268947825,
            0.20963886211977142,
            -0.04784031662221673,
            0.24034900883372118,
            -0.02363392008713784,
            -0.09191683570982236,
            -0.21885416400411578,
            -0.011112542562875537,
            0.2756031960258039,
            0.12115133444061646,
            -0.04439019140152204,
            -0.22970731985248005,
            0.22377028762140994,
            0.17595891870836552,
            0.11813027074711298,
            0.03932604567822303,
            -0.04042597270671268,
            -0.024380986392465904,
            0.11062906838097165,
            0.1618418327414538,
            -0.008636614141478184
          ]
        },
        {
          "bias": -0.02075602221383611,
          "weights": [
            0.2647594758669608,
            -0.09225358866713741,
            0.10504239784058002,
            -0.04016972653915538,
            0.2346561179596703,
            -0.30508406271815564,
            -0.15663076122935243,
            -0.06906455635591786,
            -0.020269016811880793,
            0.27693735774532735,
            -0.09434444502108275,
            -0.21212811705193693,
            -0.016748133789279168,
            0.2622578545822093,
            0.3244129884641511,
            0.03600147274456949,
            -0.03825261419810934,
            0.1555436129888841,
            -0.20970663963873987,
            -0.32580045915410394,
            0.26899980958230174,
            -0.10758023117196967,
            0.011856619135994086,
            0.13852856974492858,
            -0.29059124297014616,
            -0.10355835602029215
          ]
        },
        {
          "bias": 0.002295222591533499,
          "weights": [
            0.1486496187945911,
            -0.010822399044121992,
            0.04396631960291488,
            -0.15737622064397472,
            -0.09394747074887087,
            -0.14326491019503634,
            0.15973013855261853,
            0.19281649228323075,
            -0.2546737178876417,
            -0.12712099051785508,
            0.2793952083486481,
            0.030930421449168338,
            0.1932337037267903,
            0.06588125466950084,
            0.17331237419086748,
            -0.2190312380677455,
            0.022640097200667928,
            0.17154112267538535,
            -0.026188928561327922,
            -0.2757299696486505,
            -0.02328372581251043,
            -0.16904628931580867,
            -0.12836841763106907,
            0.08918766056495839,
            -0.21015707862234514,
            -0.039512130216149126
          ]
        },
        {
          "bias": -0.061112129048027077,
          "weights": [
            -0.1730064620609752,
            0.10406472599480697,
            -0.24018524671480415,
            -0.15643455233210746,
            -0.0023985871411095734,
            -0.08125573247486864,
            0.15440229861393798,
            -0.15575045490691825,
            -0.31483083991304206,
            -0.06337503751245771,
            0.29921955434172975,
            -0.023732302149079194,
            -0.26847359263737797,
            0.08308867724598175,
            -0.2549753540970271,
            0.04613400816050776,
            -0.17606246340608092,
            -0.1395277292149495,
            0.14279603446109274,
            -0.1285513500424064,
            -0.2539594538192182,
            -0.304422665971212,
            -0.038941143300882816,
            0.12352699352835372,
            0.3229396075887738,
            0.013829022129632081
          ]
        },
        {
          "bias": -0.006705814178708549,
          "weights": [
            -0.06322101046695658,
            0.2564450751949397,
            0.16363664200990233,
            0.0740027709122911,
            0.34393193365913505,
            0.31036645157733744,
            -0.19505827250202357,
            -0.2363770113343162,
            0.01995881779063281,
            0.02759759934328925,
            -0.2872520777546122,
            -0.2518505061436871,
            -0.2785027391362513,
            0.07496676096848505,
            0.10050847192751684,
            -0.010720264344277312,
            0.1523374436243251,
            -0.11071711543195421,
            0.14471792129307115,
            -0.15012430609816596,
            0.013128306142624706,
            0.08533068796879925,
            0.21256805108476345,
            -0.26552813730512503,
            0.1617598386936446,
            -0.23078290911646007
          ]
        },
        {
          "bias": -0.00396518261688559,
          "weights": [
            0.18334679192186323,
            -0.2089781320474002,
            -0.0638729740362492,
            0.3132213804692008,
            0.0719787958092395,
            0.24553901800222752,
            0.09530544245821373,
            0.12551365157341196,
            -0.11565007468779162,
            0.26450978863843433,
            -0.2218691534815242,
            -0.2412567375402877,
            -0.10254224993503709,
            0.023897208841697704,
            -0.15791044846648858,
            0.1689531232341499,
            -0.01618466216367279,
            0.2994268264959493,
            0.04872884051276128,
            0.23462371479458577,
            0.0905339812900693,
            -0.3349148936439923,
            0.2813055931177194,
            -0.2057604109238874,
            -0.26600300824067613,
            0.016776120200524797
          ]
        },
        {
          "bias": 0.03190209058789008,
          "weights": [
            -0.08533501989630823,
            0.0659907200002946,
            0.304775626219596,
            0.18785388914307016,
            0.029321512911348074,
            0.20714626737486122,
            -0.24980484908997064,
            0.04110425134201219,
            -0.22218817950218542,
            -0.1346608537304181,
            0.2636214499302525,
            0.3060291401826039,
            0.21840469481651842,
            0.16629514293088793,
            0.039615526040062535,
            0.031385373346245936,
            -0.15199322819614725,
            -0.33841204202490255,
            0.1181436817835196,
            -0.2055665915363295,
            0.12514150686248232,
            0.10070547222769369,
            0.13615774109300208,
            0.2133309369723528,
            -0.2695122299928846,
            -0.09877411177515576
          ]
        },
        {
          "bias": 0.009237036177188612,
          "weights": [
            -0.24994860194168397,
            -0.22366661084968412,
            -0.021152126371451963,
            0.06369791206805238,
            -0.3139365603557172,
            -0.09338246668079743,
            0.10366467427693418,
            -0.046217559494690516,
            -0.13462832992267865,
            0.3374760070477293,
            -0.1327546465763056,
            -0.08534532638215538,
            -0.006729262797382652,
            -0.15316248278273953,
            -0.03584894313358155,
            0.23330543795027384,
            -0.2852515259380844,
            0.145467313899623,
            -0.1814013794152658,
            -0.1353559284641196,
            0.07564037408596234,
            0.16197650076076733,
            0.30872070425626924,
            0.12928484119306774,
            -0.07345003417140543,
            -0.09677818941971653
          ]
        },
        {
          "bias": -0.05825002551609708,
          "weights": [
            0.29466686428096633,
            0.26066942069586724,
            -0.10626572024200176,
            -0.26621122151419724,
            0.055708813081983714,
            -0.27579440657280924,
            0.13510157748555127,
            0.12934263302978766,
            0.27531451476534885,
            0.31196271572802436,
            0.08674426963239318,
            -0.2972357219497286,
            -0.16320673804439445,
            0.1160077630418525,
            -0.1555043714190578,
            -0.23230025576388938,
            -0.2819234171325759,
            0.026673235922730333,
            -0.06278826989976805,
            0.02496143648293184,
            0.1747294504482801,
            0.20734025816379986,
            0.012444089391069177,
            0.14366643552332176,
            0.048574410067345496,
            -0.1465618200076133
          ]
        },
        {
          "bias": 0.006773047800997435,
          "weights": [
            0.23058023260576402,
            -0.1288037072839938,
            -0.22083977687894357,
            -0.08423183018385792,
            -0.03128332864808902,
            -0.15229988716335535,
            -0.11444729432040868,
            -0.08922322272894731,
            -0.10316574088759678,
            -0.22505325595933975,
            -0.27239215740811973,
            -0.012715691622379078,
            -0.052203057057257016,
            0.21307860121622815,
            0.2991888222569026,
            0.03564279009813458,
            -0.07661806480597581,
            0.2643723320031281,
            -0.31252926193604674,
            -0.15758518950583542,
            -0.009914085665986963,
            0.07006886084003919,
            -0.3384606338293458,
            -0.10621495874145559,
            -0.09075904005809751,
            -0.14317119627949168
          ]
        },
        {
          "bias": 0.016304196968615257,
          "weights": [
            0.10473256327742388,
            -0.18011012300350518,
            -0.22887325326897762,
            -0.18038202037267528,
            0.249480857869194,
            -0.11816352394364947,
            -0.2373513863232831,
            0.004666465639091493,
            -0.34478433530443037,
            -0.24337966524983223,
            0.2701320604175271,
            0.2300218689505663,
            0.14544719402567938,
            -0.2003132426442666,
            -0.007123400700572834,
            0.2100768041199349,
            -0.1193776051020315,
            -0.12333736193267789,
            -0.22366346540770718,
            -0.29434897928098025,
            -0.25556562471754607,
            0.06623931560584928,
            -0.013314584755935055,
            0.01680497657701106,
            -0.12338464828796639,
            0.004354767713579665
          ]
        },
        {
          "bias": -0.03600553224704861,
          "weights": [
            0.024450684931228338,
            -0.19450264954473284,
            0.26768471326751064,
            0.16127066268904922,
            -0.29979304156968245,
            -0.28581883903583766,
            0.017587468221431507,
            -0.22677821506785667,
            0.229742167871402,
            0.049242843948021996,
            -0.0803050437949778,
            -0.09360071443309118,
            -0.08454260656047519,
            -0.2698024856283119,
            0.2737296844031737,
            -0.05082164336969371,
            0.08195485557696873,
            0.2557729309536217,
            0.12317654385669391,
            0.33176982103226554,
            0.2382750637286212,
            0.021535733862639198,
            -0.21585032385607622,
            0.2584141326484161,
            0.015017043593315264,
            -0.09568925788590986
          ]
        },
        {
          "bias": 0.019362138364238262,
          "weights": [
            -0.12331498588492586,
            0.0791144991663822,
            0.22640953773025954,
            -0.003795884703826754,
            0.2607635066268033,
            -0.18553199821661076,
            -0.239430161540794,
            0.10915762728362771,
            -0.31279381599498485,
            0.06754440377731136,
            0.20719634736172124,
            -0.28719607235519423,
            0.01668818404459355,
            -0.20195555990213648,
            0.15087964017763777,
            -0.2222561362934963,
            0.03722910378300124,
            -0.2885125690181712,
            0.09516866844529193,
            -0.31200402792323056,
            0.22851524033115284,
            0.05209016045054011,
            -0.33839339632422333,
            -0.14578218244082364,
            -0.14295633157673365,
            -0.2291675636692967
          ]
        }
      ]
    },
    {
      "activation": "None",
      "num_neurons": 11,
      "neurons": [
        {
          "bias": 0.021492973667780246,
          "weights": [
            0.06176904225560132,
            -0.012489270723424437,
            0.2022112396581351,
            0.11836907400829855,
            0.024414365347671038,
            -0.07106992684210066,
            0.3036487302013938,
            -0.06682522284236139,
            -0.32915679648220103,
            0.19226471125332895,
            0.23861035268229092,
            -0.3661024039519556,
            0.199259470381662,
            0.34507382506695644,
            -0.16437115976340996,
            0.29235190040205244,
            0.0005141036920301914,
            0.2774053730372382,
            -0.20903358556123658,
            -0.21976103447191705,
            0.24459472618930375,
            -0.3545794399522285,
            -0.3289171547208227,
            -0.07829342441753133,
            -0.0013995472192292711,
            -0.07563420619243473
          ]
        },
        {
          "bias": -0.04003996652750702,
          "weights": [
            -0.2503511987221118,
            0.019746956911356018,
            0.3149086246642225,
            0.06937165548444947,
            -0.05080963826513978,
            -0.2103902978850264,
            0.0073937277484391155,
            0.2388402745709844,
            -0.19500615174382002,
            0.21892457356481182,
            -0.26581060199836837,
            -0.009335079455026575,
            -0.23911121786800463,
            -0.08496949590652932,
            -0.07801390583668312,
            0.05699382011430192,
            0.148277295994855,
            0.27414988209964614,
            -0.21879150143134846,
            0.07636607511859941,
            0.1781460976223078,
            -0.0862362659719255,
            0.208024755690639,
            0.13675284509759963,
            -0.1699493272860281,
            0.10418379311757779
          ]
        },
        {
          "bias": 0.007493992531075351,
          "weights": [
            0.10263051689155138,
            0.03892464395613855,
            -0.03783768850658771,
            0.1554624994127807,
            0.04822216765421846,
            0.012850496143553044,
            -0.11695494343681864,
            0.35951536932232236,
            -0.10564314011018355,
            -0.0038671623358597007,
            -0.2551955108247107,
            -0.20167480310980632,
            0.16799828021018573,
            -0.1639318273990423,
            0.09816547420159119,
            0.013412693132635706,
            0.1694329753091278,
            -0.2027255317979993,
            -0.2986278097569153,
            0.11480467638062755,
            -0.1343576785199013,
            -0.15629677627533745,
            0.26735872385006015,
            -0.06583266069260707,
            -0.09151683558317555,
            -0.05704667175061104
          ]
        },
        {
          "bias": 0.005635187535516492,
          "weights": [
            -0.017146727622545144,
            -0.19944517940751186,
            -0.31641274259152297,
            0.18051319117224032,
            0.21545667209213404,
            -0.1658397663959643,
            -0.1653322476753725,
            0.2014449997530929,
            -0.20123444304625238,
            -0.12540904504142308,
            0.0009979150877490227,
            0.03645668609068098,
            0.14060209051105013,
            0.12056530051897023,
            0.018291444735380434,
            0.17388732494758735,
            -0.28956655971680784,
            -0.047179105161429105,
            -0.0765832050317003,
            0.09612070681936107,
            0.11792173410944554,
            0.17270535893267747,
            -0.26974584540356145,
            0.2540061465262919,
            0.0767368364318383,
            0.0342330622241701
          ]
        },
        {
          "bias": 0.060917005486149076,
          "weights": [
            0.3384520443071411,
            -0.14025445964256883,
            0.2623317531537227,
            0.24912808635056108,
            -0.37381006965738406,
            -0.11896936910256509,
            0.17900597454039185,
            0.15675756847677852,
            0.1294434059045595,
            0.08095564610340014,
            0.32719703915648013,
            -0.22416160866392854,
            0.29048251613802706,
            0.24098258343801088,
            0.11539541894770747,
            -0.22118139852064586,
            0.10320771677492759,
            0.2967224316081751,
            -0.004425618652794954,
            0.21947552849642757,
            -0.24596554658239903,
            0.19769742488156836,
            0.2493121170457978,
            -0.03186053231584483,
            0.10935043471044381,
            -0.18955979479837856
          ]
        },
        {
          "bias": -0.05173360588681804,
          "weights": [
            -0.22954742495111963,
            0.11081828480140858,
            -0.07185708760585717,
            0.15644585312118234,
            0.2514159260267006,
            -0.12610432452166587,
            0.04989789153196864,
            0.4175554829906543,
            0.21499580261469597,
            -0.2902714252988041,
            0.0656804532009523,
            0.1428146304725151,
            -0.1936717394823457,
            -0.18307596674532886,
            -0.02259073106738053,
            0.05202264393473497,
            -0.11978517935599206,
            -0.3143741040804258,
            -0.15484078836792672,
            0.2975161074633308,
            -0.09312612501652756,
            -0.026140785203164218,
            -0.33331531857519925,
            0.3002275458086539,
            0.12801551469196895,
            0.03790970744465383
          ]
        },
        {
          "bias": -0.0134881105126189,
          "weights": [
            0.19973770330942,
            -0.1254758930643889,
            0.005351701433233636,
            0.11108840090782636,
            -0.0824766553616889,
            0.10593266776630975,
            0.20240344655437217,
            0.03977751697554091,
            -0.018961044168386978,
            0.19292557890351528,
            0.036703250116477466,
            0.22058780364731334,
            0.021023575202845732,
            -0.24656452984407543,
            0.2296197510963408,
            0.239369958203644,
            0.27281415595609226,
            0.20211652838543548,
            -0.26898327383247084,
            0.16028317775396045,
            0.16411980398771853,
            0.14415137521209506,
            -0.03028321286335621,
            -0.0027717695496052752,
            -0.02116995592351685,
            -0.12059481305457019
          ]
        },
        {
          "bias": -0.009900706755531265,
          "weights": [
            -0.14662447271701579,
            -0.03265840864988107,
            0.2505013700932132,
            -0.06118815589457587,
            -0.11242765448177458,
            -0.31140193403441185,
            -0.1255447861375221,
            -0.1261614621519691,
            0.3101927873420411,
            -0.2018566473688272,
            -0.16624526499808331,
            -0.1774290256124661,
            -0.07122892778588831,
            0.19535731093318182,
            -0.18876562265811445,
            -0.062419434608770454,
            -0.19204130231462568,
            0.160656121503886,
            0.2613904627298307,
            -0.1501459864080555,
            -0.08228566865123335,
            -0.25509443859770253,
            -0.03873855469776443,
            -0.06681350688439872,
            -0.08425128750771868,
            -0.07574846539508069
          ]
        },
        {
          "bias": 0.03509265331632144,
          "weights": [
            -0.13602524394192916,
            -0.3100864404597033,
            -0.3106351697450785,
            -0.06761904445257413,
            0.13824933162917113,
            0.14139283158841373,
            0.1593121349917723,
            0.15585192576790793,
            -0.264583543354145,
            0.21659575330984657,
            0.3092446302808233,
            -0.2272943808780295,
            -0.09092415080198585,
            -0.2890388782705755,
            0.11163787474797057,
            0.20136340189914043,
            -0.42929242340613705,
            -0.37966755080354647,
            0.05834454665820811,
            0.3037040202279181,
            -0.16012617649108704,
            -0.14216763327731838,
            0.12089720776238407,
            -0.12142035599829255,
            -0.0699630447935596,
            0.30969488834489395
          ]
        },
        {
          "bias": 0.041604653059642345,
          "weights": [
            -0.08960347963030418,
            -0.36787233160704946,
            -0.40115220159576864,
            0.20222099859681086,
            -0.19870808785258415,
            -0.037606547997601006,
            -0.2833766934065665,
            -0.08733861103652778,
            -0.04598652337085234,
            -0.08481809824611529,
            -0.31460832932578375,
            0.22057120041874584,
            -0.19226222923747355,
            0.313822813161122,
            -0.21644512143565664,
            0.20482544998875513,
            0.19149553926000965,
            0.34822555967691254,
            -0.23853321425888868,
            -0.2373447040430367,
            0.15739590498658526,
            -0.060763872796313616,
            0.24440997882204224,
            0.1348213077837001,
            0.17718843686054012,
            -0.2521858238528742
          ]
        },
        {
          "bias": -0.04952704192968484,
          "weights": [
            0.2174819462771139,
            -0.3638106029738742,
            -0.0635228898184706,
            -0.19423095926207973,
            0.3628304646091527,
            -0.019304530454037353,
            -0.16990660527518908,
            -0.26432600235525866,
            -0.279942006789612,
            0.4142004100361571,
            0.013685451626949037,
            0.23676549916807738,
            -0.056448323609074536,
            -0.16476287081003016,
            0.10323042084615823,
            0.06533826124123697,
            -0.281971589335708,
            0.221373350464193,
            0.2860760915797726,
            0.3363191942920298,
            0.26374572524959305,
            0.20954675333186149,
            0.09213659239285862,
            -0.24829044324901312,
            -0.02788544614219649,
            0.24925961913438904
          ]
        }
      ]
    }
  ]
}