{
  "layers": [
    {
      "activation": "tanh",
      "num_neurons": 24,
      "neurons": [
        {
          "bias": 0.35328537432565776,
          "weights": [
            0.0274608411893773,
            -0.21988230151608498,
            0.6765775389082435,
            0.04369735037253648
          ]
        },
        {
          "bias": -0.6412704162278343,
          "weights": [
            -1.3283530617398387,
            1.839344982396618,
            -3.681013293675126,
            -0.564254232785207
          ]
        },
        {
          "bias": 0.803710007896717,
          "weights": [
            -1.1613343800961926,
            0.2533115660247268,
            3.15361018805701,
            0.7755599858586526
          ]
        },
        {
          "bias": -1.2995411623745017,
          "weights": [
            1.534393031388345,
            2.016341047722395,
            0.005326827302690097,
            0.002763754589401888
          ]
        },
        {
          "bias": 13.699213890586737,
          "weights": [
            -12.212806402125723,
            0.010217231153019063,
            0.5418344680609655,
            -0.021894344635576372
          ]
        },
        {
          "bias": 0.7745996781478518,
          "weights": [
            -1.6657800750147886,
            2.25545389605026,
            4.26339483603578,
            -0.12439271752413628
          ]
        },
        {
          "bias": -0.40370634092521185,
          "weights": [
            0.24920074718287322,
            -0.10858125598713816,
            0.7505864602318125,
            0.13117165975364972
          ]
        },
        {
          "bias": 6.927384050115796,
          "weights": [
            -11.370242557574091,
            -2.515999345054436,
            0.03844571615707132,
            0.0013404793525046332
          ]
        },
        {
          "bias": -2.7618513310833155,
          "weights": [
            -0.09354004924595688,
            1.8222630601843726,
            -4.6973039177452725,
            0.21469585835739532
          ]
        },
        {
          "bias": 1.2754829225033164,
          "weights": [
            0.021110842289304505,
            -1.0000183893907535,
            0.5193241409694589,
            0.23870843874856984
          ]
        },
        {
          "bias": 0.22743464269215288,
          "weights": [
            -0.43985414482945656,
            2.2014666126171027,
            0.03145897856080179,
            0.008344199247222541
          ]
        },
        {
          "bias": -1.5392982754996654,
          "weights": [
            1.3638388291134556,
            1.3727107594459684,
            4.62817525659555,
            0.1947128208560508
          ]
        },
        {
          "bias": 1.2701321579584328,
          "weights": [
            -1.4271454322543449,
            -0.5229913294884379,
            -5.079164025731406,
            -0.11702485433805901
          ]
        },
        {
          "bias": 0.41537279588826215,
          "weights": [
            3.1290206298032808,
            0.16464811652414513,
            2.905478072148311,
            -8.045073035207518e-05
          ]
        },
        {
          "bias": 4.2059295103239265,
          "weights": [
            0.5451218775568957,
            2.9451666272091965,
            3.516872161100281,
            -1.0298337132072009
          ]
        },
        {
          "bias": -2.240011620089695,
          "weights": [
            -3.1962161316662985,
            0.5416937872636723,
            -3.85538290865807,
            0.4867129220681746
          ]
        },
        {
          "bias": -1.087926576073798,
          "weights": [
            0.8555782876634996,
            1.7951810744850518,
            0.02218408388954743,
            0.003452210627129639
          ]
        },
        {
          "bias": -8.698262581262473,
          "weights": [
            0.728398634352954,
            -0.15179591334199383,
            -1.460901069872628,
            1.2252404435575324
          ]
        },
        {
          "bias": -1.7486616017728989,
          "weights": [
            -6.612775267310909,
            11.16063458044136,
            -0.012642874755305924,
            -0.0011009492367146422
          ]
        },
        {
          "bias": -0.28352889448736096,
          "weights": [
            -1.3568534096465728,
            1.3065620744471966,
            5.137587129103344,
            0.28305918588522555
          ]
        },
        {
          "bias": 0.9304630215679345,
          "weights": [
            -0.3859674111915685,
            1.338915560613611,
            16.28889655380479,
            0.03911881277724855
          ]
        },
        {
          "bias": 10.794312555866908,
          "weights": [
            0.27855703471516097,
            -9.359425146337582,
            0.8423682238169368,
            0.031818886851392926
          ]
        },
        {
          "bias": 3.511591800276518,
          "weights": [
            4.034231966664206,
            -10.601271709166435,
            0.015941438992625567,
            0.006519615379821809
          ]
        },
        {
          "bias": -1.1268321293863264,
          "weights": [
            -0.017210118901575158,
            -2.51701554550002,
            -0.41741481099525196,
            0.22245132909327187
          ]
        }
      ]
    },
    {
      "activation": "tanh",
      "num_neurons": 24,
      "neurons": [
        {
          "bias": 1.4984221479336894,
          "weights": [
            0.5398986505416624,
            -5.344516476642591,
            -4.726646556129281,
            3.6147085382662643,
            -3.3065204129315258,
            0.4882189380902303,
            -3.954215020362545,
            1.3002517325778873,
            0.06625818285180124,
            3.475377091555504,
            -2.83744365473435,
            -4.049035246157853,
            3.5399594024986762,
            2.114923246435433,
            -1.5047342407311348,
            -3.641863465114421,
            0.19621683506866167,
            2.7464062255252046,
            2.6479559370326013,
            5.310588189488027,
            -6.291463254192982,
            1.6104433906238915,
            6.764380907765265,
            3.3945637257331134
          ]
        },
        {
          "bias": -3.150632200016321,
          "weights": [
            1.398397009061576,
            -3.200561535895209,
            -4.656443639138552,
            -0.4111776442999087,
            -0.04534464827941999,
            0.2535008392695267,
            -0.7740147460679241,
            -0.4714057656650436,
            3.520947508318107,
            0.6314445485232159,
            0.0728663683499076,
            0.6777598697375995,
            0.7173992814091001,
            5.8963139698212785,
            -1.8432580743282794,
            -2.472692915892011,
            1.428376740336111,
            -5.903295433610377,
            0.25327574593742436,
            2.5179170748255593,
            -3.026279447661767,
            -6.6626725541156695,
            0.2307338563805663,
            -1.5085701836825447
          ]
        },
        {
          "bias": 1.0060936869185326,
          "weights": [
            2.9537857695921343,
            1.3222778064399712,
            3.1493147606949052,
            -1.6685758931751895,
            4.085573092158959,
            -0.05518981369737169,
            -2.2312198078421135,
            0.5817929454619536,
            1.7591998059864047,
            2.2950522321886844,
            -1.4343753803572608,
            -0.42037866142951813,
            -0.33987954198553566,
            -2.900851003598734,
            0.903340719461436,
            0.02008033203482518,
            1.3932371375125072,
            0.40868202429634426,
            -0.27082268033630197,
            0.7720998630078744,
            1.0294444116867427,
            -4.7479845805547605,
            -1.43149848738619,
            -1.2302194227474363
          ]
        },
        {
          "bias": -7.000032211741474,
          "weights": [
            -0.9295963329058188,
            -6.906579784493375,
            2.3139570187451675,
            2.0563869593789903,
            1.103510831426208,
            5.084911127869016,
            1.9282485424461686,
            0.535819884911947,
            2.053407854976792,
            -5.740194922049967,
            6.2677338636246,
            2.8163047367759306,
            4.275858116072858,
            5.538452753155535,
            -3.5659138498266456,
            -1.231618178597903,
            -3.512768262764725,
            4.88534802851651,
            0.1618463984819091,
            1.3038713767413679,
            -4.774539191364689,
            8.203997893564475,
            -0.4966560409512347,
            7.936629925638025
          ]
        },
        {
          "bias": -3.6689320730701773,
          "weights": [
            -0.4628655524507214,
            -1.9539572953717528,
            -2.6677334987359314,
            -2.5350051573285266,
            -3.6307530967341615,
            -1.6244908491140984,
            1.228115917787696,
            -0.665801048152418,
            -0.9413138478393541,
            -1.9577585876266594,
            -2.1500896488756114,
            -0.12185668512602615,
            -1.4230162077736834,
            -0.03803906774670291,
            -0.5816307209347577,
            -4.833152515763211,
            3.187112445389942,
            -4.773488372545813,
            -0.22875791643357443,
            -1.6036521126033472,
            3.9140439180692015,
            -2.448981851511208,
            -0.0985712778619874,
            -3.2789139738414397
          ]
        },
        {
          "bias": 3.11567248093403,
          "weights": [
            3.539377311784674,
            0.3124260936830838,
            -2.0401647874676097,
            0.27657174705518794,
            3.2070172194414286,
            -3.2595664982585024,
            1.1881380860414432,
            -0.1791803778311805,
            -0.665761179845443,
            9.40927068804657,
            -3.832112301440122,
            1.1718480346870987,
            -0.5591771149502502,
            2.9349573416485897,
            -0.5553801886750193,
            5.492608860772722,
            3.8399240091786373,
            -0.9041885770032936,
            0.09094676129006656,
            0.7632205276192343,
            -2.6805067227932384,
            -6.322076880732674,
            0.5500965803516623,
            -3.6354886037291436
          ]
        },
        {
          "bias": -0.7709278751912273,
          "weights": [
            5.0979240789115625,
            0.7119848352455284,
            2.7440949392148317,
            -4.839970964060691,
            -1.187436969339387,
            -2.6078983527510164,
            -1.418908473071021,
            0.7589432832027817,
            -2.592303490020394,
            -0.3697932029302374,
            1.1834725622809819,
            3.9266983049351416,
            1.5422111313037652,
            -3.1828518851182803,
            2.7884160879977826,
            0.9632701789268465,
            3.87395863692876,
            2.2915575721807553,
            -0.16477134098666013,
            -1.0569859247128093,
            1.5906519120286935,
            6.575797056732611,
            -0.21348918818835588,
            6.233323923321238
          ]
        },
        {
          "bias": 3.7154413068858947,
          "weights": [
            2.170424784604308,
            1.0865552138864782,
            11.516757605521411,
            -3.3596412069748833,
            14.817490711030844,
            9.446861486602012,
            -5.485999916977403,
            -0.8596932254870037,
            5.84192000392742,
            6.704164361001901,
            -2.3080247275836236,
            -11.13911784316325,
            10.904750860896597,
            1.1646745924854907,
            -1.2121539799142476,
            -0.8975259233064808,
            -7.016390423883365,
            -3.096336931455735,
            -0.8489150714967646,
            1.5519276139520364,
            3.589393644930422,
            2.3460651763895077,
            -4.114659432220641,
            2.306699298965923
          ]
        },
        {
          "bias": -1.9333428976234948,
          "weights": [
            -1.9480946001855808,
            -2.3353428100148665,
            -2.883952385710614,
            0.4170247148194114,
            -0.9104084236318019,
            1.7460837888531489,
            -4.730687790692871,
            0.03533303038497812,
            -3.534098171955288,
            -6.567181551171622,
            -0.09409166178088446,
            0.16830561853588602,
            0.9271125208410134,
            4.461140964885658,
            -0.6950779526071398,
            0.8217834590984107,
            -1.4663905317850487,
            -0.7827218724269659,
            -0.2654686672538935,
            -0.7590161579278967,
            -0.06963891771864242,
            -1.266460186204439,
            -1.9095273008121607,
            0.8347371872946089
          ]
        },
        {
          "bias": 3.1202911259502155,
          "weights": [
            0.7029596466473248,
            2.031826184055596,
            0.5199933034811571,
            2.270979889202727,
            1.6064752074382285,
            2.2844916828795547,
            1.32766481196128,
            0.46467545349338263,
            -6.433130108512405,
            -6.640858113859582,
            4.411299281477706,
            4.245305826770636,
            5.235209002718266,
            9.475886261539245,
            -1.710484397298209,
            4.427276566442673,
            -3.546654977676687,
            10.093904714462354,
            0.13970622218740777,
            1.4166658096157667,
            0.22259616553555722,
            1.1664316714943201,
            -0.3430421480649883,
            6.072628074732471
          ]
        },
        {
          "bias": -2.2442459651402693,
          "weights": [
            2.14644331214187,
            4.573462149693936,
            2.944027546582551,
            -2.478454983607504,
            1.9078831751617262,
            2.8980295939549827,
            -0.5192539506288079,
            1.259396195539327,
            -6.192536313584331,
            -3.533617399714553,
            1.0126292172835691,
            3.280610682393312,
            5.539569306417468,
            -0.833134863927875,
            1.32963542277268,
            6.910617183041573,
            0.31742245568323046,
            -0.3300814173067831,
            -0.03825912398918357,
            3.0941632459761967,
            -0.5227669045616463,
            4.828513539777366,
            -0.772049910320673,
            4.175411852835954
          ]
        },
        {
          "bias": -0.41646890936585973,
          "weights": [
            -3.4175028337729847,
            -1.9341258425015417,
            -1.3010235338099418,
            -0.4101248462154493,
            -0.09931778983367415,
            1.0794267462955678,
            2.082536730635857,
            -0.13595417485218642,
            5.109402936483036,
            1.3383053673922638,
            0.5643239659027792,
            -0.350719500419742,
            -0.6094905373463184,
            3.501487154507597,
            -1.6439996732791113,
            2.1587618299895164,
            0.09394678955085506,
            1.2548811161470412,
            -0.05670242681874167,
            0.5098712648590837,
            1.7631228441763933,
            2.9404098825217093,
            0.21378917016439902,
            -0.18047542426599594
          ]
        },
        {
          "bias": 3.4737514369723903,
          "weights": [
            -5.384671111644123,
            -1.201057832041653,
            1.6622534597066563,
            0.25919956372416453,
            0.3876843115319068,
            -1.3032513861368686,
            1.9730736707931489,
            -0.15696516617159023,
            7.056343025783646,
            7.980098787637764,
            -0.43063345364453154,
            -0.854129260771712,
            -2.3211780853665642,
            -0.43948270961198604,
            -3.072284224524113,
            0.904945985679194,
            -0.4973465886426787,
            -1.4408529313294498,
            -0.13423085091950893,
            -1.9362983072615132,
            0.883690712211122,
            0.7532370488099072,
            0.31854588726286004,
            0.3878091749885698
          ]
        },
        {
          "bias": 4.965947590418451,
          "weights": [
            -5.414153707387129,
            -1.256106476145948,
            2.0553865711953234,
            0.5656317818481434,
            0.695506485272558,
            -0.9024403488431114,
            2.093945286739494,
            -0.13902730915571607,
            7.900137646566925,
            7.546655379916622,
            -0.22401719639091755,
            -0.7952491619670511,
            -2.2203114445726575,
            0.556918291257904,
            -3.9357398215797432,
            1.3863331291660463,
            -0.91441804184047,
            0.6974034250181531,
            -0.14724084633417595,
            -2.1688052632968398,
            -1.2225475494647573,
            4.421103556510759,
            0.3132307395512623,
            0.763531368262439
          ]
        },
        {
          "bias": 5.832220124323021,
          "weights": [
            3.002724421736249,
            3.7601027535395857,
            -6.170599601364613,
            1.3736280408020478,
            7.449219067535918,
            -0.5999415378404078,
            -1.9144057725098755,
            -0.01979579060147707,
            -5.8984496767521675,
            -2.5493853589824282,
            2.6056388268877737,
            -4.159211696444697,
            -1.0122728685024172,
            0.4497929111367101,
            1.4685720656862757,
            6.060716971239726,
            -3.13278810062055,
            7.84435996363059,
            0.06959708207074364,
            3.0295422559675065,
            4.091255507769024,
            3.5745563198674284,
            0.15525365689759532,
            4.5247690637165885
          ]
        },
        {
          "bias": -0.05910891789218051,
          "weights": [
            -1.75412236123885,
            -1.0491849424628248,
            2.782567672570432,
            -1.2445983436685761,
            -0.47374504357666364,
            1.902204499749127,
            1.1381254856597884,
            -1.186017925491611,
            2.0036803805183654,
            -4.0736412547318785,
            0.7801371609434649,
            2.4453441034882104,
            0.5556562166566539,
            1.8088695478231809,
            -0.08448866415779346,
            0.8089430121647809,
            2.0248699292900048,
            2.3037856794639273,
            0.5345445179560456,
            -3.098615633675836,
            2.824148716005564,
            -2.8046822056277527,
            -0.2930503944705369,
            -3.4839893021203228
          ]
        },
        {
          "bias": -2.527668442339564,
          "weights": [
            -1.5975656025697902,
            1.8055914594212985,
            -0.6937613351512747,
            1.2185434297080413,
            -0.24347035195890482,
            -4.175536945560314,
            0.6461781732763119,
            -2.130104940885583,
            2.1283945440715284,
            1.4378037144384486,
            1.728899481907193,
            2.3177406814577988,
            -3.4290040426759085,
            0.3845226566914847,
            -1.6054062310540371,
            -5.97665311066294,
            -6.037607713814476,
            -0.07389454034733692,
            -8.49226559369743,
            -3.901614261323667,
            -0.25683360514107645,
            3.4453475487224443,
            2.4682153861950407,
            -4.474432501572125
          ]
        },
        {
          "bias": 2.3527383156135135,
          "weights": [
            -1.253072937466051,
            -0.7765766590668731,
            -4.852923152318845,
            0.8809244193824523,
            3.624090831532359,
            1.0102794197942175,
            0.9912030664554805,
            1.2304767806730896,
            -6.646117146454685,
            -2.9519810427152104,
            0.7613328634426167,
            3.3054888148508885,
            5.2793614499261174,
            0.10921806915292057,
            0.03844871322997713,
            2.6424751561192337,
            -1.8871071859072563,
            -3.1517638032939654,
            -0.014896563103363427,
            3.143661927770052,
            -5.994636050174947,
            0.046352712826073866,
            -0.17868242325521683,
            2.8294210739837897
          ]
        },
        {
          "bias": 0.256619328037405,
          "weights": [
            -0.4690417265849672,
            -0.03641203352941695,
            3.459773373780799,
            -2.917023915770344,
            -1.2308105332321868,
            -3.0022865072781495,
            2.1664055051472024,
            1.7237171239171274,
            -0.914407904522026,
            3.7534644561918276,
            -1.437368033546135,
            1.0730244229704637,
            1.3187306020640497,
            1.0507236548907877,
            0.4911303640279813,
            1.5911062037632246,
            3.0081287121174873,
            -0.5123594539030257,
            -1.5121353571780909,
            -0.3238726571080268,
            4.786898477432993,
            0.28030381875291366,
            -2.3322382064767035,
            -0.1057613438220329
          ]
        },
        {
          "bias": 3.1031717162549564,
          "weights": [
            -1.1502799269481432,
            -1.5956629376248694,
            -0.020230815746203796,
            -1.806302540661622,
            0.9277655839654897,
            3.221357840295001,
            -0.05661630787142719,
            -0.2576030522726687,
            1.5956772419443592,
            -1.8505183310165938,
            -1.3083453910591234,
            2.9518510218131695,
            1.6383630933067912,
            -3.5179204299130826,
            1.0437280441682657,
            1.7043600955413079,
            2.6915202146932216,
            3.8461978280215363,
            0.4227098842645776,
            -2.0720428291312523,
            1.5929804747267435,
            -1.2409967849322783,
            -0.25661048790676916,
            -4.329239016650607
          ]
        },
        {
          "bias": -3.2260829500944452,
          "weights": [
            -0.5151223581456323,
            -1.9273581121468326,
            -0.3527845079480545,
            -2.277581119369976,
            -1.6103042582693394,
            -2.245002335099665,
            -1.403412447510276,
            -0.4682352811633864,
            6.011509766814092,
            6.479490564231234,
            -4.360569413483124,
            -4.0535249310048975,
            -5.179809270041635,
            -9.634027761207788,
            1.7015832737880214,
            -4.197576572794348,
            3.540476831210774,
            -9.732306830822662,
            -0.13952858429636006,
            -1.523013854194749,
            0.0912636646672156,
            -1.079321438158998,
            0.34169894569961873,
            -6.0020870154326715
          ]
        },
        {
          "bias": -4.245280399655654,
          "weights": [
            -3.495433954615359,
            -6.133859775722279,
            -1.3959639744636743,
            1.1667711875603244,
            0.27149856443467957,
            2.602006064411536,
            -6.113924983810876,
            -0.7525720803653457,
            0.6104062696283026,
            -2.8637913867581855,
            -5.149433800381967,
            -2.574973349652909,
            1.0703155607606383,
            1.2124017426842983,
            0.7048277406301782,
            -3.7472355776108723,
            -0.422705607768007,
            -9.65700008817768,
            4.151074549532797,
            -1.4951267948211955,
            1.5304126556693878,
            -2.8452154098995104,
            0.7389126434924701,
            14.522114763686265
          ]
        },
        {
          "bias": -1.804618609355205,
          "weights": [
            -3.5025008065945635,
            0.1207357875310889,
            -1.6812362113113406,
            0.07509567625354192,
            -0.0717266172166552,
            -2.9187374596937756,
            2.723351661562018,
            -0.32142834140700965,
            -4.130712731286985,
            1.0268464020726977,
            1.2251324570299396,
            2.1782482559266363,
            -1.1258481052182057,
            3.444564566520474,
            -2.373307494556746,
            -0.7989775596351097,
            -1.076161753934453,
            -1.281579786339981,
            -0.5675365945746471,
            -1.4462512286516582,
            -1.0506626909164942,
            0.33967484271299875,
            0.2954418960305242,
            1.0892045656395526
          ]
        },
        {
          "bias": -4.109842636230568,
          "weights": [
            -1.4829594353913844,
            0.40490777801595823,
            0.8752796669297174,
            -1.4597808760271993,
            0.3281612685294338,
            -0.99152158827775,
            0.4964066077834482,
            -0.46987567082676174,
            3.8284846429353854,
            2.686617016048647,
            -1.8444488353159023,
            -2.134891249922421,
            -2.6459495171060112,
            -0.3426793584720577,
            -0.05420485191275329,
            -2.246917366496576,
            1.7277294521845075,
            2.0182190750535085,
            -0.18046716267466686,
            -0.4923311449997713,
            4.051841482226933,
            2.2203424818706883,
            0.11281840909698823,
            -2.51347174899767
          ]
        }
      ]
    },
    {
      "activation": "tanh",
      "num_neurons": 24,
      "neurons": [
        {
          "bias": -1.859555524350285,
          "weights": [
            0.6183880005168361,
            -0.6223470330982284,
            -1.595398360771264,
            -2.5622025163523836,
            -0.1392126201016728,
            -0.6906932905030478,
            -1.4485233739294734,
            -1.2331912602653439,
            -0.26248499897175637,
            0.42050048662286493,
            -0.990095097498249,
            0.21070119132982973,
            -1.2566097081522964,
            -0.6576536712724949,
            0.213048407995535,
            0.4117606745593374,
            -0.10612340675880833,
            0.2673424128780972,
            1.171279304357175,
            -3.1331644993918197,
            -0.34771540507103976,
            1.8636826761607737,
            1.7184257613114702,
            2.7298512944368394
          ]
        },
        {
          "bias": 0.46980695617446694,
          "weights": [
            -0.09065941514295867,
            0.9095317875056338,
            -0.8186797352224868,
            -0.19702830968653876,
            -0.905339485986022,
            -3.6598992402107986,
            0.5748675553718812,
            1.3907184734124551,
            0.3836252836422036,
            -2.756680387787388,
            0.04595302840712605,
            -3.176088887409951,
            -0.782522637483239,
            0.16272181162916347,
            0.8757674653751866,
            -0.4563264173352633,
            0.0014405686536766958,
            0.24180894374572143,
            1.028209437879057,
            -1.0617894003422672,
            -3.220269628739187,
            -0.9672235227414446,
            -0.17778511708871086,
            2.612953443782886
          ]
        },
        {
          "bias": 1.104193504671896,
          "weights": [
            0.5275328587266855,
            -0.24919991988427526,
            1.1331848485563953,
            1.776360354463433,
            -0.16414150427438512,
            0.4882260199461996,
            -2.8751499128388867,
            1.1515055308961695,
            -0.040468208976683795,
            -0.16020647553922118,
            -4.291618183920265,
            1.604136264006073,
            0.3059025530340507,
            -0.10531350828648062,
            -0.8340334711866619,
            0.6038293495488687,
            0.9852582947495078,
            -0.2893078041872234,
            -3.7847703695332227,
            -0.10412236171951098,
            0.7480791101135487,
            0.6222756603166761,
            0.5817680784958412,
            2.271844063923827
          ]
        },
        {
          "bias": -1.4632429991261013,
          "weights": [
            0.7742612796563588,
            -0.4058348759071773,
            -0.378564441723892,
            -0.06990464272194417,
            -0.7237597152113936,
            -1.6500954406284274,
            1.1638271921704193,
            -1.2680702143140972,
            0.5034308594293864,
            0.4989015373643405,
            0.0649888036542863,
            2.105458433011842,
            -3.2828410751957087,
            2.819778616390537,
            1.0937826569465827,
            -0.5509353800387984,
            0.005819144822252461,
            0.015277009435857032,
            3.065791818124352,
            1.5141764216735494,
            0.5497325414118441,
            -1.337825702235081,
            -0.47421339440687804,
            -0.5925654445044898
          ]
        },
        {
          "bias": 0.5536572301705229,
          "weights": [
            0.038422288599941484,
            -0.8723540397984136,
            0.7700767282230746,
            -0.20394559342392382,
            0.7322080406641516,
            1.7002203751140321,
            -1.3427425812205922,
            0.437368524872109,
            0.7333825030184262,
            -1.223775513432633,
            0.06892872364371515,
            3.091270507505133,
            3.0668082317675336,
            -2.4172837491072316,
            -1.064551048139824,
            0.29584487451533154,
            0.00019454634073747372,
            -0.5567556970392552,
            -1.9851235483532668,
            1.2614648597201887,
            -1.1627650660289395,
            -1.1994953515765403,
            0.3129397896074604,
            -2.609719437140363
          ]
        },
        {
          "bias": -1.7026526080757551,
          "weights": [
            -0.612841042600911,
            0.46551083529308257,
            1.165342862921883,
            0.5229041551614352,
            1.2927210276404355,
            -1.4763247598896523,
            -1.1180469997946003,
            4.524324029358954,
            2.478430606316485,
            3.4175378116374597,
            -5.1184042637453375,
            1.09861210143031,
            0.3401934083754591,
            -1.1131009943897396,
            -0.2923146699478827,
            0.8237360689733318,
            -4.412344690148238,
            -0.8608526560014367,
            -3.084700409714017,
            0.8564028966058023,
            2.657735024202335,
            -1.4337924794704227,
            1.3251234831778502,
            -0.8229481945203835
          ]
        },
        {
          "bias": -2.8460141613266745,
          "weights": [
            0.3097890226663073,
            -0.571329450833548,
            -0.8489145599574698,
            -1.746906460457527,
            -2.5492338530101177,
            5.0480098843669685,
            1.061678822754407,
            -3.3244015521693826,
            4.9139659163949965,
            -0.035846911262657224,
            1.4123446024441735,
            -0.9888000388272644,
            -1.8542439505880512,
            -2.1428378320246386,
            -7.717497524510377,
            0.26477570556610347,
            0.5651470458560981,
            -1.6284412654415146,
            -0.1330801227929158,
            1.3694822597872136,
            0.6003566280861662,
            2.8659510663236163,
            -0.5105597085820722,
            -1.1876018242268338
          ]
        },
        {
          "bias": -0.9384161073649103,
          "weights": [
            -0.4506824606107279,
            -0.027142470120317085,
            -0.22721315393925404,
            -0.41654352530653344,
            0.6074789350733288,
            2.6341858227847568,
            0.23678877694549594,
            -0.716984964130166,
            1.619617965342899,
            -0.5883368898125002,
            0.19984305499564028,
            -1.0918282496956588,
            -0.48931804477658436,
            0.4462973305113054,
            0.49856102923738793,
            -1.191735787386675,
            0.04633571647796328,
            -0.8560596856391051,
            -0.4124731598505814,
            -1.1457654810209486,
            -0.6799516342307478,
            -0.452349403674214,
            -0.9449464400618185,
            1.1141975376361672
          ]
        },
        {
          "bias": -3.1009549941451513,
          "weights": [
            -0.04123180898761027,
            0.8739249227749533,
            -0.7698788171886661,
            0.22117858943130614,
            -0.7513018329432515,
            -1.681556247088506,
            1.3421934358287428,
            -0.7964558568532909,
            -0.7099352241165819,
            -0.8296052768010886,
            -0.06755088945958763,
            -3.093387555511078,
            -2.9975197586836244,
            2.339128191621739,
            1.062801752594872,
            -0.29671812585404167,
            -0.0004081272711927332,
            0.5485617833581293,
            1.9924912326235866,
            -1.2605085379879573,
            -0.8858475986042923,
            -1.7301276441317581,
            -0.306743342867367,
            2.6097360179639524
          ]
        },
        {
          "bias": 1.4046760030575265,
          "weights": [
            -0.4157385165476737,
            -0.38988538690916863,
            0.4501643322271134,
            -0.406230168517082,
            0.5371445727086654,
            2.3866593166558356,
            -0.06444158642119346,
            1.7201850917031156,
            0.9132680603021746,
            0.18228486940727073,
            -0.15728878233568996,
            -0.9915716135602012,
            -0.22329768133254843,
            0.08980472525665514,
            -1.0940976982962538,
            -0.5387530259700761,
            0.014249790999630101,
            -0.5502157117790535,
            -3.3946113865140966,
            -1.228854686319239,
            0.1423659931730657,
            0.3449002873073196,
            -0.6555351698117187,
            1.00012110903941
          ]
        },
        {
          "bias": 3.7243412063300934,
          "weights": [
            2.619145371882487,
            0.47222385534285577,
            0.734572302419037,
            0.8560916079040909,
            -2.0178279109269694,
            -0.13162926451481924,
            -0.09108344631795952,
            1.1725832209737432,
            -0.29766954875089596,
            -0.8352203646374604,
            0.10392706503892167,
            -2.167719639273268,
            3.5141154160108035,
            -2.217287210835404,
            -1.9048238048908328,
            0.21020142834355596,
            0.003102164351904583,
            0.32782164302020955,
            1.2242167804038744,
            -1.228340935342051,
            -1.5019233540317143,
            -0.2519091029462588,
            1.2014475254446688,
            0.21910223408767449
          ]
        },
        {
          "bias": 1.0364090296632016,
          "weights": [
            0.2655004068198962,
            0.8312594918368567,
            1.912530708925721,
            0.04767067714011989,
            0.7222753704759881,
            -3.5301038931380258,
            -1.6229407785547794,
            1.508092341251585,
            1.4406698188958753,
            4.73664927703904,
            0.8983212542733143,
            1.5794434039654162,
            -0.5320604843796044,
            0.4406441579164709,
            -1.8038366483553288,
            -0.08219375268740506,
            0.05041757597915578,
            -1.0706933060602484,
            5.618808826340121,
            1.3163117907781374,
            4.187870075726487,
            -0.21393296183261742,
            -0.25750806665441295,
            -1.3589756705218756
          ]
        },
        {
          "bias": -3.5951776229335812,
          "weights": [
            1.9271644839914384,
            -0.46179063360915124,
            -1.1749958141152659,
            -0.5244929762284796,
            -1.301292298257276,
            1.4809637802064883,
            1.1148880685234377,
            3.280232300946495,
            -2.478199424157155,
            -3.3567777219135606,
            5.110539978358253,
            -1.1058387343178318,
            -0.3451881082218654,
            1.1176128098297644,
            0.28907415944494946,
            -0.8222019232526142,
            4.412084432792478,
            0.8752865049706702,
            -0.08277792666151271,
            -0.8599299434080641,
            -2.601153682538635,
            -0.5518960884748463,
            -1.3265406998507983,
            0.8385991560103075
          ]
        },
        {
          "bias": 1.550361713108893,
          "weights": [
            -0.03494312166840473,
            -0.3527763444444091,
            0.2396759904589465,
            0.3871083779990268,
            0.23299543581197635,
            1.8182390023601436,
            -0.2709790884400252,
            -1.0976339874565515,
            1.2988022911064514,
            -8.596162145711508,
            0.8392313553516293,
            1.603923039505428,
            -0.575291204014888,
            0.3973798303331437,
            -0.3817180830964261,
            0.5780259186253467,
            -0.042085237596249894,
            -1.3197149613646806,
            -0.39598959658098054,
            1.1104144473562698,
            -8.294978158572244,
            0.5130252978416849,
            0.6825159133375055,
            -2.1090479127405004
          ]
        },
        {
          "bias": -3.040187385852155,
          "weights": [
            -0.37303609943113236,
            -0.324812525816925,
            -0.7121687559899573,
            0.18690871231387712,
            0.6701544015508524,
            1.7348186754351729,
            0.06281092066102154,
            -0.4019924734295782,
            -1.0591132941856778,
            -0.17746975133332163,
            0.29777220110764724,
            -1.1394442491572734,
            0.11589107165263972,
            -0.4707065093922219,
            -2.740692492223956,
            0.40714546392115947,
            0.010001363805896857,
            -0.6100496892287398,
            3.3454010570876203,
            -1.3996855773066406,
            -0.1348659895297881,
            0.14671405359680018,
            0.5960514727141726,
            0.5362833665724891
          ]
        },
        {
          "bias": 5.097608424116807,
          "weights": [
            -0.09509575785980381,
            0.8956508000898358,
            -0.8262069143905569,
            -0.18225941231445889,
            -0.8848739959411129,
            -3.742931133007784,
            0.5771191618161796,
            2.402390012790905,
            0.40602163311406064,
            -0.2288991662374929,
            0.0462484872598796,
            -3.1777030197618896,
            -1.5413504741573028,
            0.9194792618942907,
            0.8860476367829268,
            -0.4537886065137021,
            0.0017465006384173123,
            0.25311869166391326,
            -0.5647813776593551,
            -1.0594417988355507,
            -0.6759939629011297,
            3.0283799753927645,
            -0.24313874735774774,
            2.7198189605298007
          ]
        },
        {
          "bias": 1.1588391306977626,
          "weights": [
            -0.3564359940632349,
            -0.26442106870499343,
            -0.6275165054490042,
            0.27203379971439395,
            0.6384308027489383,
            1.4479942203501248,
            0.012602152954607796,
            0.013891842335169168,
            -1.1518351420971444,
            -0.08844253057673127,
            0.30588386380005494,
            -1.2212117952247854,
            0.08341645468903917,
            -0.43375394719631116,
            -2.800774990794462,
            0.21149767301005679,
            0.010979674925199072,
            -0.5267314507239204,
            -0.2881697319139821,
            -1.1942970754162332,
            -0.04682369624202854,
            1.0200311628180656,
            0.6761511640042975,
            0.6299032301988281
          ]
        },
        {
          "bias": -0.4797207072859703,
          "weights": [
            -0.5705253578603356,
            0.44715026217407894,
            -1.5940247667836158,
            -0.8718139793896267,
            1.425076974989919,
            2.4583898980390564,
            -0.6809517456632775,
            -0.6131807889664767,
            0.09507161769037831,
            -2.4414745570713547,
            -0.01885223419176299,
            -1.0480420758993418,
            0.3299805103293857,
            -0.13943007625250894,
            1.0250821411202693,
            0.4743140757666987,
            -0.0024813426084349015,
            0.13004343744955582,
            0.26994714198515096,
            0.5060241471993836,
            -2.2272253589992834,
            1.0372831941579514,
            0.08957915686241284,
            0.4188978169671643
          ]
        },
        {
          "bias": -1.7474794903766426,
          "weights": [
            -2.2521301579456465,
            1.7052040200561172,
            -0.7115522058193311,
            -2.522712645053581,
            0.8440278103759549,
            -0.5753993120797102,
            0.6609479902137587,
            1.4905292347253116,
            0.1903450233485883,
            -0.09843230971733502,
            2.6281804069902313,
            0.1742161659250287,
            0.14965522972624654,
            1.4093595401151058,
            -1.030051849924562,
            3.3295830223977694,
            4.180278066705663,
            -3.5343879683013792,
            -0.01492099969518243,
            -0.6873658331561745,
            1.6047552845567123,
            -2.4133841746824163,
            0.5328669560932702,
            -1.4249386232889367
          ]
        },
        {
          "bias": -0.7846101772076538,
          "weights": [
            -0.8336250200786656,
            -1.361923570955676,
            -1.931934532417959,
            2.1257304644244206,
            -0.17296265729347632,
            4.353611206360462,
            -1.8630817032818379,
            -0.9634903749187494,
            -1.3526580346185846,
            -1.0213752426311797,
            -1.8594867769242853,
            -1.6211299209295271,
            0.22824978323724118,
            -1.5118676381198322,
            -0.8236660094137521,
            1.4634572088689959,
            -0.1991627028364107,
            0.8673630467413783,
            -0.44796405650798815,
            -1.2333968347735242,
            -0.10576579220661106,
            1.1549147035835317,
            -0.18078844653509327,
            2.6030303775372388
          ]
        },
        {
          "bias": 1.5287095258266212,
          "weights": [
            0.04915126700287185,
            0.3447963518157602,
            -0.29221361389953854,
            -0.560167154922071,
            0.2160948916094369,
            -1.4902352045439962,
            0.2752151003794435,
            0.31581547026661616,
            -1.0062600106355517,
            -1.0814820749109597,
            -0.477605675643488,
            -1.5466314068884128,
            -2.069836351667317,
            2.0002542521534408,
            -0.22134571878527048,
            -0.544548797079339,
            0.03623954724225664,
            0.004934048111269308,
            -1.4953744043867445,
            -1.420026841315607,
            -0.9047238519807338,
            -2.561980115713985,
            -0.7238682959605495,
            1.783100817557735
          ]
        },
        {
          "bias": -2.0627277129782793,
          "weights": [
            -0.26118226435199887,
            -1.3644709727024826,
            1.746205604677139,
            1.423622501573515,
            -0.7993745019110381,
            2.2755480641132184,
            0.7453371797735977,
            -0.37056766100264377,
            2.6495179126252495,
            0.09780407548695513,
            1.3633278741073176,
            1.153148378325131,
            -0.3548706791521336,
            0.30687579743647736,
            -0.5341828190525661,
            0.5731766713156345,
            -0.003110803143335869,
            -2.122420419550349,
            -0.3902144716003337,
            -0.35280107801830063,
            0.2999799182917467,
            -0.11989634356507572,
            -0.16296550880022848,
            -0.7814448963836532
          ]
        },
        {
          "bias": -0.02069704763012211,
          "weights": [
            -0.4958671052267001,
            -0.760193849489056,
            -0.08068922802030427,
            -0.06175286750455889,
            0.7809995276754942,
            2.466524464950708,
            -0.8894476826744033,
            0.09964495592086041,
            0.14202438689564725,
            0.9078608997314483,
            0.0685067262567735,
            -1.1115345361979827,
            2.4149741067914845,
            -2.2468460041220846,
            -1.698900453779869,
            -0.31409624064370517,
            0.0004520342378060286,
            -0.48684033450958114,
            -3.474674626415889,
            -0.6769351874150916,
            0.8597938291396914,
            -2.310382722551188,
            0.17429295318603208,
            0.12717784435143664
          ]
        },
        {
          "bias": 0.4208061999571151,
          "weights": [
            1.804845430765039,
            -0.9507253353252164,
            -1.0309335483262159,
            -1.8525628855531286,
            -3.56763792150662,
            4.499036802241718,
            0.03217390664084284,
            1.0284712115949945,
            0.6182390788367941,
            1.1891909509392515,
            0.4538657653857894,
            -0.2609905975776422,
            -0.40944769062106784,
            1.4499630467687115,
            -1.831983930126397,
            1.024823545822282,
            0.08039348861235163,
            -1.956745083907008,
            -2.523783373299159,
            0.08772992202106045,
            -2.344745634856951,
            -1.2628309317029467,
            0.8408477118280278,
            2.011518766409067
          ]
        }
      ]
    },
    {
      "activation": "None",
      "num_neurons": 1,
      "neurons": [
        {
          "bias": -2.9967989996807183,
          "weights": [
            -0.0049082451547490585,
            -2.1687039211626113,
            1.494023737826262e-05,
            -0.06198518128457327,
            4.90121027993703,
            1.2586413548708808,
            -3.1282916140745565,
            -0.08663264380331762,
            4.918583772172051,
            0.09836457833242451,
            -0.08405545954563039,
            0.012652686025472433,
            1.2579346299556846,
            -0.11521261469277153,
            0.40465326701558324,
            2.1391585691450397,
            -0.38994851430712746,
            0.018514714286274905,
            -5.454183440898238e-06,
            0.00449720942147207,
            -0.08339205084303727,
            0.015901133159200942,
            -0.0972200833250853,
            0.0037934517751182055
          ]
        }
      ]
    }
  ]
}