{
  "layers": [
    {
      "activation": "tanh",
      "num_neurons": 25,
      "neurons": [
        {
          "bias": -0.03154734794858848,
          "weights": [
            -0.08756671348360708,
            -0.03400063882084578
          ]
        },
        {
          "bias": -0.1677468440560533,
          "weights": [
            -0.16557772195015524,
            0.06435171971217639
          ]
        },
        {
          "bias": 0.13399784044243476,
          "weights": [
            -0.022715648209048225,
            0.11908571018376903
          ]
        },
        {
          "bias": 0.10029091065147021,
          "weights": [
            0.30691813892627623,
            0.20748519948440644
          ]
        },
        {
          "bias": -0.06787502813290669,
          "weights": [
            -0.07922878712036095,
            0.10520847145275446
          ]
        },
        {
          "bias": -0.12260809295781025,
          "weights": [
            -0.2680513875353956,
            -0.24838533047782896
          ]
        },
        {
          "bias": -0.12656642789195285,
          "weights": [
            -0.3417506135859374,
            -0.1708327968381723
          ]
        },
        {
          "bias": -0.12096559169730983,
          "weights": [
            -0.29620842157062444,
            -0.1477470654663384
          ]
        },
        {
          "bias": 0.03886698047859263,
          "weights": [
            -0.01313436736845007,
            -0.07527285664639544
          ]
        },
        {
          "bias": -0.14967704806584156,
          "weights": [
            -0.32528059977248713,
            -0.18084753540879817
          ]
        },
        {
          "bias": -0.00793085557798075,
          "weights": [
            -0.19995284760038154,
            -0.025557406971571356
          ]
        },
        {
          "bias": 0.09357247670716129,
          "weights": [
            0.12528531601685255,
            0.06487101270810884
          ]
        },
        {
          "bias": -0.12966744233516997,
          "weights": [
            -0.2969983919979787,
            -0.12973747580240752
          ]
        },
        {
          "bias": 0.08467939582912344,
          "weights": [
            0.1986387244903169,
            0.09843353638187763
          ]
        },
        {
          "bias": 0.10708363712572057,
          "weights": [
            -0.17444353289323092,
            0.0049846486174958005
          ]
        },
        {
          "bias": 0.05440702399927725,
          "weights": [
            -0.05303540324501907,
            0.09407805705461222
          ]
        },
        {
          "bias": -0.02865076977164385,
          "weights": [
            0.21931064471960246,
            -0.00011397001081937158
          ]
        },
        {
          "bias": 0.09703893466182119,
          "weights": [
            -0.06298390482541295,
            0.11284676736069503
          ]
        },
        {
          "bias": -0.12040439095448294,
          "weights": [
            -0.24627063051617418,
            -0.08427877710461748
          ]
        },
        {
          "bias": 0.05586151969065786,
          "weights": [
            0.01636733565527471,
            0.08024255205887
          ]
        },
        {
          "bias": 0.009581767872639271,
          "weights": [
            0.09495717427957222,
            -0.10403914545892881
          ]
        },
        {
          "bias": -0.15821829828851805,
          "weights": [
            -0.3156117071671013,
            -0.15598568464767398
          ]
        },
        {
          "bias": 0.014146388051496915,
          "weights": [
            0.10886566618821512,
            -0.02839391541348153
          ]
        },
        {
          "bias": -0.06427563747339113,
          "weights": [
            -0.3605766142713983,
            -0.235494313808932
          ]
        },
        {
          "bias": -0.016927061103730923,
          "weights": [
            -0.31685306417199016,
            -0.2358233210075346
          ]
        }
      ]
    },
    {
      "activation": "tanh",
      "num_neurons": 25,
      "neurons": [
        {
          "bias": 0.010436039269205446,
          "weights": [
            -0.2570087692277153,
            -0.11023743718292113,
            -0.2133679040324222,
            -0.24708528888874207,
            -0.0600236234914496,
            0.04669120208083598,
            -0.06497141181364031,
            -0.2087046384554752,
            0.10417802489472541,
            0.028269642382241618,
            -0.0769300295154276,
            0.3437093021505706,
            -0.3064188342323297,
            0.09560044521457113,
            -0.18517275782885012,
            0.3709217591756494,
            -0.2430047485350849,
            -0.09631546715734565,
            -0.1809289382389393,
            -0.19220211514627883,
            0.11348707736112319,
            0.06996445225009876,
            -0.34510238658792813,
            -0.0054929025399197895,
            0.17691130082872852
          ]
        },
        {
          "bias": 0.03218213945849575,
          "weights": [
            -0.15784374729483985,
            -0.1714772314096683,
            0.11016858061908649,
            0.27168408353472534,
            -0.17461769933452287,
            -0.0847868423371672,
            -0.24383226392746798,
            0.1110477236030156,
            0.036073002837382025,
            -0.10625162268115122,
            0.007909548905019154,
            0.326452976201968,
            0.0026066163320437475,
            -0.09808864995504758,
            0.2369234506952378,
            0.0248954060508694,
            -0.26470041314352544,
            0.22622247317286587,
            0.2052506729993866,
            0.02694362771872821,
            -0.18106731574838766,
            -0.21973760140595774,
            0.0816121051604672,
            0.08887320062777086,
            -0.21755048166414392
          ]
        },
        {
          "bias": -0.07677463826701642,
          "weights": [
            0.03321025088701477,
            -0.15987651618511897,
            0.12350130864651657,
            0.1760418968432791,
            0.20304336996664193,
            0.26417444281914515,
            -0.05256353319037813,
            0.23200679525722923,
            0.03153390452188108,
            -0.16876692982570338,
            0.23466620903772112,
            -0.30766865857589165,
            -0.02128091676691025,
            0.22543379832031843,
            0.27599126447982286,
            0.284597369962505,
            0.17456194205422204,
            -0.09339218489911831,
            -0.12189751091093821,
            0.1495813679401642,
            0.23084569456645285,
            -0.08415227363024294,
            0.02349111763105546,
            -0.10025775501652152,
            0.017521730222844534
          ]
        },
        {
          "bias": -0.06535237437783091,
          "weights": [
            -0.022492883543075114,
            0.0018866273652903402,
            0.3255350384651303,
            -0.34429698503797673,
            0.009546282202467775,
            -0.28338376260958525,
            -0.050614844958265647,
            0.004182130251501577,
            0.20894654014348824,
            -0.0666438041581618,
            -0.14160948985211916,
            -0.2813576918991696,
            -0.23702303587506604,
            -0.3221554890794552,
            0.07107015543707354,
            0.29934553491970695,
            -0.09446328858633622,
            -0.1815261670256628,
            -0.18153252276659074,
            0.08650931381383035,
            0.043615756832739015,
            0.36125758738636604,
            -0.06959672624622203,
            0.2068351951921989,
            0.00891227042652452
          ]
        },
        {
          "bias": 0.04602807770454733,
          "weights": [
            0.04780579195826823,
            -0.21616329407429669,
            0.3406556235597028,
            -0.026542176886870394,
            0.21775672642227936,
            0.24255822978653463,
            -0.36897204315036275,
            -0.3240143634965163,
            -0.13484692573273327,
            0.22002226587247,
            0.2562304886189069,
            0.3362550908918321,
            -0.2780802208226725,
            -0.29330630316495,
            0.03429415271884564,
            0.1313870183077017,
            0.052506775671682174,
            -0.19809392606011592,
            -0.13526455423696293,
            -0.2657347000926079,
            -0.020254982073654285,
            0.08224881432408461,
            -0.024599106599144188,
            -0.2871641209037946,
            0.17210901133423506
          ]
        },
        {
          "bias": 0.03139098685419065,
          "weights": [
            -0.025158513435900996,
            -0.12085477512284926,
            0.0572182629075181,
            -0.16946057362024694,
            -0.35259502310231094,
            0.2813588345133886,
            -0.2569565137412742,
            -0.011301954304206899,
            -0.04837864741802928,
            -0.1391818665498729,
            0.21877316270090533,
            -0.09777957389744103,
            0.20839602412498898,
            -0.015713708029980497,
            0.035862932169971565,
            -0.27812075411098647,
            -0.12671703010965665,
            -0.014944622210049167,
            0.11612275326834882,
            -0.036143516833197976,
            -0.28010132114692965,
            -0.27456959254326174,
            -0.05835580631321272,
            -0.2802366310774158,
            -0.03430068396510707
          ]
        },
        {
          "bias": -0.06088092009565663,
          "weights": [
            -0.0794879328720575,
            -0.20919984798865618,
            -0.319452935811651,
            0.20800714861348862,
            0.30462999532046486,
            0.07448092450633183,
            -0.05734610215601015,
            -0.26345654537309277,
            -0.20717557472921982,
            -0.2982043339232084,
            -0.157942757748221,
            0.057089709578673695,
            -0.048102284513574275,
            0.21951009621150291,
            0.058389796867218235,
            0.0768360380386422,
            0.04198797484258841,
            -0.0014767776848299548,
            0.18221026686178926,
            0.17924912011661343,
            -0.27307946694422225,
            -0.04052593601984615,
            -0.10909323968607966,
            0.0657693454735513,
            0.22479644198616072
          ]
        },
        {
          "bias": 0.029809594941391997,
          "weights": [
            -0.21075900461177705,
            -0.203150716067951,
            0.030665315467414394,
            -0.2576792955435926,
            -0.10512617542274788,
            -0.23271369190703195,
            -0.06385221820383058,
            0.32670708736184323,
            0.07119848442290064,
            0.26696999888632156,
            -0.3086752093256084,
            -0.2735641070935055,
            -0.28932197371617796,
            0.004288777436038894,
            0.15761243605878986,
            -0.20413852934221813,
            0.00046297806743278213,
            -0.23840610790520755,
            0.15462780424020062,
            -0.28022661018894696,
            0.149318472003335,
            -0.06826385263755262,
            -0.025609782889178066,
            0.19178657538006802,
            0.004366897484424177
          ]
        },
        {
          "bias": 0.027734321002205624,
          "weights": [
            -0.33093513563403193,
            0.11054725338498535,
            0.09808420414797044,
            0.016130616816528588,
            -0.15620780104571508,
            -0.10439296976766202,
            0.0417257549532514,
            -0.3348148573630847,
            -0.3019403601516171,
            -0.36378319483231303,
            -0.03861192576688199,
            0.3087846320036263,
            -0.007515454746340429,
            -0.17436134756777055,
            -0.23447465772261739,
            0.03756904445905074,
            0.21673344122270904,
            0.0435797214586525,
            -0.16848664518009296,
            -0.07577604996718625,
            -0.27238503759144,
            0.06549866140703331,
            -0.07539592165691035,
            0.27471788423412963,
            -0.09866424396232287
          ]
        },
        {
          "bias": 0.0034595389132871085,
          "weights": [
            -0.18179029481608827,
            -0.09534143682624582,
            0.17998497843952369,
            -0.04470434969846711,
            -0.043160270808458884,
            -0.1968420585259363,
            -0.10845865872206867,
            -0.12157900169262316,
            -0.28928528986850577,
            -0.055018782647187556,
            0.08326264127367008,
            -0.09967978951647571,
            0.22802129177384176,
            -0.02828978666501627,
            0.16408294384655336,
            -0.11524790442982691,
            0.049715783540335394,
            -0.06966741181945256,
            -0.10107549996470755,
            0.10472043682761555,
            -0.26178156824839677,
            0.2748253698571642,
            -0.049440042768295965,
            -0.07721214125062992,
            0.10811345895594011
          ]
        },
        {
          "bias": -0.047590118418304586,
          "weights": [
            -0.08191344869675737,
            -0.2107831871019087,
            -0.06736772503240461,
            0.03260406269392989,
            -0.11885196780346165,
            0.29568611376218995,
            0.3230850656730485,
            0.3393606697613425,
            -0.15571753043456266,
            0.13281300435244348,
            0.2930311326113809,
            0.15296709183866383,
            -0.080323111868097,
            0.10410166735242796,
            0.23916938230092627,
            -0.18495597265774502,
            0.22824661543736516,
            -0.22383569576220191,
            0.3519910993498247,
            0.12690152770829924,
            -0.1307872213941373,
            -0.10354648892965937,
            -0.10543109840825451,
            -0.06890456866561383,
            -0.172809776555587
          ]
        },
        {
          "bias": 0.015694718856678242,
          "weights": [
            0.24844891913120568,
            0.0893130494381967,
            -0.05674787504159232,
            0.17252313588977403,
            0.11309535577043496,
            -0.20138361581007164,
            0.08351684640741398,
            0.22988040415131994,
            0.1755403983791231,
            -0.24079060763566432,
            -0.3532581527917381,
            0.2111265577745097,
            -0.2853060755975239,
            -0.1348750278365739,
            -0.2506073249282448,
            0.30257505305841653,
            -0.2012721128247001,
            -0.20601149692189855,
            -0.3185664271088409,
            0.2010674844991124,
            -0.12590108896435095,
            -0.23916622848268793,
            -0.08475237683193115,
            -0.015983314004235465,
            0.07578786588265327
          ]
        },
        {
          "bias": -0.01938828286577059,
          "weights": [
            0.03843157567233599,
            -0.23512096581204667,
            -0.17846155115468212,
            0.21373182512185043,
            -0.11964456488016872,
            -0.20663896489696074,
            0.3212017423413986,
            0.023698602719559442,
            -0.0648841333974832,
            0.20022253547537117,
            0.14208248218421443,
            0.06741024457713313,
            0.30007927400099743,
            -0.052415373512565554,
            -0.19396953156654523,
            -0.01257794119650693,
            -0.005330228337667368,
            -0.35307355575799315,
            0.18945669778442073,
            0.0975562115527435,
            0.18905340906561752,
            0.044970656521078615,
            -0.37778838499266043,
            -0.19717846485849264,
            0.1262850609318332
          ]
        },
        {
          "bias": 0.042859565893020084,
          "weights": [
            -0.09208323961729545,
            -0.02670752273536506,
            -0.012812267473402587,
            0.27900181698281673,
            0.20869642322758872,
            -0.17091036012326008,
            -0.13204706389872276,
            -0.20314023673843126,
            -0.08525030698769018,
            -0.19162447894970594,
            -0.10735005844357884,
            -0.1546511617345022,
            0.023811388542920968,
            0.2711399325728996,
            -0.09096368392320608,
            0.27383088999856164,
            0.14535748035147256,
            -0.16687365426805642,
            0.04291470260511855,
            -0.21306748110523044,
            -0.22927207434395414,
            0.004314321780474731,
            0.04460172173248256,
            0.018540648209218986,
            0.15231815118552586
          ]
        },
        {
          "bias": -0.04959449868709082,
          "weights": [
            0.1899847171603281,
            0.02542250697482427,
            -0.23448341809435733,
            -0.2516431965508718,
            0.3711756011282169,
            0.18526913931283776,
            0.11482238168185331,
            -0.38828876612025665,
            0.12077444074493578,
            0.18395887136183664,
            -0.2976231043697437,
            0.04900260226348992,
            0.22829497967766818,
            0.3038303679364185,
            -0.018454079057710925,
            0.15446643125147214,
            0.005524784509109792,
            -0.10013361520135526,
            0.21271979045680192,
            -0.02983735110020119,
            -0.1598468563647141,
            0.04137729584921326,
            -0.338863576072462,
            0.10305125546912937,
            0.08068140731818572
          ]
        },
        {
          "bias": 0.03288236321122166,
          "weights": [
            0.2621781630018509,
            0.04539646074627077,
            0.14953851181735914,
            -0.011755392385042739,
            -0.1691925612042179,
            -0.20258616539337126,
            -0.2947327769051006,
            -0.15186755394691318,
            0.2773714863535396,
            -0.028162761058407,
            0.11138167954836899,
            -0.20540278033844972,
            -0.26683514628377636,
            0.13208373585446823,
            -0.2789233913575168,
            0.01365786502384776,
            -0.23211835952628238,
            0.07722362197033594,
            -0.1219932267399768,
            -0.3155606456280508,
            0.027631081553702804,
            0.1382744590429482,
            0.1372124813015387,
            0.2457862133665231,
            -0.3297580375932581
          ]
        },
        {
          "bias": -0.024700866291400836,
          "weights": [
            -0.17026554993119505,
            -0.052993109332571585,
            0.08958290282635933,
            -0.27774321374364924,
            -0.34675064373237985,
            -0.07566031475857946,
            0.06597471175323469,
            0.04075783044160145,
            0.2532324264421033,
            0.2785211980946918,
            -0.02940351809371424,
            -0.18040978994742218,
            -0.1834521291911501,
            -0.020194443215073445,
            0.30129932738570353,
            0.10956878878985109,
            -0.10561506690905384,
            0.08683360709399188,
            0.24315171330775714,
            -0.22322332013538113,
            -0.13645995515102075,
            0.14621148027917266,
            0.21228468541157086,
            0.10086829542742323,
            -0.2663838884772335
          ]
        },
        {
          "bias": -0.00808643818810923,
          "weights": [
            -0.030695307283942045,
            0.2342705281231289,
            0.02894499403720958,
            -0.09615980946055899,
            -0.3061397484421745,
            -0.06478812631538168,
            -0.07723134778682378,
            0.17979958380062774,
            -0.21158592920492378,
            0.04150783214447288,
            -0.08215596382317761,
            -0.12258329406484583,
            0.041927150886877367,
            -0.1033102492711181,
            -0.1741639322482344,
            0.19922526663790177,
            -0.09511705747978207,
            -0.31881026728451534,
            -0.23821030003452706,
            -0.017100807446961356,
            -0.32536734585578564,
            -0.0011713102537010212,
            0.17338483853392142,
            0.33361977792074665,
            0.24004237156622604
          ]
        },
        {
          "bias": 0.038741383128728914,
          "weights": [
            0.222029974336486,
            0.1671459826456163,
            -0.2472895840483568,
            -0.1322333047887441,
            0.16995280275129127,
            -0.25763672056806686,
            0.27319543215948516,
            -0.27938930417926283,
            0.012319580827523251,
            0.0640948669816423,
            0.2239928498759671,
            0.07758638487971446,
            -0.2936075437677725,
            -0.05993983505142888,
            0.12137692780770556,
            0.2680008374904348,
            0.04364968729966784,
            0.3383156510873719,
            -0.29587197048799097,
            0.1157455764683284,
            0.3764756129441166,
            -0.2712295708715979,
            0.09932774723225973,
            0.0114359622607469,
            0.127348906593436
          ]
        },
        {
          "bias": -0.08658919623599257,
          "weights": [
            -0.1075408847272662,
            -0.2525881082981062,
            0.16454708399907356,
            -0.13456799832877311,
            -0.13251908407876978,
            -0.2893311785077284,
            0.20652588150164847,
            -0.25926675721107023,
            0.12564427959807153,
            0.15497165052763048,
            0.09321547331917093,
            -0.0977201506981257,
            0.03134658716231283,
            -0.13135083173228382,
            0.02149528658899467,
            -0.3569619322815719,
            -0.16236355615903186,
            -0.17393523133617098,
            -0.045425858641100283,
            -0.11845613780205551,
            -0.2545245591755945,
            0.32838417221401056,
            0.10824168262095522,
            -0.33342343363572036,
            0.1675296282451173
          ]
        },
        {
          "bias": -0.04348850222807342,
          "weights": [
            -0.27705462747553067,
            0.27068544502392916,
            -0.13622958191139325,
            0.02002910680636273,
            0.010541275360895207,
            -0.10889589233292006,
            -0.09154971135049055,
            -0.012318391341000231,
            -0.036941442544050455,
            -0.28097075371392766,
            -0.24040567547508376,
            -0.20459070202801755,
            0.21163089843306881,
            -0.2727593932567551,
            -0.05448352275854486,
            0.06981138205117254,
            0.06646406016508043,
            -0.1680144510866812,
            -0.12661478067680462,
            -0.3133021280296978,
            0.302992270987926,
            0.21928592574852748,
            -0.011063253529927647,
            0.04162990251436135,
            -0.06984535101191763
          ]
        },
        {
          "bias": -0.04230905888901536,
          "weights": [
            0.30716978547449236,
            -0.2484594498365328,
            0.341280725510476,
            0.2941120959052021,
            0.3289209223325546,
            -0.040913842849631316,
            0.16000781749129406,
            -0.04642562449451053,
            0.1884270539676942,
            0.08231061024243096,
            -0.16808489594277218,
            0.26493348996240973,
            -0.15556744306091433,
            -0.1906320989680146,
            0.10988776023917289,
            -0.18866773609485085,
            -0.031353185663639586,
            -0.18023949367077,
            0.1465379778352422,
            0.07531860520632992,
            0.16207842893521726,
            0.1669149455742763,
            0.02190094384557609,
            -0.1533592970068307,
            0.045461007542131254
          ]
        },
        {
          "bias": -0.07523612798563922,
          "weights": [
            0.16716500480120844,
            0.22902651767312254,
            -0.10221916712653112,
            0.16328934769544207,
            0.00988213734244812,
            0.3220904243585107,
            0.1990255372208417,
            0.20402030233971027,
            -0.042788307369310274,
            0.17468677270345917,
            -0.138782599541107,
            -0.07926902090854665,
            -0.1641051620962103,
            -0.2610251487268018,
            -0.05806444123653393,
            0.18648863302659652,
            -0.023931660880996002,
            -0.36075548933140145,
            -0.09108550812577901,
            0.2668148419803976,
            0.2848698639780898,
            0.08718549753325523,
            0.045318362729091045,
            -0.27602270753582714,
            0.2948780310495942
          ]
        },
        {
          "bias": 0.047468881090472106,
          "weights": [
            0.11010658137944887,
            -0.06329951496518832,
            -0.13619946088084542,
            0.04834898473292254,
            0.06892396134285235,
            0.2521342772224322,
            -0.1790702696208591,
            -0.1995764439124477,
            -0.24499423489296035,
            0.22883320227174114,
            -0.06389401208212787,
            0.2666392591347094,
            -0.17698271601398158,
            -0.2665600278593708,
            0.1237883553956346,
            0.14687336586132296,
            -0.08422859379452935,
            -0.23582656653427234,
            -0.10768749566588158,
            -0.26177151237029705,
            0.08339321114855615,
            0.12045129549183126,
            0.16121673875209538,
            -0.1407635936529467,
            -0.19125363625583314
          ]
        },
        {
          "bias": 0.010346215871277339,
          "weights": [
            -0.006661150079350529,
            -0.2267737904728467,
            -0.21007985216524688,
            -0.33926046217223416,
            -0.263045487868399,
            0.24804206903129208,
            0.10708832185595704,
            -0.21027706148059858,
            -0.33272906956810644,
            -0.008491470659378476,
            -0.06837392556243249,
            -0.20983328957493588,
            -0.20729704889408493,
            0.0001769026605240679,
            0.2976862174458235,
            -0.12436472032913994,
            0.028657222176219806,
            -0.0723948360746513,
            0.23612316174132528,
            -0.21160316383659622,
            -0.06673714846960643,
            -0.05405937137679457,
            0.3013660028213049,
            -0.02946460917733082,
            -0.3035122142332725
          ]
        }
      ]
    },
    {
      "activation": "None",
      "num_neurons": 11,
      "neurons": [
        {
          "bias": 0.05122024371483058,
          "weights": [
            0.047219724216582715,
            -0.07892216699730342,
            0.20319451633626653,
            0.10799146083521219,
            0.06719517054066339,
            -0.02416796107884414,
            0.22141330136911566,
            -0.08635500579487504,
            -0.23229497677665517,
            0.1732473344604922,
            0.23693351682630762,
            -0.33681607999428315,
            0.16313195233783243,
            0.3045711643065409,
            -0.12513019327455158,
            0.2745621994294683,
            -0.06294942568271611,
            0.21929155452589633,
            -0.2409967077149835,
            -0.1551908374054447,
            0.34280187638531523,
            -0.2702595047729108,
            -0.33165497771864716,
            -0.06696353730843728,
            -0.07680820895966876
          ]
        },
        {
          "bias": 0.012440788728044789,
          "weights": [
            -0.20163576945745587,
            0.115240814643684,
            0.27230644513072216,
            -0.08539639981017484,
            -0.06557524604062757,
            -0.2940193658055705,
            0.05750134829443713,
            0.2573664908266091,
            -0.1562081900446594,
            0.14921120839553204,
            -0.24730497845740196,
            0.1000682799230465,
            -0.2742085723849071,
            -0.058697490461778315,
            -0.11992500072299919,
            0.23244337425370368,
            0.13075542238120605,
            0.290343230039186,
            -0.11756542884990791,
            0.16501844355003786,
            0.11805326926036253,
            -0.125624082319608,
            0.14773280915626527,
            0.18622949347977613,
            -0.16731232817293362
          ]
        },
        {
          "bias": 0.003650913386087427,
          "weights": [
            0.04157964330711143,
            0.14331297149205752,
            0.045009743605291724,
            0.0665510583797681,
            0.06783660438247141,
            -0.11356427116610904,
            0.12582517599864612,
            0.041984751193766885,
            -0.07804995174296885,
            -0.021411187475046257,
            -0.33225870922105366,
            -0.14201951021884332,
            0.12605953961021887,
            -0.22955274735422068,
            -0.08433542635504554,
            -0.010366002893544222,
            0.12372109543651053,
            -0.3147787029881468,
            -0.11987265837530865,
            0.07576481465305215,
            -0.02242856475638001,
            -0.08373313582005146,
            0.22564096411692464,
            0.2963481794908292,
            -0.246610732993077
          ]
        },
        {
          "bias": -0.05106103733730733,
          "weights": [
            -0.19934395430556603,
            -0.17998414922105904,
            -0.23530564468081627,
            0.31190834651955135,
            0.2539991970083256,
            -0.12345471141458668,
            -0.13372716440401358,
            0.1410658383777091,
            -0.12200142772753123,
            0.019571530602484424,
            0.04989992430801554,
            -0.07723602007218866,
            0.01903425086228157,
            0.0026693261791155038,
            0.016284953447141447,
            0.16391726407731094,
            -0.3650242635423662,
            -0.045111893402163386,
            0.02346269204186297,
            0.01955191522457078,
            -0.14312292385488742,
            0.014059225849082636,
            -0.29674578960493564,
            0.15464611049423338,
            -0.0012783428196451298
          ]
        },
        {
          "bias": 0.05465080315783579,
          "weights": [
            0.2338114352951208,
            -0.003675941274159178,
            0.3325192716936428,
            0.03788462149437747,
            -0.2719712178588306,
            0.219364079825159,
            0.3037322080445075,
            0.12746403392390343,
            0.2701622065482052,
            0.016734403659339495,
            0.16152071122763084,
            -0.14248989999485384,
            0.13681647488201262,
            0.46380196454150696,
            0.04997029194807481,
            -0.060776991342406675,
            0.20938424915710507,
            0.13564953468404814,
            -0.029468726019992005,
            0.16821323975886862,
            -0.05226233165949471,
            0.3012284329049499,
            0.11161482530860006,
            -0.2025102357566827,
            -0.16886093932887075
          ]
        },
        {
          "bias": -0.06114131521495959,
          "weights": [
            -0.36283170133033216,
            0.13235623698436308,
            -0.1171259182125476,
            0.2396719521591213,
            0.3176025231434158,
            -0.2526059402182967,
            0.1255653729091861,
            0.28654548604656815,
            0.13174395247444454,
            -0.3465219135877495,
            0.2162278181726144,
            0.18938083125340346,
            -0.11549918672002021,
            -0.3833745026092157,
            0.1148161684485635,
            0.08268706867347202,
            -0.11392925588264716,
            -0.13923917374019223,
            -0.12037076718055721,
            0.14536394888291407,
            -0.2642680604100207,
            -0.16988338227475305,
            -0.24731178234117032,
            0.1956147376457058,
            0.003893476557873462
          ]
        },
        {
          "bias": -0.011573860884079301,
          "weights": [
            0.14056700219354437,
            -0.1334780209656415,
            0.13039930448169323,
            0.10031663974706669,
            0.007492619655886638,
            0.04222231384623836,
            0.23685377842481456,
            0.23760793061495347,
            0.07989813823697824,
            0.33655434991840477,
            -0.03435905012426649,
            0.3280447949447523,
            -0.08341389244278082,
            -0.09405604311010726,
            0.14438374758586375,
            0.23894742074863992,
            0.2824513058477496,
            0.0479225028900441,
            -0.27435260834805425,
            0.045689718547618115,
            0.04086876607570592,
            0.1290698653280365,
            -0.15007971303719822,
            -0.3369638785203623,
            0.07113800796440758
          ]
        },
        {
          "bias": -0.029895147093521583,
          "weights": [
            -0.22206333222938335,
            -0.11659389452500173,
            0.19626624517658817,
            -0.11903583907925847,
            -0.30384942160650424,
            -0.06824320830265455,
            -0.3000942464176316,
            0.07251426714451038,
            0.25760126910912734,
            -0.18866492916215316,
            -0.1339240754593467,
            -0.2208549654771978,
            -0.05368612457129321,
            0.22300385186682825,
            -0.16442802240347748,
            0.019351593899527265,
            -0.19329902332400462,
            0.23704838520144994,
            0.0382222274687711,
            0.017489823791933472,
            -0.24342256083090644,
            -0.23064853004945046,
            -0.11865440152553025,
            -0.14780697707735097,
            0.05592871093699203
          ]
        },
        {
          "bias": 0.05935217932315395,
          "weights": [
            -0.3455655766183409,
            -0.23143061250080785,
            -0.29036703916701495,
            -0.21710250549815163,
            0.2565642745106751,
            0.019984837247788316,
            0.2850879349167814,
            0.2862681623335535,
            -0.1796018687037695,
            0.21493921842508773,
            0.29994613020505456,
            -0.11378356390392388,
            -0.2004138807497348,
            -0.24947593589046935,
            0.10156860488416568,
            0.28918157125515476,
            -0.46485829547036606,
            -0.38761985613572625,
            0.03534078564432027,
            0.26105930860437976,
            -0.07968175529273971,
            0.0772275326858634,
            0.06785011399326545,
            -0.23103787257462138,
            -0.13761931432068072
          ]
        },
        {
          "bias": 0.10353476171819775,
          "weights": [
            -0.17720920752986674,
            -0.33503894565943,
            -0.39660836796401233,
            0.30910041348518474,
            -0.10990120157556887,
            0.006921412117708213,
            -0.21453961501639643,
            -0.4072899225989165,
            0.06010854550582172,
            -0.051275001609466214,
            -0.4029517568365834,
            0.14268190987045984,
            -0.24453153672142908,
            0.2504235040162613,
            -0.082873991004259,
            0.01718019952245053,
            0.12345226313745898,
            0.3173880792167634,
            -0.2624514384193345,
            -0.33338841964771626,
            0.3268371088201287,
            -0.05344777916381648,
            0.19784211334787008,
            0.14920780229083197,
            0.18798129775187583
          ]
        },
        {
          "bias": 0.037847075730479664,
          "weights": [
            0.12750931185191589,
            -0.21446339280247542,
            -0.08310429975250795,
            -0.30917030376600135,
            0.26191427254130006,
            0.007847319808862805,
            -0.152349432872469,
            -0.2303056936098488,
            -0.3438586844560378,
            0.41387967912147633,
            -0.028859568961656475,
            0.3434861648390054,
            -0.02202296174349104,
            -0.18985569603883407,
            0.11027391311109104,
            0.12401354274918087,
            -0.24628431246474922,
            0.21982119227301233,
            0.27876165375867334,
            0.37965211988164466,
            0.24238887417330293,
            0.1813214127533709,
            0.06857318027547571,
            -0.24122400028956686,
            0.06845720504666894
          ]
        }
      ]
    }
  ]
}