{
  "layers": [
    {
      "activation": "tanh",
      "num_neurons": 24,
      "neurons": [
        {
          "bias": -0.07394012778752054,
          "weights": [
            -0.18755937544156037,
            -0.24434770910854842
          ]
        },
        {
          "bias": -0.12699110285569154,
          "weights": [
            -0.3646143234306855,
            -0.10075444976094984
          ]
        },
        {
          "bias": 0.14384090614174813,
          "weights": [
            0.13752872918962591,
            0.2748176338510487
          ]
        },
        {
          "bias": -0.016375453793930093,
          "weights": [
            0.2920888720080712,
            0.2371974075017415
          ]
        },
        {
          "bias": -0.11217548530239174,
          "weights": [
            -0.35874573510725427,
            -0.09864192933948254
          ]
        },
        {
          "bias": -0.11886533675133189,
          "weights": [
            -0.355070090383982,
            -0.1020225401481476
          ]
        },
        {
          "bias": -0.09390318722760072,
          "weights": [
            -0.3849530593769761,
            -0.21419062692437152
          ]
        },
        {
          "bias": -0.12922620859714753,
          "weights": [
            -0.33596501325313444,
            -0.33754467554980644
          ]
        },
        {
          "bias": -0.12357949113720147,
          "weights": [
            -0.13170028397982766,
            -0.27642772858707426
          ]
        },
        {
          "bias": 0.020835948845971924,
          "weights": [
            -0.37264970640000833,
            -0.20328250470760173
          ]
        },
        {
          "bias": -0.06666789932799573,
          "weights": [
            -0.3825491829171196,
            -0.13184001964346415
          ]
        },
        {
          "bias": 0.10164566516494628,
          "weights": [
            0.20335323921311294,
            0.2469495392906424
          ]
        },
        {
          "bias": -0.06828832525430559,
          "weights": [
            -0.36963901555805495,
            -0.15082129712232376
          ]
        },
        {
          "bias": 0.10943761138813805,
          "weights": [
            0.33202675866427306,
            0.1499098295105883
          ]
        },
        {
          "bias": -0.1272102622769642,
          "weights": [
            -0.37176387867920935,
            -0.15043211513097224
          ]
        },
        {
          "bias": -0.21484085277087078,
          "weights": [
            0.14170143738021937,
            0.29160962676917684
          ]
        },
        {
          "bias": 0.09228141762560513,
          "weights": [
            0.4195205000902615,
            0.2527164201815962
          ]
        },
        {
          "bias": -0.02307067006769617,
          "weights": [
            -0.39014770420470507,
            -0.31309203060013613
          ]
        },
        {
          "bias": -0.06634014253608315,
          "weights": [
            0.13980294614606611,
            0.2809765282945
          ]
        },
        {
          "bias": -0.16637409980840814,
          "weights": [
            -0.3220579975989454,
            -0.32985885857494857
          ]
        },
        {
          "bias": 0.10994201668208148,
          "weights": [
            0.38844897688123925,
            0.3237637185338324
          ]
        },
        {
          "bias": -0.10690897084665735,
          "weights": [
            -0.22184526379930175,
            -0.24801675267717355
          ]
        },
        {
          "bias": -0.09755593928523931,
          "weights": [
            -0.12364156563113418,
            -0.27752735113899085
          ]
        },
        {
          "bias": 0.03477111337705415,
          "weights": [
            -0.3597232923277227,
            -0.17117410138396225
          ]
        }
      ]
    },
    {
      "activation": "tanh",
      "num_neurons": 24,
      "neurons": [
        {
          "bias": -0.061505263610375144,
          "weights": [
            -0.3028872673473846,
            -0.028107806565709888,
            0.03214838860377184,
            -0.049690386784884154,
            0.3770331561941723,
            0.027587607536548864,
            -0.2853487653435845,
            0.34114124679935975,
            0.05952813278327725,
            0.3236346047168764,
            0.028723066610370128,
            -0.299521319106065,
            -0.11129248597228909,
            0.22826813200552282,
            -0.1055568778044118,
            0.3039092015272593,
            -0.11726638170027548,
            0.18803126520288957,
            -0.1537529675423248,
            0.20478539902616216,
            -0.11398043398082111,
            -0.0800075600667312,
            0.24767878672351692,
            0.09367179081293107
          ]
        },
        {
          "bias": -0.008235327209477252,
          "weights": [
            -0.15827591229954863,
            -0.14086126789473388,
            -0.21555633162712165,
            -0.13270265788178012,
            0.10751154473521062,
            0.3633151325329724,
            -0.13905987758189017,
            0.2590813600247086,
            -0.34423235322810747,
            -0.33250837154325247,
            0.20802066509863212,
            0.09742661006961473,
            -0.025613079215051956,
            0.022529033590643205,
            -0.061054371381707356,
            -0.11693709186081276,
            -0.14807695019132364,
            0.04932294449583418,
            0.18923296750471563,
            0.19084845999454209,
            0.23591162824441936,
            -0.26716144435282013,
            0.083247306212277,
            -0.13914424454201008
          ]
        },
        {
          "bias": -0.015010136434563094,
          "weights": [
            0.005155927694278958,
            -0.03617622252085491,
            -0.20329898633683258,
            -0.2575559318303162,
            0.03885942105279392,
            0.11358643184970349,
            -0.007572496082770094,
            -0.09461752913527213,
            -0.2730344131355656,
            0.001768165724834879,
            0.014649436016294202,
            -0.044794019604207556,
            -0.18755802069976776,
            0.3631004117769331,
            0.3160616969141605,
            -0.34882381856664535,
            0.3190384265858345,
            0.2706529326421028,
            0.008969551035272059,
            -0.1117523518189469,
            -0.33878392727518936,
            -0.24452329771765707,
            -0.2858554263114654,
            -0.22408873228681786
          ]
        },
        {
          "bias": -0.08628645033678892,
          "weights": [
            0.060123648098325835,
            -0.14051498350408217,
            0.054874621531984115,
            -0.2864668455516522,
            -0.2430811404009629,
            0.058502424080885754,
            0.3472946206079634,
            0.19107123575794072,
            -0.003461150083985378,
            0.22685076660312978,
            0.13987616106500644,
            -0.15430712408746053,
            -0.16278902692158312,
            -0.33781893070554475,
            0.2549593652124082,
            -0.22179248665166626,
            -0.08058131912091397,
            -0.17333364667657358,
            -0.19877470764174623,
            -0.08869046560896948,
            0.02375029519119736,
            0.17050517179218982,
            -0.017041244788328448,
            -0.02983908840761888
          ]
        },
        {
          "bias": 0.0444672560283687,
          "weights": [
            0.040181651048784815,
            -0.03549366423096015,
            0.1873048312603442,
            0.30289437198761243,
            -0.13607015924073468,
            -0.3025176669284317,
            0.2119702142505757,
            0.14757142473436108,
            -0.0654394275707735,
            -0.06589003035993099,
            0.12061549762949894,
            0.33601047917446736,
            -0.08319766864215634,
            -0.1590299682237444,
            0.17964338143931907,
            -0.056543454354618335,
            0.28657407188768114,
            -0.016036713100064246,
            -0.31899064277197947,
            0.28978310389269357,
            0.15894712483514636,
            -0.39236560881719096,
            -0.028574147707746533,
            -0.051425199516854696
          ]
        },
        {
          "bias": 0.025471547412673642,
          "weights": [
            -0.03621154210818885,
            -0.17082152344563195,
            0.4284279009408109,
            0.28328283795890724,
            -0.20117843201478464,
            0.06466236107113509,
            0.22353818922926766,
            -0.2017117684298273,
            0.12541075966773582,
            0.21476780664155537,
            -0.35614103811045145,
            0.16664362482197523,
            0.03914654080888679,
            0.08103522233756885,
            -0.025315147034076165,
            -0.24526889374633026,
            0.13602772107392755,
            0.2004095753439068,
            -0.25925292182578885,
            -0.36249942291839243,
            0.227729065887229,
            -0.3095734297838034,
            0.004310264055163228,
            -0.04291701734019086
          ]
        },
        {
          "bias": -0.022867371322959032,
          "weights": [
            -0.07419978576234404,
            -0.021716827084196446,
            0.2404861742676367,
            -0.3179092108901067,
            0.14612519615016314,
            -0.06229502228634792,
            -0.09535813495292039,
            0.04988906858008568,
            -0.16159051321463994,
            -0.04139068876248592,
            0.011590608497587888,
            -0.26061688324826376,
            -0.08387748053234997,
            -0.26135825598845425,
            -0.06037070718849223,
            0.2803933149073006,
            0.051570616529451434,
            -0.09460528441643454,
            -0.24306062273533197,
            0.15197961378492963,
            0.1323664066280292,
            -0.15593268514146688,
            0.30183643347056016,
            -0.131676581453204
          ]
        },
        {
          "bias": 0.023410916746147863,
          "weights": [
            -0.16716715792094095,
            -0.2766082088272894,
            0.001341518585777554,
            -0.12203152640076466,
            0.03203542346577329,
            0.2689191678010245,
            -0.2223258181163975,
            -0.20793610791868636,
            -0.2768737947717068,
            -0.24336908084394307,
            0.14191517038325124,
            -0.22786331208197538,
            -0.1755150645095724,
            0.02111440286619702,
            -0.09764368558014257,
            -0.28240862145118395,
            0.09593115265796975,
            -0.19434888331836936,
            -0.09213408944387455,
            0.06930533308824305,
            0.10830609359657246,
            -0.15215851295845592,
            -0.15605836934469378,
            -0.04809181073281138
          ]
        },
        {
          "bias": 0.07175961483344594,
          "weights": [
            -0.3778935147709951,
            -0.18332744115258948,
            -0.26972605820778917,
            -0.14155299847866976,
            0.29117110800766366,
            -0.2869302950134084,
            -0.19206058553895594,
            0.023711384847623945,
            0.1237269242738277,
            -0.3847110437704557,
            0.205015681401826,
            -0.007527972257090256,
            0.21019435572363562,
            0.29790620875771395,
            -0.2105918800962525,
            0.15929751838663792,
            0.22373892630521083,
            -0.2221332346347672,
            0.0981349521954879,
            0.16363961903456148,
            -0.1408925185086654,
            0.14790308801084623,
            -0.22575092656645956,
            -0.13841285177460091
          ]
        },
        {
          "bias": -0.00038150614413868264,
          "weights": [
            -0.14495136796105026,
            0.1790652640977129,
            -0.008373766438857061,
            0.2364923347797115,
            -0.3635599526749512,
            0.2321104172503052,
            -0.09447414778245822,
            0.2012957807567318,
            0.07760082572118329,
            0.026818459665720152,
            -0.0640022355259479,
            -0.13526009374182596,
            -0.11887669697880035,
            -0.2352774138512324,
            -0.27343319857092313,
            0.023059541590990367,
            0.3424407101453947,
            -0.0350997305437127,
            0.10522362542849713,
            -0.12701277359515442,
            -0.07083507582505998,
            -0.16140697943686041,
            0.022689819624793477,
            -0.1526040169855472
          ]
        },
        {
          "bias": -0.055472959057567515,
          "weights": [
            -0.11399192778124391,
            -0.11179986757026852,
            0.30391559939611296,
            -0.28267651398614596,
            0.3322838305168234,
            0.35501141654386975,
            -0.3083235264834316,
            0.020960633844286838,
            -0.07483290987919211,
            -0.10145548252791353,
            -0.08731924124543249,
            -0.08554585761200309,
            0.2998557946376584,
            -0.2213400451519326,
            -0.19447894644914218,
            -0.10828369833382967,
            -0.32008008156369033,
            0.05600391513514219,
            -0.2532860768647898,
            0.2619490439671477,
            -0.35707114428868936,
            -0.13701802414147918,
            -0.048194256546627054,
            -0.3144817895375977
          ]
        },
        {
          "bias": 0.0602471150425097,
          "weights": [
            0.27807159386758956,
            -0.23392662616600343,
            0.17399734240861667,
            -0.039768514444406884,
            -0.03919573193620329,
            0.03207798157109473,
            -0.20844536486008802,
            -0.2606638814066361,
            0.18187614794587348,
            -0.17786264234732768,
            0.02450987604383905,
            0.3420230907190977,
            -0.1290450237980602,
            -0.14223512480881212,
            -0.2652291771108124,
            -0.03715568852077693,
            0.051130210345888466,
            -0.17072549306473295,
            0.29184089246406486,
            -0.2824215766626922,
            -0.2339200664594095,
            0.03202982019299795,
            0.15699546856544877,
            0.10128337514807875
          ]
        },
        {
          "bias": -0.014783182640057386,
          "weights": [
            -0.08251704145905232,
            0.1847402070663183,
            0.06020619373700553,
            0.0416990834666302,
            -0.13000791320126284,
            -0.3366477383538381,
            -0.10140448303471968,
            0.018284422810271237,
            -0.1924676287227878,
            -0.13591075016901016,
            0.18790271452971602,
            0.35615447693028973,
            -0.2482199762779644,
            -0.2598884177826686,
            -0.2640383328885564,
            0.0552609243358324,
            -0.19367217429101866,
            0.12679307387907326,
            -0.0637314532508965,
            -0.26763046725146533,
            0.03689097933571228,
            -0.2134856559786041,
            0.059613306284178866,
            -0.3555775151607243
          ]
        },
        {
          "bias": 0.013180832685109625,
          "weights": [
            -0.1421095526763573,
            -0.2814446446599044,
            -0.11004259534874448,
            0.09583798532016681,
            0.020718639899822856,
            -0.041636735237596666,
            -0.07943102662454161,
            -0.2970500302516899,
            -0.014566996448408333,
            0.29925798943363635,
            -0.12327368634904182,
            -0.2993934589246798,
            0.06531521720209171,
            0.030256048213485355,
            0.049476842382623024,
            0.12810577217263533,
            0.28608679957640903,
            0.1093132723384535,
            -0.08735668838042046,
            0.013855438931637426,
            0.11759401688692049,
            -0.31647086743224856,
            0.11304450115193651,
            0.11273422060581356
          ]
        },
        {
          "bias": 0.013019354615177914,
          "weights": [
            0.16516472177062522,
            -0.08305899539115653,
            -0.1724140639227026,
            0.18960870808390887,
            -0.08395548712629368,
            -0.10900451767780368,
            0.08035914793317737,
            0.2857027137442537,
            -0.2679118699647373,
            -0.09748212578450667,
            0.3403800173152979,
            -0.2143919675735943,
            0.010362282753846718,
            -0.0971591067075093,
            -0.19493745977103738,
            0.18932843148605827,
            0.14585906810371638,
            -0.060017834763621845,
            -0.23566475060198228,
            -0.22416459886903833,
            -0.16679714041367552,
            0.2940265790222703,
            0.020463317576009825,
            0.20746610039103583
          ]
        },
        {
          "bias": -0.05139246687889916,
          "weights": [
            0.32575945309713017,
            0.003848926313834169,
            -0.019002187069646723,
            0.21031643382673046,
            0.1775280604427151,
            0.16692512646000926,
            -0.09991697780003828,
            -0.29574389653671934,
            0.0788417019706046,
            -0.3136429789972896,
            0.30242409567142026,
            0.2630614675329485,
            -0.1938690825802717,
            0.2141885263154077,
            0.2687112019168993,
            0.3889882522460094,
            -0.16700787421152163,
            -0.0084005243196799,
            -0.2954220263312979,
            0.19725522713927615,
            -0.28757112164384085,
            -0.2746922857761896,
            -0.3442407883469929,
            0.24571276650553
          ]
        },
        {
          "bias": 0.022672331366638473,
          "weights": [
            -0.209296139223902,
            -0.039085902502875955,
            -0.2219884557046469,
            0.39827917880156816,
            -0.12778545062037625,
            -0.09943740632257884,
            0.255445446557981,
            -0.13741870882133211,
            -0.3670466087672872,
            0.1871000392963983,
            -0.12043640748393122,
            -0.1176245874579983,
            -0.3008913230528303,
            -0.2584182741427803,
            0.27290858115807265,
            0.11437359130775769,
            -0.17948841928655104,
            0.08742267923834617,
            -0.23402777641031217,
            -0.11882964550193538,
            0.08417778570203958,
            0.26902884924271486,
            0.31888791339129363,
            -0.028585618115625003
          ]
        },
        {
          "bias": -0.03814198985514162,
          "weights": [
            -0.04904393900799072,
            -0.010508539502661219,
            0.07537388159508214,
            -0.3154157857180714,
            0.2606771682772165,
            -0.21991240208648552,
            0.10340441267409982,
            0.3324115564606707,
            -0.22638342356145028,
            -0.30799742551797304,
            -0.21480719544878799,
            0.032560619005968995,
            0.29703761860335093,
            -0.358286145549466,
            0.07430336739457749,
            0.20453425236688058,
            -0.27461981528994356,
            -0.049901348383838404,
            -0.12801859914488523,
            -0.11693173107183727,
            0.2556808396322312,
            0.18502898791334146,
            0.23958322843674615,
            0.07052337224736369
          ]
        },
        {
          "bias": -0.03476836257337722,
          "weights": [
            0.18995015600461815,
            0.17439777754412317,
            0.11892465035040012,
            0.03584825191560428,
            0.31935168038162365,
            -0.22342995318602563,
            0.24385600807415128,
            0.20071769685423899,
            -0.26055032513169757,
            -0.11562296547614152,
            -0.0008367124914209917,
            -0.24782556607958345,
            -0.09690684365111478,
            -0.08538978455941326,
            0.06647269294218282,
            0.29294992094473615,
            0.1917266324706864,
            0.1250982725420458,
            -0.17049848694862452,
            0.12954701184155346,
            -0.2475939756365309,
            0.19157478358790786,
            0.17043210191078473,
            -0.03754281614113765
          ]
        },
        {
          "bias": 0.040644183099073514,
          "weights": [
            -0.08694902694771817,
            0.24341033121699934,
            0.0440237941541542,
            -0.2402292720944666,
            -0.1747880723329704,
            0.27774206836116977,
            -0.15639735776134162,
            0.010742557315863729,
            0.26147508552509496,
            0.12860384478989012,
            0.04963265025365802,
            0.28231055361550533,
            -0.29278745042734106,
            0.22077822818511464,
            0.11697483593123736,
            0.20109985985175702,
            -0.021998911866577587,
            -0.0004084824861293402,
            0.24491676166273815,
            -0.21970177296695825,
            -0.17888571482649088,
            0.10268471104806932,
            0.14320985126914393,
            0.04669270138309928
          ]
        },
        {
          "bias": 0.031114187970260054,
          "weights": [
            -0.3250573902289484,
            -0.2008896040588508,
            -0.16678016339938503,
            -0.04124381165142118,
            -0.3057650897719889,
            -0.19771426968856584,
            0.19033372143789387,
            -0.22608946331476368,
            -0.1978204504593238,
            -0.25607830617073374,
            0.3150271303266625,
            -0.10853853871839715,
            0.012733745650874581,
            0.00333592797993589,
            0.05343107178899672,
            -0.2095079991980495,
            0.07071996793032266,
            -0.20838232824198327,
            -0.06954272908851834,
            0.007885650722299594,
            0.11992954266909073,
            -0.07688911826263596,
            0.019583001124056917,
            -0.014131615559971375
          ]
        },
        {
          "bias": -0.0972637780629066,
          "weights": [
            0.3286404073498392,
            0.2228045226041599,
            0.11105548749295689,
            -0.185853965125098,
            -0.2705499000320284,
            0.12995291103288711,
            -0.22103355395070293,
            -0.28385199407367795,
            -0.08024464227691033,
            0.253663423232797,
            -0.2795337337042391,
            0.17784333985877643,
            0.3148505112374003,
            -0.27734121000943657,
            0.21558452046706308,
            0.04045080649226021,
            -0.2795227671471959,
            -0.22067622194866512,
            -0.2650589474679929,
            0.2858039487878025,
            -0.25167795365470513,
            0.08421908886854346,
            -0.049785831715227505,
            0.23394237914039737
          ]
        },
        {
          "bias": 0.016296855777036275,
          "weights": [
            0.18163547176144632,
            -0.3690572085067834,
            -0.0889666354230145,
            -0.09978842694813196,
            0.271532982034488,
            -0.10407188989840027,
            0.077532078026563,
            -0.12841503785308217,
            0.1637906547025358,
            -0.22881323137707069,
            0.1242410646742091,
            0.21862735614760906,
            -0.06367391477250614,
            -0.07218439263702839,
            -0.12888875207464404,
            -0.08988040929347671,
            0.08557135064688956,
            -0.07804386720423996,
            -0.003966812810788864,
            0.08742508433379223,
            0.29557551707574203,
            -0.278545607716217,
            -0.30561674007784856,
            0.3123019797792656
          ]
        },
        {
          "bias": 0.020949916749641726,
          "weights": [
            0.11891295245801659,
            0.28088861459257647,
            0.35972943901319304,
            0.08556481388207983,
            -0.12468229605309986,
            -0.2610239131744446,
            -0.14816011651884742,
            0.024478798398754727,
            0.2907502260806778,
            0.26516290129165265,
            -0.10621505794193548,
            0.15692858497515788,
            -0.37558159627619614,
            0.17793839401617556,
            0.068907344753444,
            0.10421290540134115,
            0.008118534520841875,
            0.07301459006995098,
            0.18918861452900368,
            -0.35721803784826117,
            0.04413153430591841,
            -0.1543333008621681,
            0.05613358016040106,
            -0.023445058460621063
          ]
        }
      ]
    },
    {
      "activation": "None",
      "num_neurons": 11,
      "neurons": [
        {
          "bias": 0.03964773761120716,
          "weights": [
            0.11405859311372334,
            -0.18827288438834547,
            0.21220229240238322,
            0.042253859764196024,
            0.005981211258178603,
            -0.06601265958418162,
            0.23126412356835452,
            -0.047364384380516475,
            -0.20600014604512606,
            0.18504386755706895,
            0.21306968891253839,
            -0.3569315919776388,
            0.21643936067306027,
            0.34578362411421054,
            -0.16850284744166918,
            0.25264161872053337,
            -0.04523384265547253,
            0.3078346365053978,
            -0.2505960654844455,
            -0.26968657448124717,
            0.24201872128389768,
            -0.3705553213360761,
            -0.3293155910160074,
            -0.05054482653334565
          ]
        },
        {
          "bias": -0.014374959379831735,
          "weights": [
            -0.16394889186404404,
            0.1034647395753596,
            0.2617103617640995,
            0.16896990986767244,
            -0.087212590476014,
            -0.2656639670657858,
            0.08798968139439452,
            0.23622479725086482,
            -0.13166091418104936,
            0.10954726893278145,
            -0.1942367414163162,
            -0.03865673084635966,
            -0.24203776248391948,
            -0.12357481250557738,
            0.06308975677700564,
            0.06625155623052247,
            0.1965487614813622,
            0.3513777437523881,
            -0.148797914419648,
            0.06756861224222521,
            0.21625572942181898,
            -0.17379064794123023,
            0.18755048277972516,
            0.04176318768242349
          ]
        },
        {
          "bias": -0.04400086260642003,
          "weights": [
            0.11878434782331997,
            -0.055637097849182825,
            -0.0709730384780298,
            0.30468866269198414,
            0.027594880007554223,
            -0.004738174668450458,
            0.12730762976463944,
            0.039902767192919304,
            -0.14682536307801808,
            -0.12009048987214599,
            -0.2133134233573896,
            -0.2319665109024043,
            0.13793905749838808,
            -0.3717051059448712,
            -0.09076975858621268,
            -0.09491265259424944,
            0.07548582703626554,
            -0.16476948114972007,
            -0.11652018902544208,
            0.14573281463600013,
            -0.16880720806834965,
            -0.18508900196093622,
            0.2783239984375434,
            0.3080175582871708
          ]
        },
        {
          "bias": -0.04272183712112394,
          "weights": [
            0.02490419976060104,
            0.020049803917794935,
            -0.28446781240679114,
            0.24271377331035038,
            0.17288851274056813,
            -0.1420155870241835,
            -0.16683798610843784,
            0.3670761655411559,
            -0.20711843470415456,
            -0.18993732579071865,
            0.10818954045569856,
            0.020476985443031212,
            0.22028319427196102,
            0.14007619474835936,
            0.12024848070155406,
            0.007935564100663595,
            -0.2790856191741742,
            -0.05793855577425326,
            -0.0024004394993032744,
            -0.07164521102794943,
            0.17888978541299333,
            0.08480870549051477,
            -0.2672301432722354,
            0.23037857542238804
          ]
        },
        {
          "bias": 0.013726755523995804,
          "weights": [
            0.2400996762629675,
            -0.08217557400492168,
            0.3078380253803771,
            0.11232715918683678,
            -0.2074386990150208,
            -0.06657105994226431,
            0.054342520291335454,
            0.3465901388570254,
            0.2798097225231232,
            0.09992869404600707,
            0.22817265266974815,
            -0.13982677127546608,
            0.3120105257592337,
            0.3644652779288721,
            0.05085755594682512,
            -0.09218993163848788,
            0.23890116759025984,
            0.24533646768025166,
            -0.185727069281594,
            0.3853800897643913,
            -0.2093323983057389,
            0.15517276262351498,
            0.29349648879998175,
            -0.16820176447352578
          ]
        },
        {
          "bias": -0.07607235912239325,
          "weights": [
            -0.2715640365113412,
            0.008591257810826775,
            -0.2187458783085263,
            0.29829005343465226,
            0.2625860792148793,
            -0.21621137178033684,
            0.025593111178195294,
            0.29718825118354947,
            0.0752824719593392,
            -0.4715351474875585,
            0.2048546686983394,
            0.21751759891567315,
            -0.08132938739729537,
            -0.0766047363616489,
            0.040659433222502366,
            -0.04403353553259646,
            0.06513815213927097,
            -0.20167016337688085,
            -0.05775577873811422,
            0.10881928863224617,
            -0.13219538885357593,
            -0.09089483150511266,
            -0.17038327860704094,
            0.31336614506155397
          ]
        },
        {
          "bias": -0.016395906499180678,
          "weights": [
            -0.004392544046362027,
            -0.15109011402484215,
            0.21428472151841332,
            0.01877092752014225,
            -0.043665528714986385,
            -0.03626012567090469,
            -0.0313721975695138,
            0.14260866601597494,
            0.09706139323131024,
            0.23354880426213778,
            0.018016560410751673,
            0.10528614943181598,
            -0.02573308287642048,
            -0.2768989793101126,
            0.07645022037265632,
            0.14592771414452363,
            0.0875372889261529,
            0.19029394711045336,
            -0.26998114755502,
            0.07240098609667006,
            0.2700590000468809,
            0.32420159680847216,
            0.03271998770581058,
            -0.1643094835948099
          ]
        },
        {
          "bias": 0.09429046153870901,
          "weights": [
            -0.12239954257950121,
            -0.029447637500593635,
            0.3016852156254846,
            -0.1732183831202292,
            -0.23166589695284204,
            -0.28897582434193114,
            -0.2515831106474202,
            0.07966128873914996,
            0.38749635847803066,
            -0.16246380870280416,
            -0.20725119237968384,
            -0.15759936493142482,
            -0.07900414823692836,
            0.30249253351562,
            -0.1605333853373515,
            0.050902849647628555,
            -0.05538905130177836,
            0.1197887191828254,
            0.12432258800275633,
            -0.1463201195457428,
            -0.2846006873928345,
            -0.2919397806647545,
            -0.11649892950783913,
            -0.3023536916970362
          ]
        },
        {
          "bias": -0.09731839490059317,
          "weights": [
            -0.1480485337019506,
            -0.15535721522933832,
            -0.43526446960927484,
            0.05152680276253708,
            0.431729447779583,
            0.17251500154458965,
            -0.14191466864700425,
            0.253869195098812,
            -0.18072128866229467,
            0.014969978163940892,
            0.15587544557177868,
            -0.34478511639288967,
            -0.019029747709052285,
            -0.1132398315968269,
            0.2934779898820962,
            0.0294513714026095,
            -0.22048814488249302,
            -0.39080066210858333,
            0.07491955722887356,
            0.13874440144062702,
            -0.03251831479626791,
            -0.17792689997471042,
            0.2856618210661766,
            -0.3747226175097976
          ]
        },
        {
          "bias": 0.04432700202276414,
          "weights": [
            0.07840425104968338,
            -0.087598145552429,
            -0.5110639660735666,
            0.33764688161180295,
            -0.11878532521290251,
            -0.09369524970732183,
            -0.06779245012495881,
            -0.3222442690994032,
            0.03056690968252427,
            -0.05092346685404968,
            -0.3857928201868951,
            0.26542823236154034,
            -0.23783068789480616,
            0.26572749850220806,
            -0.030056563463618808,
            0.25413444712153055,
            0.15627252055809807,
            0.30160746222077306,
            -0.2822749059690102,
            -0.32276494066843137,
            0.14037271848205457,
            -0.09647093244114914,
            0.1535014196106687,
            0.1850393074586454
          ]
        },
        {
          "bias": 0.048068126446156226,
          "weights": [
            0.2077377513974159,
            -0.2727807156048153,
            -0.14726006636593938,
            -0.2892668646004975,
            0.3466001355378704,
            -0.028071493051454174,
            -0.26443448602045155,
            -0.23623768739988937,
            -0.30738952214667237,
            0.4634919121289101,
            0.010787579728969723,
            0.3465383763142915,
            0.01073833197030505,
            -0.11325884760136302,
            0.12020692425100458,
            -0.024076169861821043,
            -0.07912348536646902,
            0.20904443427452207,
            0.23655689739136632,
            0.21072991179881537,
            0.22764924861778243,
            0.07104223919017855,
            0.12043540982496512,
            -0.2814890156449815
          ]
        }
      ]
    }
  ]
}