{
  "layers": [
    {
      "activation": "tanh",
      "num_neurons": 26,
      "neurons": [
        {
          "bias": -0.17876902930094637,
          "weights": [
            1.8609490126301935,
            -1.6752649043339487
          ]
        },
        {
          "bias": 0.1989151539500248,
          "weights": [
            -2.074495121459185,
            1.7799544818452049
          ]
        },
        {
          "bias": -0.19635713522199327,
          "weights": [
            0.43347098361815106,
            0.45937422483207185
          ]
        },
        {
          "bias": 1.2897238286954913,
          "weights": [
            -0.05267226936598273,
            -0.7064380553073172
          ]
        },
        {
          "bias": 1.4686081702147942,
          "weights": [
            -1.2777015064770658,
            -1.7020038736847083
          ]
        },
        {
          "bias": -1.160049341332676,
          "weights": [
            0.2988824875475834,
            0.23396940119258502
          ]
        },
        {
          "bias": -0.2431095654609329,
          "weights": [
            0.2795278525668421,
            0.6021934465743952
          ]
        },
        {
          "bias": 1.0945639258152964,
          "weights": [
            -1.0566554403719974,
            -1.1472094662999455
          ]
        },
        {
          "bias": 0.5719329715003736,
          "weights": [
            -1.1161883050253474,
            0.4212629860193073
          ]
        },
        {
          "bias": 0.12924121705274144,
          "weights": [
            0.5215200546456084,
            -0.15637529188921725
          ]
        },
        {
          "bias": 1.0105704198108019,
          "weights": [
            -0.9269881777598674,
            -0.8985293299959138
          ]
        },
        {
          "bias": -0.43423732078105864,
          "weights": [
            -0.9900103728354694,
            0.93168882904258
          ]
        },
        {
          "bias": 6.311689949244342,
          "weights": [
            -8.62453427808457,
            -4.063755792326192
          ]
        },
        {
          "bias": 0.8954239925379092,
          "weights": [
            -1.165480452295796,
            0.7422693832343457
          ]
        },
        {
          "bias": 0.32917145743758003,
          "weights": [
            -8.254966592586763,
            7.566696562884241
          ]
        },
        {
          "bias": -0.7244637115459844,
          "weights": [
            -0.10118339834942192,
            -0.6258598218241765
          ]
        },
        {
          "bias": -0.6640519052263013,
          "weights": [
            1.0345432254587625,
            -1.2062737207933272
          ]
        },
        {
          "bias": 0.5943433685088987,
          "weights": [
            -0.662880890357617,
            -0.05114892072940699
          ]
        },
        {
          "bias": -0.9920168142201056,
          "weights": [
            1.1860481346654705,
            0.6380309012707047
          ]
        },
        {
          "bias": 0.975868735199349,
          "weights": [
            -1.2425877716681726,
            -0.6799056992114213
          ]
        },
        {
          "bias": -0.3010906710440871,
          "weights": [
            1.2521394003264403,
            -0.65516137334361
          ]
        },
        {
          "bias": 1.4000554104256167,
          "weights": [
            -1.6678513561347146,
            -1.0880035478382388
          ]
        },
        {
          "bias": 0.6814163576109239,
          "weights": [
            1.119844788822609,
            -0.8674959381281439
          ]
        },
        {
          "bias": 1.4862250206388123,
          "weights": [
            -1.5413916945024722,
            -1.4071719380550698
          ]
        },
        {
          "bias": -0.20993108321931586,
          "weights": [
            -0.679964170687186,
            1.0543710937410267
          ]
        },
        {
          "bias": 5.942324272433273,
          "weights": [
            -3.1268869061105535,
            -8.714803956613027
          ]
        }
      ]
    },
    {
      "activation": "tanh",
      "num_neurons": 26,
      "neurons": [
        {
          "bias": 0.22127669684808202,
          "weights": [
            -2.4267865993662494,
            -1.1711906600661806,
            -0.5826973661853703,
            -0.07532427663183086,
            -5.4152870255415,
            0.6055892095368255,
            1.162380974839829,
            4.643024933604358,
            -2.0261043983418063,
            2.0373175729080604,
            0.6428232923799132,
            0.08333569822071699,
            0.00936123440068023,
            -1.0448967474077624,
            -0.04057115029630201,
            0.5475641238647637,
            1.8458865006138518,
            -1.1040079817445971,
            0.345985185857082,
            0.9347314025770799,
            -2.4570425430061014,
            4.661802252904083,
            3.2859487074235814,
            -3.9925505068915474,
            -2.6239360209364655,
            -0.10847897344807465
          ]
        },
        {
          "bias": 1.319379950187213,
          "weights": [
            0.4353123603374521,
            0.002432838280022641,
            -0.8859218855865816,
            -1.7176154948852767,
            -1.559322905504356,
            -0.6990638675020264,
            1.2624153680327745,
            -0.9462099293938563,
            -0.4129119627943375,
            -0.7026105940545277,
            0.36510300561664677,
            1.1777214046820392,
            1.3781413079652882,
            -0.167199958022006,
            0.14610061907149052,
            0.9520746657548917,
            -0.7676400164576794,
            -0.2881860725831429,
            -1.2546374439896848,
            -1.7068932330139208,
            0.040932788831334936,
            2.8208475771915387,
            0.5825478183655396,
            0.8120940412958193,
            2.3017919106615974,
            -1.480483347121531
          ]
        },
        {
          "bias": -0.027533855633396713,
          "weights": [
            -0.9652724958926535,
            0.12517180190125468,
            0.44898573886286,
            -1.1841821562457029,
            0.24092728521897566,
            0.08514059635980051,
            1.524391300673832,
            -0.5873196794375986,
            0.19009839351281002,
            -0.7028528349184273,
            -0.09535302237928925,
            -0.7994727209580957,
            -0.013152458460756163,
            -0.16338050112237362,
            0.0014014584772225269,
            -0.7898995119053233,
            -0.5377020561025329,
            0.8751334232344136,
            -0.553530928285855,
            -1.2231209051881011,
            0.8956865165577231,
            2.718820118250497,
            -1.239641722613186,
            -0.5315092004973889,
            -2.5937375273588508,
            0.03912289043024831
          ]
        },
        {
          "bias": -0.9689006095780516,
          "weights": [
            1.04907435305824,
            1.0783330830848887,
            -0.9281592289657601,
            1.0067645908326095,
            2.4601394497121487,
            -0.830501693088389,
            -0.7746008004299627,
            -1.0275528337161581,
            0.02159720119188013,
            0.4198922868193192,
            1.7770708052308861,
            -0.2882855454870419,
            -1.4980790218032167,
            -0.603040323089644,
            -0.1283546378190947,
            0.3084416778808297,
            -0.10229859009201751,
            -0.270654349871308,
            -0.13403495308484026,
            -0.4017205454283075,
            0.19413937692797434,
            -2.3302864919685,
            0.7115954823983324,
            -1.4831092880189765,
            -1.0366247002874176,
            1.5957997646926476
          ]
        },
        {
          "bias": -1.06529597990097,
          "weights": [
            0.8072649796836132,
            -1.0108369175752323,
            -0.7598011092018159,
            0.3290572512544673,
            0.9072765474079466,
            -0.01911374020818771,
            -0.10961440010976836,
            0.5686637616151703,
            -1.5496023119827786,
            0.8147463781408386,
            -0.18718855792959355,
            -0.3835985478945912,
            0.12718253744677022,
            1.7649634532330447,
            -1.1783467587748346,
            -1.5052057600185533,
            0.40586597795443835,
            -0.3420196003764804,
            0.6121731579295189,
            0.27674034451175095,
            -0.2990604380920237,
            0.6241613982883932,
            -1.2851899075465265,
            -3.8123834460695996,
            0.6453810586580526,
            -1.6965408818855432
          ]
        },
        {
          "bias": -0.7769206338197459,
          "weights": [
            -0.7307009151816067,
            -1.2419291969365187,
            -0.8252507649574883,
            1.5105318854820873,
            2.0313222772741986,
            0.3212991562237501,
            -0.25507955184371256,
            -2.090675314540507,
            0.9951058371862922,
            -0.7763907713560447,
            -2.234875012398339,
            1.4741153143690728,
            -0.011460409616162638,
            0.6867654409509681,
            -0.059496855227140974,
            -0.979204733909867,
            0.2785404538444238,
            -0.6730116112549583,
            -1.035772898643823,
            -0.9684052309696554,
            -0.06258839746441755,
            2.435364834628007,
            -0.13308638959600239,
            -1.5356470994714697,
            -2.73977733204933,
            0.020660237425447408
          ]
        },
        {
          "bias": -0.3584569755062924,
          "weights": [
            0.08992888356896782,
            -1.1265352362317715,
            0.6974320502533157,
            -1.0011746859404635,
            0.5329112418002393,
            -0.9272307390181004,
            0.812045220370287,
            3.2371565949583943,
            0.5117503093614724,
            -1.641836375586948,
            0.2817657898671024,
            -0.0075020384404717476,
            -0.09761163022288435,
            -0.350078275150267,
            -0.12628855827400487,
            -0.9373841068136624,
            0.435672922341508,
            -0.5819759600648984,
            -0.1017066838454888,
            1.5276589910796687,
            0.4191597963815413,
            -1.3235776791011156,
            0.8273058630217291,
            -2.4389893570884995,
            0.5138599048185479,
            0.08841231140643652
          ]
        },
        {
          "bias": -0.8596309502803782,
          "weights": [
            -0.2571752586028289,
            1.5931791025669748,
            -0.03787429722452282,
            1.9554409973623645,
            -0.5808663888752933,
            -1.2939257306970497,
            -1.9998021351527628,
            1.1165588200939582,
            1.886610530756932,
            1.3642852419000622,
            1.3322200650698808,
            0.9104790068734331,
            -1.5439121478717472,
            0.25135703213672084,
            1.0788541632731485,
            1.8456632309552676,
            -0.30399187673003286,
            0.5578281774367558,
            0.4768554281425992,
            -0.696066117260736,
            0.8840443789689768,
            0.3595689037267238,
            -0.8145057210455875,
            -4.966927820367812,
            -0.5030582249473943,
            0.1808020153937787
          ]
        },
        {
          "bias": 2.283525210428831,
          "weights": [
            -0.391118645857821,
            0.7447933537150196,
            -0.5179462530140665,
            1.833440666408337,
            -0.45958130839338507,
            -0.29965526700921424,
            0.397548195724454,
            2.047878608380451,
            -1.4839886226614976,
            1.414312069511031,
            1.7789629531131577,
            -0.5720611907691551,
            -0.02255370603155819,
            -3.158700236985037,
            -0.6080290028295937,
            -1.1195864744469235,
            -1.3469679464620423,
            -1.1474467919128393,
            -1.2323492659793676,
            1.9792863467273578,
            4.934081031440568,
            -2.769768981537745,
            -0.5219743501054885,
            2.0743172594079713,
            5.269607814825381,
            -0.415131591878479
          ]
        },
        {
          "bias": -1.8145125122706935,
          "weights": [
            1.6603508967186875,
            4.088042270461484,
            0.3427637173542487,
            -0.7459373163775573,
            -3.0877364127496323,
            0.5805655005146709,
            0.36580826361046503,
            1.4430542933453503,
            -2.227126259508443,
            -1.7048497182267355,
            0.8563237189421556,
            -1.7266438050722395,
            -0.016175497364895097,
            -1.0193007205203575,
            0.20700406263020715,
            -0.3214482818773242,
            -0.8226711428103004,
            0.8780534979721942,
            -1.3085687853651664,
            1.910999434357716,
            5.830566391980856,
            0.5503263032981385,
            0.4041158131503118,
            1.2684636225411992,
            1.7976277467576416,
            -0.024669274659829543
          ]
        },
        {
          "bias": -0.984385066152732,
          "weights": [
            -0.34727184015431917,
            -1.181480566821665,
            -0.189068724234884,
            1.276686489455461,
            0.03780189683165291,
            -1.47010451580744,
            0.211993424822866,
            4.218157365864727,
            -1.0263838960646319,
            3.238104302226964,
            1.780157501879986,
            0.05557480530733017,
            -0.004966395667437695,
            0.4194903824204155,
            0.005888018134716441,
            1.6876205072415167,
            0.3480458541635283,
            -2.7204193823261615,
            0.5390501252974204,
            -0.48845367030709996,
            -3.60474362069492,
            -1.8370811170959445,
            0.4226696356208023,
            -1.926594790098982,
            2.0660676114518606,
            -0.01868519279425566
          ]
        },
        {
          "bias": -0.6858858955893679,
          "weights": [
            -1.197522764642106,
            0.47861171929909363,
            0.39449620929281737,
            0.44325627712768106,
            -0.15786968903428564,
            -0.013895152617727436,
            -0.06364555062230379,
            -1.471704243904284,
            0.13372175379453635,
            -1.7899672682553665,
            1.4347889276388723,
            -0.6217371538803709,
            -1.6240081622443059,
            0.2943172827791648,
            1.1281682877795498,
            -0.1909243259432626,
            1.0228445373559627,
            1.515810471307048,
            -1.265476683986739,
            1.0853763968766044,
            -2.0560790116226135,
            -2.002184751618176,
            0.40796471889005104,
            -3.1108435221651187,
            -1.3145632130942224,
            0.20577320115319622
          ]
        },
        {
          "bias": -0.3443858122374028,
          "weights": [
            -1.3067668764746128,
            -1.7552971114476275,
            0.47293107822551084,
            1.1280031548532894,
            -0.4568850018675685,
            -0.7543836934673329,
            -0.259123694819363,
            1.6884558768908375,
            0.44555868823675027,
            -0.4903944670370639,
            0.08060304215937181,
            0.3752017014087119,
            0.01313489475879672,
            -0.11181266405604326,
            0.006773650565860897,
            1.4209531835123197,
            0.21510323197934994,
            0.3552189015420889,
            0.1686518188243937,
            -2.9008991830452957,
            -0.7038241282528473,
            -1.2526093930806435,
            0.6943029155324946,
            0.800306611919396,
            1.1755293376166063,
            -0.0297698964656293
          ]
        },
        {
          "bias": 1.3840795327364983,
          "weights": [
            2.2279808839121236,
            1.9832044476093647,
            0.9374154281206492,
            -2.6358448571263744,
            -2.2487040803161853,
            1.4727151887760837,
            1.3287065194674292,
            2.10406888187325,
            -0.35532417581057335,
            1.5242586956902386,
            0.1273562557839464,
            -1.491382943767272,
            -0.04607368680547724,
            -1.8449844408968654,
            0.07744394918923835,
            -0.663937785780146,
            -0.47011658690378416,
            -0.6147134843710319,
            1.4333246381166547,
            2.779815672978114,
            -3.6625326664719444,
            -0.11624755637790261,
            0.9675344809237703,
            0.7459366921027466,
            1.061555294889992,
            -0.0042575139676391295
          ]
        },
        {
          "bias": 2.576959869066025,
          "weights": [
            3.0847822996932424,
            2.9243648601493955,
            -0.9408352014409919,
            -0.8971676403896163,
            2.2724982315734557,
            -1.2732447913561948,
            -0.17371461835623792,
            1.6293002704844897,
            -1.7319116068536848,
            0.4809974836291958,
            -1.0892157909573292,
            1.0832664723765153,
            0.07486455157373159,
            0.009425840384057855,
            0.03246270104675139,
            1.8061571378828514,
            0.33208705651468295,
            0.18366435766015943,
            -0.9487380552405541,
            0.3814132353769764,
            0.7037654870539068,
            2.3529031734884613,
            0.9967678119532395,
            -5.591128004874089,
            2.1512865907373575,
            -0.03474928290300789
          ]
        },
        {
          "bias": -2.2675623079445106,
          "weights": [
            1.3008156548637815,
            0.7760039877852694,
            0.1394568682046996,
            0.6562150026917389,
            -3.214326073531529,
            0.13481812286296294,
            -0.21277043882804245,
            -3.1018486794186417,
            -1.8496941533856361,
            -2.405098333394616,
            0.12786039558570994,
            0.8510177829680661,
            -0.41216792701758037,
            -1.873305746329678,
            -0.5956361256151265,
            -1.6937729874960858,
            2.1926090656557813,
            2.432351561227329,
            0.06720697864221471,
            -0.035391580807552336,
            -0.7104503032339319,
            1.8549336867864281,
            -3.0509336832736773,
            0.09215197513461254,
            -0.3474520958583268,
            -0.030177000326909304
          ]
        },
        {
          "bias": 1.1530210033179904,
          "weights": [
            1.318113119738615,
            0.4310857121016817,
            -1.0705134640313445,
            -0.4189254339958507,
            -1.4720110666285053,
            0.4153245999385059,
            1.437176831048126,
            5.414036893368614,
            -0.3960342249645272,
            -0.4705465553103154,
            1.0927107804362284,
            0.04974182115525684,
            -0.03616974039524495,
            -0.4091845318753685,
            0.024880178787106154,
            1.7322917325883278,
            0.29680908833784936,
            -0.36635785430995654,
            -0.8576924538608964,
            0.08320420867011967,
            0.8174743852432295,
            -2.3515182904166694,
            1.370197817272451,
            -0.8422760102865516,
            4.530476273688883,
            0.001649016794271837
          ]
        },
        {
          "bias": -0.4325797192849194,
          "weights": [
            -0.27596867655750856,
            -1.742055246459998,
            -0.07842898291081221,
            -0.1463627654030448,
            -1.1895263523243405,
            -0.492679378905754,
            -0.13811382462639654,
            -1.2178658173997574,
            0.5801925797985095,
            -0.5976041288870567,
            -0.31155396500783816,
            0.1644265440786271,
            0.08707961734179773,
            -0.43619989860124975,
            -1.091953359017283,
            -0.1372654730517331,
            -0.30306433636240615,
            0.7983812648356662,
            -0.8104664805083863,
            0.24352952609066464,
            1.1868385493169291,
            -1.9477302657425393,
            0.09262842009646433,
            0.8391832711467322,
            0.020544811249511893,
            -1.547721585138923
          ]
        },
        {
          "bias": 0.6056989956338349,
          "weights": [
            0.3283869933565835,
            0.30774822411296515,
            -0.025611987630200568,
            -0.5013648998566924,
            -1.5621660301570595,
            -0.39842280672410346,
            0.9675111027914205,
            1.6561789995472787,
            -0.44590156282570087,
            -0.5600025486389066,
            1.0153552644812276,
            -1.3042079205989083,
            -0.011963526179055021,
            0.19132302212394842,
            -0.0117807245428035,
            0.9819862815680167,
            0.4059673523732787,
            -0.9702948015642652,
            -1.496941710947293,
            3.22069263744614,
            2.7466578089452276,
            -1.9973756181793312,
            0.008698251956631339,
            -0.9008046017261816,
            2.5635225384636158,
            -0.006547831826280991
          ]
        },
        {
          "bias": -0.9228631725374677,
          "weights": [
            -0.03168578172353585,
            -2.742549051963003,
            1.0705902574713138,
            1.365427854053866,
            1.9600666597149108,
            0.7765284744450216,
            -0.6355021240103074,
            1.723495615168427,
            -0.0816821292314552,
            0.06663379343869077,
            1.4158898895562246,
            2.423122681275593,
            0.0045474306721612155,
            1.461746650778088,
            -0.07908499746197267,
            0.08891550132323055,
            0.25318540526186134,
            0.8851289494673356,
            0.8468453811409061,
            0.5856219427921192,
            -1.821859945019151,
            -4.044040575917221,
            0.9213083373523907,
            0.14419260283125312,
            2.611608201600106,
            0.0011011012300713983
          ]
        },
        {
          "bias": 0.14020025042069495,
          "weights": [
            0.7892602805419667,
            -1.0468216270519681,
            -0.3588555353958187,
            -0.36605971767562606,
            -1.0087205751639199,
            -1.2218789104711822,
            -0.6671196139595285,
            -0.7353732036879538,
            -1.3507194469448092,
            0.9097688042526776,
            1.6320101959205968,
            0.7333127907948566,
            -0.15687848718826466,
            -0.47009999657986246,
            -0.15438888798197767,
            1.5950644487282126,
            0.06565872387698148,
            1.6540672057260128,
            -1.3029915851012235,
            -1.4226051299630265,
            -0.9861359999924848,
            -2.097377461666788,
            1.6132215873432432,
            2.281463433958289,
            1.5897388377508028,
            0.1589120804776383
          ]
        },
        {
          "bias": -0.19735015320868754,
          "weights": [
            -1.681499983920604,
            -2.622734146548694,
            -0.09306643020176492,
            -1.6771638944017893,
            0.993483233296748,
            -0.45359244057631487,
            2.5510180222918386,
            -1.1915639424972988,
            0.23440854066680117,
            -0.16443965422400336,
            -0.2098816540133882,
            0.16081280311829876,
            1.4333941575974223,
            -0.6908176189750446,
            -1.0066555702479496,
            -0.9847129192587988,
            -1.1373752336694296,
            -0.5090190792750393,
            0.568972784440486,
            -0.705586671423054,
            2.865751652083111,
            3.3188253154616465,
            -0.5814164874022758,
            2.08153467225871,
            -1.189128337128209,
            -0.13419840747868145
          ]
        },
        {
          "bias": 0.9658523707209943,
          "weights": [
            -0.8518368749808932,
            -0.4767422726105621,
            0.7006507665348347,
            -1.0673042199118334,
            -0.49899083450099174,
            0.08269342765772573,
            1.4527371082134626,
            -1.4774904677579737,
            -0.8491734198391065,
            -1.499419759982086,
            0.03153168187386274,
            -1.5529137416783683,
            0.007005762091594777,
            0.1607192887802923,
            0.001317475695981633,
            0.34775523052100754,
            0.35844950960328725,
            -0.8253945814183966,
            -1.5693353875942881,
            2.1425545217696627,
            2.0501476102194833,
            0.325954496135073,
            -0.0680333225993804,
            -0.21550626350661362,
            1.7188405352149518,
            0.0013545211409358084
          ]
        },
        {
          "bias": -1.531074527104725,
          "weights": [
            0.92258089651754,
            0.2542418724983002,
            -0.42008808619248605,
            0.44768969058568564,
            -1.435816277274577,
            -0.20153705220182208,
            -0.6873395034627346,
            2.484541758384306,
            -0.5081148445330825,
            -0.6398530789309768,
            3.5789399287887482,
            -0.1827724020432313,
            0.00571689938781743,
            -1.1646302550952867,
            -0.014352426715701503,
            -0.13184751319819915,
            -1.700877600514047,
            -1.0755593492551372,
            -1.9067853040020841,
            0.48441178787914024,
            3.066526110201417,
            -1.4741455907504397,
            -1.407632469111734,
            -1.6652988443117938,
            2.111632171934968,
            -0.017462136798975743
          ]
        },
        {
          "bias": -0.31405175635166627,
          "weights": [
            0.4691897037274998,
            1.387321903969105,
            0.9716377067621534,
            -1.4597215541758544,
            0.18591527311200756,
            0.3576026608729485,
            0.1639517279350803,
            -4.7552692692013325,
            -0.4005295461261233,
            -1.317775988010734,
            -1.0363657840726677,
            -0.5378518509591084,
            0.035422078995218556,
            1.6938256836389707,
            0.022459342696857447,
            -2.181690974635874,
            0.31680031536668113,
            0.45510018401741203,
            1.092822124484831,
            -1.275625099098934,
            -0.2099777396886338,
            3.2683838912251417,
            -1.6209733641595903,
            2.072396677638116,
            -4.674852802365973,
            0.006760650755579202
          ]
        },
        {
          "bias": 0.3534056199664923,
          "weights": [
            1.3727168067579658,
            0.8454766794031988,
            1.394699771309408,
            1.5301772871658192,
            1.7977221454747372,
            -1.6498689469812693,
            -2.19708579690373,
            -1.4736596147640793,
            0.8530564028426626,
            -1.16614018572552,
            1.8860723177015335,
            -1.5690674885327458,
            -0.010022186342374919,
            -0.19994953519396214,
            -0.020230756491097235,
            2.4363710998627304,
            -0.23634474791916146,
            -1.9119159182971994,
            -0.8252463484615312,
            1.550569553884791,
            3.617746060034422,
            1.8530702725854546,
            -0.6487794443838553,
            -4.715015796940309,
            5.356619408488791,
            -0.007906730965610407
          ]
        }
      ]
    },
    {
      "activation": "None",
      "num_neurons": 11,
      "neurons": [
        {
          "bias": -0.21919946531318338,
          "weights": [
            -0.07338724176302086,
            1.4899391698530469,
            0.6173235686925446,
            1.3913880454259997,
            -0.8334426463167234,
            -0.9551252735452117,
            0.38398408122145866,
            1.1403686370585813,
            0.36800222148227857,
            -0.1724133353657603,
            -0.11425913615861058,
            -0.26314121543376046,
            0.4604349267348924,
            -0.24990465820355157,
            0.7740811038889683,
            1.1793853450041663,
            -1.0875656052595724,
            0.8725270548620481,
            0.07305509246010418,
            0.13255910380520022,
            0.01167048029255607,
            0.8931494771838958,
            -0.5350976201042023,
            0.5033885185844844,
            0.09991072158730946,
            0.47275617411835374
          ]
        },
        {
          "bias": 1.1579656140033014,
          "weights": [
            -1.5904385176115368,
            1.6016419777482105,
            -0.2614716922065791,
            1.170091596319758,
            -0.030294831817108247,
            2.1536107085003433,
            -2.2314421637216553,
            1.7992472470343095,
            4.383935500631918,
            3.681496097552476,
            4.653596397457265,
            -1.4095353943245748,
            -1.2876016478369632,
            2.2789831770771825,
            -0.6263524241712652,
            1.3823062530987704,
            -3.256783441833895,
            0.04217649094774375,
            4.535896964793936,
            1.72606660999326,
            2.1849319809012075,
            0.12759167325469956,
            -1.3493063164498504,
            2.5554879100118866,
            3.081750249806153,
            2.468788656833779
          ]
        },
        {
          "bias": 2.392961987812279,
          "weights": [
            0.7224623202234463,
            1.3830500943127257,
            -0.9505370621654791,
            1.067769699786027,
            0.3804231526992425,
            2.7258185639043013,
            -1.6665546965665579,
            -3.111014622545922,
            2.6987059675551457,
            1.7786417213371783,
            0.6895607390487192,
            2.41993609736366,
            -0.02000309170812983,
            2.0282726766406673,
            1.0143195692731533,
            5.019352290850838,
            -3.066347763585346,
            -0.6431655399080588,
            -2.118200413568739,
            0.9682790192290986,
            1.4229057800294473,
            -0.5078850786722103,
            6.586125532215041,
            0.332989019702708,
            -4.582677256526872,
            -3.8202091148520365
          ]
        },
        {
          "bias": 1.816773207748478,
          "weights": [
            -0.1646312379678135,
            -0.13589174449467314,
            -0.04496878468216437,
            -0.15809783656821363,
            -0.0013689625565679214,
            1.351237735536215,
            -2.1610062170037,
            0.3822737019320143,
            1.9257346169563856,
            0.8209507719461242,
            -3.6451894997818113,
            -0.2408601362322072,
            2.736629895043799,
            0.01113120951865874,
            -0.6290956147879955,
            1.9092571512353091,
            -0.6776659996327216,
            0.018076936257667747,
            0.16878226475471383,
            -0.5131721742269109,
            1.133157913978686,
            0.14793208722905388,
            -0.9497473883112164,
            0.8298442958476232,
            -2.1896995450118433,
            0.04540236391466427
          ]
        },
        {
          "bias": -1.672108540675246,
          "weights": [
            0.7457324305156864,
            -0.3456544547012035,
            -0.24725215280886803,
            -0.3511401503080397,
            0.38608060867027294,
            2.459709522582486,
            -0.2105356533637431,
            3.0816686226571823,
            1.3276859413153816,
            1.73282196308372,
            0.9362919662563622,
            -2.3184804163380757,
            -0.010609028236104748,
            0.7500017126155674,
            0.0888207789740497,
            -2.2192082123531622,
            0.5975564359656853,
            -0.4105696638411429,
            -4.032083828949202,
            -0.43897883619040673,
            0.2481403322391959,
            0.7472665711084232,
            4.511680537829111,
            0.1450798309068672,
            -2.115459823821276,
            -0.7248689029914547
          ]
        },
        {
          "bias": -7.094790056064801,
          "weights": [
            0.246820720499596,
            6.834595249239101,
            -2.2094999282073364,
            6.383152679589899,
            -3.533089136626262,
            -2.1778807453453024,
            2.8137942323994296,
            -0.37525649220446383,
            1.3426847557716461,
            -0.7572884726571578,
            0.9807476669095521,
            2.5247042383226908,
            -2.108207893893472,
            -0.329688008149643,
            4.147069904191494,
            3.031813346409388,
            -5.447988965787117,
            3.693471038140579,
            -3.9449650754955083,
            0.10156708993969765,
            -0.8513760679746476,
            2.2872374011875416,
            -0.0819348851383921,
            -0.21592873203925964,
            0.07494041072313477,
            5.670032682877305
          ]
        },
        {
          "bias": -0.5848111829026608,
          "weights": [
            0.5513334727208937,
            0.18510025225635818,
            1.6983791755675257,
            0.16537983577146234,
            -0.25056555279552206,
            0.5374770020000783,
            0.6778691466257369,
            -3.3825874266232425,
            1.428146604516369,
            0.3766224546350794,
            0.3426774813544553,
            2.2393515318516095,
            1.754947204339906,
            -0.42667555181814415,
            1.6982372402684696,
            2.947151808782994,
            2.0024249787982873,
            0.27808974038624823,
            -2.0114733425126885,
            -0.36081343163665963,
            -0.3685002137645239,
            -1.1206359936219714,
            0.21244360192994616,
            -2.2389911788221437,
            0.48361476082967225,
            1.4169444158194462
          ]
        },
        {
          "bias": 1.6682108070758508,
          "weights": [
            0.3808074608429241,
            -0.20195845708205215,
            0.977102041768729,
            -0.1691807287102274,
            -0.1732093807200169,
            -0.028997040853331282,
            1.9084287463202418,
            -0.15965019026049182,
            1.889503954382088,
            -1.5013244668985857,
            0.6808563379213174,
            0.22358923914300532,
            0.8558369404981669,
            0.13806239910944526,
            -0.31838798636987103,
            2.5268700459662092,
            -1.141973340384011,
            0.18076247308769405,
            -2.0691437654416323,
            -0.186496111119086,
            -1.4866026877273382,
            0.09056199257390403,
            0.7897774322191045,
            3.5965457434413017,
            -0.2583686938681744,
            0.683034941963105
          ]
        },
        {
          "bias": 0.02205848864571015,
          "weights": [
            0.13672172614485145,
            -0.043317420517890795,
            0.08410907748715674,
            -0.008312619647349449,
            0.03204329514744473,
            -0.05755476776983786,
            0.10628411884297279,
            -0.06284857283012901,
            0.002990020789259842,
            -0.049291780636379186,
            -0.36316927036637836,
            0.09252650084882201,
            0.38082131643086853,
            -0.19455809702588175,
            -0.03726954046988761,
            -0.056485655245378706,
            0.16539958601616273,
            -0.04055975928913157,
            -0.525883325702773,
            -0.05227963241442487,
            -0.12921499903766515,
            0.07609723125080886,
            0.0936637174323598,
            -0.04235978862127789,
            -0.1919580542768648,
            -0.22179813323289282
          ]
        },
        {
          "bias": 0.49568370355035796,
          "weights": [
            0.08771405887577335,
            0.3452901057287183,
            -0.1762336053176313,
            0.28138036563500324,
            -0.10768490612534777,
            0.14985475985332472,
            -0.1730426271751604,
            -0.5838613738852615,
            0.06790857502335809,
            0.016726922053325228,
            0.008050986074515976,
            0.4986277872555225,
            -0.07186175996159794,
            0.018239520976689662,
            0.12831586045235763,
            0.8715194820243037,
            -0.18891221440094305,
            0.07293613814876303,
            -0.3796530416617573,
            -0.07755403193840772,
            0.17949516640457186,
            -0.06542511869823717,
            0.3313301257219304,
            -0.10786872194154722,
            -0.21125604799696454,
            -0.032037069201163275
          ]
        },
        {
          "bias": 0.8887325793549576,
          "weights": [
            0.0585182348293548,
            -2.178287660283961,
            -0.39849482310682016,
            -2.036353417030201,
            1.1844353831831418,
            1.195888093019354,
            -0.6638578467625793,
            -1.1352977673749791,
            -0.49400471509371646,
            0.25200097999060395,
            0.01689407895777704,
            0.034249455522826,
            -0.24293337701536538,
            0.27710491707604573,
            -1.176593918262814,
            -1.4877481995833242,
            1.6673727882757967,
            -1.2420397030608008,
            0.271852069872201,
            -0.1610762923401541,
            0.07390716431867152,
            -1.130607916386001,
            0.5591576277855619,
            -0.5199452253152719,
            -0.10701383561179495,
            -1.0185540369918027
          ]
        }
      ]
    }
  ]
}