{
  "layers": [
    {
      "activation": "tanh",
      "num_neurons": 24,
      "neurons": [
        {
          "bias": 0.13995088378349432,
          "weights": [
            -0.24331087954625388,
            -0.3957578543165482
          ]
        },
        {
          "bias": -0.06482173609057383,
          "weights": [
            -0.355029402248309,
            -0.0690810063790611
          ]
        },
        {
          "bias": -0.41365390579860783,
          "weights": [
            0.14903970446592552,
            0.29188232364157385
          ]
        },
        {
          "bias": -0.10148007117388733,
          "weights": [
            0.2877782266398582,
            0.32233265543949063
          ]
        },
        {
          "bias": -0.3815026266234071,
          "weights": [
            -0.33958032676054417,
            -0.07160464181469649
          ]
        },
        {
          "bias": -0.5249594526898126,
          "weights": [
            -0.4704145313824352,
            -0.018628584019406667
          ]
        },
        {
          "bias": -0.0633982966918422,
          "weights": [
            -0.4421427820224626,
            -0.2213825928352276
          ]
        },
        {
          "bias": -0.44547095723629426,
          "weights": [
            -0.26435708718595563,
            -0.23281598626304287
          ]
        },
        {
          "bias": 0.12947699297201468,
          "weights": [
            -0.20011694211457104,
            -0.37893482457790223
          ]
        },
        {
          "bias": -0.2811506729083134,
          "weights": [
            -0.40633527919673196,
            -0.0029522418100873062
          ]
        },
        {
          "bias": -0.20176796999000934,
          "weights": [
            -0.37483845567022533,
            -0.03625684980485311
          ]
        },
        {
          "bias": -0.19226521993901952,
          "weights": [
            0.30056940228228946,
            0.25335950567355914
          ]
        },
        {
          "bias": -0.30821536277740325,
          "weights": [
            -0.3965915192852939,
            -0.0799379271898761
          ]
        },
        {
          "bias": -0.08825210302339132,
          "weights": [
            0.3154955088455613,
            0.17242079443168845
          ]
        },
        {
          "bias": -1.355330571616663,
          "weights": [
            -0.4486015652835829,
            0.04877491615851054
          ]
        },
        {
          "bias": -0.2281423764524901,
          "weights": [
            0.1366810699832223,
            0.28247148295036734
          ]
        },
        {
          "bias": 0.3480148063999012,
          "weights": [
            0.5183049273375753,
            0.14338046616542474
          ]
        },
        {
          "bias": 0.19106579598942816,
          "weights": [
            -0.28589031995186764,
            -0.328812506809022
          ]
        },
        {
          "bias": -0.20892309856899666,
          "weights": [
            0.13925375010741298,
            0.28528347503766327
          ]
        },
        {
          "bias": -0.4872834420458478,
          "weights": [
            -0.12696515276939135,
            -0.2740711076565668
          ]
        },
        {
          "bias": 0.16772345403258399,
          "weights": [
            0.43145503829895543,
            0.27908680721618506
          ]
        },
        {
          "bias": -0.05428904933939136,
          "weights": [
            -0.3446144443204324,
            -0.2830575138126701
          ]
        },
        {
          "bias": 0.1405474228933131,
          "weights": [
            -0.17197327902899961,
            -0.3315829010096929
          ]
        },
        {
          "bias": 0.15443114701663196,
          "weights": [
            -0.2940940971650999,
            -0.20443155659774714
          ]
        }
      ]
    },
    {
      "activation": "tanh",
      "num_neurons": 24,
      "neurons": [
        {
          "bias": -0.30684645691908297,
          "weights": [
            -0.4679622154879225,
            0.1110361272712631,
            0.13812045913846108,
            0.10110447068322585,
            0.29747940271616136,
            -0.014110755990585845,
            -0.24442211651623286,
            0.4223466724543,
            -0.08151089006259107,
            0.24560159853392932,
            -0.052780662560988116,
            -0.26933433538926377,
            -0.037227866562249676,
            0.29636998934692926,
            -0.21959102056305296,
            0.17532540979442107,
            -0.4656989722588172,
            0.0332154062860027,
            -0.2093017040402101,
            0.11741944583610875,
            -0.14298243276519446,
            -0.034579866425366874,
            0.30546247287530387,
            -0.03526680047967813
          ]
        },
        {
          "bias": -0.01368287513803695,
          "weights": [
            -0.2117359797693798,
            -0.026185319492753805,
            -0.3568844154842352,
            -0.34167896208691173,
            0.26707719897825916,
            0.40197405164439737,
            -0.07842018254506639,
            0.19042839047285995,
            -0.12530901248347381,
            -0.4329379811508062,
            0.08473279102924594,
            0.10364492303288542,
            -0.06313664760079271,
            0.10330700417020383,
            0.18369390459042373,
            -0.06285385555035018,
            -0.27177610739895885,
            0.07223170952940086,
            0.28870885737237756,
            0.19223456040237943,
            -0.04281017292083991,
            -0.14622731771814135,
            0.01329019216787725,
            -0.11077046465976938
          ]
        },
        {
          "bias": 0.1858366378237478,
          "weights": [
            -0.23398799741535414,
            0.14103624582545907,
            -0.4075567792865338,
            -0.5709221771976213,
            -0.19473505934810093,
            -0.16825147207736962,
            0.15253327663884775,
            -0.07819660745548628,
            -0.4690816532481193,
            0.0246916088697636,
            -0.10076403142767247,
            -0.2198613382582415,
            -0.25132031670175925,
            0.7841367232140739,
            0.40923914951008145,
            -0.2508140633881324,
            0.39151849867859106,
            0.5130691563339549,
            -0.01404325248125457,
            -0.15638732886262247,
            -0.331331558791745,
            -0.1455326264485286,
            -0.13503253529656953,
            -0.5520000050276108
          ]
        },
        {
          "bias": -0.03356582627459974,
          "weights": [
            -0.3439649731579767,
            -0.3157972031637333,
            0.0468587992431003,
            -0.2803839584867137,
            -0.41018998492712666,
            -0.020602172186499457,
            0.561183371526133,
            -0.1780827837651705,
            -0.22504840468341109,
            0.3591593103886549,
            0.01148566265063869,
            -0.06184364392287351,
            -0.18442081173990282,
            -0.33064702284812275,
            0.7900818205267481,
            -0.22444234073434788,
            -0.056543332154668405,
            -0.07997100184079367,
            -0.40882935460529096,
            -0.20080932407946128,
            0.3420232307415822,
            0.1583692907400429,
            -0.19362903647457047,
            -0.06633947947430856
          ]
        },
        {
          "bias": 0.04739885130916619,
          "weights": [
            0.12270512065813485,
            -0.4787275609560272,
            0.40800819853303016,
            0.2858072442111582,
            -0.11786274626966106,
            -0.30372931281849064,
            0.2385974587949795,
            0.032652348383355484,
            0.06248534550456544,
            -0.05375873189338293,
            0.31478590069919066,
            0.3004814954002356,
            -0.11791633880459948,
            -0.3551441199412506,
            -0.02039788875092661,
            -0.0578932630512767,
            0.037405461927133336,
            0.06197675610411371,
            -0.18948825354786836,
            0.2893369923539954,
            -0.05490796926548266,
            -0.2571183909369626,
            -0.05066619543046513,
            0.09053659456424602
          ]
        },
        {
          "bias": 0.10446530970612726,
          "weights": [
            0.18657504733743244,
            -0.13554962784398122,
            0.1633540842834876,
            0.4638415952075042,
            -0.1911428261187137,
            -0.014869831276500422,
            -0.03573900113183115,
            -0.27644219680418375,
            0.41284082052228577,
            0.3253987149240445,
            -0.23988746738557903,
            -0.006412746747731088,
            0.0953862814776881,
            -0.044205506443500645,
            -0.10776400849290149,
            -0.48781031166558486,
            0.6902664665974146,
            0.07571349816909961,
            -0.5112433548474291,
            -0.42645650659350365,
            0.24684283717664063,
            -0.5104740876101765,
            0.21166296854665467,
            0.12180651192416128
          ]
        },
        {
          "bias": -0.11088469005513203,
          "weights": [
            0.08375576714875399,
            -0.08590717970635892,
            0.28637191155405334,
            -0.05198847206861935,
            0.4419877820745901,
            -0.17721586605781917,
            -0.11493116991004977,
            0.05947621600392125,
            -0.2299954586890806,
            -0.08239827348131804,
            0.043632188554883364,
            -0.27654240540605957,
            -0.1794876726613499,
            -0.441688340755907,
            -0.5132363379980158,
            0.42750647383655715,
            -0.1039887841108841,
            -0.1829106620408631,
            -0.10780522572000413,
            0.2789215699853068,
            -0.0005481876096009808,
            -0.26707014640557114,
            0.39286938817672973,
            -0.09951426661090498
          ]
        },
        {
          "bias": 0.3270140023910121,
          "weights": [
            -0.15163426106590122,
            -0.07020480103882988,
            -0.16747550459219662,
            -0.13036720089762538,
            0.024474944211692787,
            0.1898534598949101,
            -0.145890052333346,
            -0.19684334025282893,
            -0.1231389272271259,
            -0.3820732628161686,
            0.02551104427585928,
            -0.27154401192373556,
            -0.19865163399294417,
            0.030094395688815483,
            -0.2451190866490865,
            -0.20378043005981245,
            0.0412059847645382,
            -0.24003705236992112,
            -0.09451899984195741,
            0.15483113028599288,
            -0.06753360531580496,
            -0.2241327735799533,
            0.1322742034994739,
            -0.20441475183380037
          ]
        },
        {
          "bias": 0.1694997146301066,
          "weights": [
            -0.21660538520453482,
            0.05614947430329732,
            -0.25433941042098135,
            -0.10345723031710899,
            0.2582952711586937,
            -0.5619637930988993,
            -0.47073201979200985,
            0.3712649807105187,
            0.2988681292277077,
            -0.10993358083214211,
            0.42889262684884205,
            -0.1640209036778017,
            0.3118046223841351,
            0.3810209244466671,
            -0.20009090115184006,
            0.060491084810791976,
            0.3946380210771476,
            -0.2346673182257594,
            0.28529613705679824,
            0.10932328229260718,
            -0.3691375313752347,
            0.0792354581878786,
            -0.28421304819977466,
            -0.23088692092381516
          ]
        },
        {
          "bias": -0.21867540537056346,
          "weights": [
            0.09440050858758468,
            0.12595061701534332,
            -0.011487998970243735,
            0.34387106139050105,
            -0.4704376162501365,
            0.13729231234873196,
            0.042846512475800444,
            0.2891172088574576,
            -0.04765702444844062,
            0.21266475196401247,
            -0.22339856214127274,
            -0.3675766481519129,
            -0.04410321102786446,
            -0.0656260472047869,
            -0.4527084614136618,
            0.06069804898570371,
            0.40131975174910844,
            -0.13293982928547815,
            0.05036982187720204,
            0.13117881678287202,
            -0.36140985465179576,
            -0.16844456122349558,
            0.2958001420705956,
            -0.4479596819525612
          ]
        },
        {
          "bias": -0.1792647428504331,
          "weights": [
            0.17886496428873225,
            -0.12881598903697272,
            0.2908786920829797,
            0.252798081755752,
            0.5121604496505199,
            0.4977097920808374,
            -0.84748160699735,
            0.1080800076935974,
            0.11914385490814022,
            0.30757955698981376,
            0.25526013460911395,
            0.007832266544759435,
            0.33150128659514727,
            -0.09275639058352991,
            -0.7065839218199855,
            -0.07233224656064734,
            -0.38454141307602224,
            -0.3846906826334585,
            -0.09612433748611193,
            0.3798892033645953,
            -0.36514380137662716,
            -0.5964615050106793,
            0.18619957079677235,
            -0.49743853277486816
          ]
        },
        {
          "bias": 0.10964017265633982,
          "weights": [
            0.2521569336667436,
            -0.12618726138652608,
            0.16851550624098088,
            0.00168885886064994,
            -0.0015025481582605753,
            0.04842061534308272,
            -0.4146261760416524,
            -0.33980480380359196,
            0.2658613911704192,
            -0.15227333746123078,
            -0.026061689058972264,
            0.3084103698597762,
            -0.02925607036699627,
            -0.18683043834383622,
            -0.16946675318916393,
            -0.11256154535050089,
            0.08946543536913087,
            -0.19399862780623373,
            0.23499082611341116,
            -0.4316822639627341,
            -0.22775757188061624,
            0.0587140476574042,
            0.12451483722125684,
            0.11457380511352719
          ]
        },
        {
          "bias": 0.0798508284765618,
          "weights": [
            0.08523967253698794,
            0.1657279565497844,
            0.07230810551941194,
            0.043238315476922445,
            -0.20595114536839038,
            -0.32153451402714217,
            -0.04374418773652776,
            0.11349602835784493,
            -0.03671962161371188,
            -0.13924765795736865,
            0.1922683906510756,
            0.20552649895250355,
            -0.20488877330090322,
            -0.1814295364631311,
            -0.3111189657257629,
            0.1613436025081983,
            -0.20494758809444472,
            0.04810941009811575,
            -0.09908381085194269,
            -0.12655870239054903,
            -0.11768762288606743,
            -0.26353667535386127,
            0.09001304198276577,
            -0.23081697087057587
          ]
        },
        {
          "bias": 0.22436119932879328,
          "weights": [
            -0.07768137058457288,
            -0.14161855380474764,
            -0.19298310961469778,
            -0.09895050386300383,
            -0.08783467191310254,
            -0.013437995492046615,
            -0.08491632935000298,
            -0.2333533557384686,
            0.40154279566982526,
            0.005768495470421859,
            -0.34297988478890346,
            -0.16522955324102973,
            -0.1344186452176746,
            0.2825713830658807,
            0.12160605199619146,
            0.11218959024390429,
            0.10892411315799455,
            0.020017239191880757,
            -0.29292710020246704,
            0.02025566684345245,
            -0.07488551992165461,
            -0.2880507108777401,
            -0.1966407921415439,
            0.19395398801057256
          ]
        },
        {
          "bias": 0.24869077220278313,
          "weights": [
            -0.040741864420097036,
            -0.7553901629609323,
            -0.28272670758298646,
            -0.04277033491452735,
            -0.46989725296728835,
            -0.3366995794865968,
            0.23272396158341835,
            0.4519155284896403,
            -1.237813606959828,
            0.18843312960213898,
            0.035245463300819076,
            -0.7495472956672884,
            -0.31433722855149104,
            0.1647989405098193,
            -0.28894105005738646,
            -0.17487869161611966,
            -0.16696354907960662,
            0.25540199489659987,
            -0.33458860016901615,
            -0.11923770068297182,
            -0.3228952680295663,
            0.5192954541796047,
            0.3364791973188218,
            0.1552443537457267
          ]
        },
        {
          "bias": 0.1347071407976165,
          "weights": [
            0.24069485463439272,
            -0.03834528438374085,
            0.1800024932986149,
            0.4138732931634621,
            0.4379067359282559,
            0.2971224075862645,
            -0.07984344489813305,
            -0.4366139671551105,
            0.5668627577421731,
            -0.13309912902240145,
            0.5789030807471915,
            0.4838387996942476,
            -0.0009804202476421115,
            -0.14237194410216575,
            0.026522193042861655,
            0.5585454046739698,
            -0.12198025020539956,
            -0.18739964653813734,
            -0.15686010232163292,
            0.2763440990951328,
            -0.1947483191919372,
            -0.43273821243798954,
            -0.2973214857293391,
            0.5375464503933677
          ]
        },
        {
          "bias": 0.0709809671319245,
          "weights": [
            -0.010485399644423278,
            0.025896010467164124,
            -0.21237577810202343,
            0.5162742275875312,
            -0.22094561350716332,
            -0.32294962565673524,
            0.38603150802738007,
            -0.06857239027828632,
            -0.2282747408478944,
            0.4266847908757283,
            -0.2673831352429872,
            -0.27335676550368176,
            -0.04440857321852943,
            -0.3160586250596649,
            0.5562949174175674,
            0.18094068708721725,
            -0.14992494492152408,
            0.06194980203514431,
            -0.3349481817640944,
            -0.044750688257483774,
            0.09574268361121432,
            0.3080065258085106,
            0.22936545589156662,
            -0.22504500137650663
          ]
        },
        {
          "bias": -0.11411699302363822,
          "weights": [
            -0.4734276708508569,
            0.37217207511226125,
            0.0917946963673891,
            -0.41101988557762104,
            0.30459718703378064,
            -0.07597302515393067,
            0.14603377833223297,
            0.5067910985101566,
            -0.409701447832269,
            -0.14639115056134167,
            -0.2593805056218007,
            0.15164456364902018,
            0.4498664327455472,
            -0.2366361895439078,
            0.21334462532335174,
            0.55530315290801,
            -0.3831054630075646,
            -0.1011525636320741,
            -0.004169389574029173,
            -0.12865353212306785,
            0.24285395330737714,
            0.27436053983835657,
            -0.07424004396121994,
            -0.02984479842441341
          ]
        },
        {
          "bias": -0.4525466383950878,
          "weights": [
            0.13867926689763588,
            0.16384291189359448,
            0.23498670694093374,
            0.07695857037889446,
            0.2992474461544327,
            -0.21046811852875758,
            0.16693175473700614,
            0.3084128229024493,
            -0.4168744051392579,
            -0.12909846142340364,
            -0.19199197570889198,
            -0.11524299099209234,
            -0.07974154443593819,
            0.10143026169046587,
            0.2218653347533614,
            0.312986081239739,
            -0.0682550342839124,
            0.02716287727202283,
            -0.19307866444069288,
            0.20455770041088756,
            -0.4681693546229024,
            0.18588055937072775,
            0.017579784420238616,
            -0.1205212581751754
          ]
        },
        {
          "bias": -0.1719842723413491,
          "weights": [
            -0.16744420344266547,
            0.5016191746305306,
            -0.02604606381800438,
            -0.14650596941421246,
            -0.01365664850651767,
            0.2966137945524351,
            -0.18186824886985536,
            -0.16844525678796146,
            -0.07734692932882016,
            0.013903214823096378,
            -0.09252342305954092,
            0.14632203949576925,
            -0.22048836278945871,
            0.08997612205354291,
            0.13820213241918378,
            0.15587666349751975,
            -0.029249566699822555,
            0.10625120352215851,
            0.09138097366853475,
            -0.231185527468373,
            -0.1298701929782209,
            -0.0316598783720597,
            0.37943930858416525,
            -0.05777262603327981
          ]
        },
        {
          "bias": 0.22500479476627178,
          "weights": [
            -0.5836903596884587,
            -0.1712230492248101,
            -0.2249694392299244,
            -0.2719692017696086,
            -0.43659195697954456,
            -0.5624580940310805,
            0.250345522277649,
            -0.459105969287423,
            -0.0788679115197191,
            -0.0989250299770395,
            0.31178835339493455,
            -0.16859646730090389,
            0.0006293194795884262,
            -0.018249739427424867,
            0.29109360942100665,
            -0.036164002510569206,
            -0.07079993609337458,
            -0.09275388775680901,
            -0.2827143668245825,
            -0.14524489899991766,
            0.41068283425533514,
            0.04489380114528771,
            0.05922500149444075,
            0.3795988235180421
          ]
        },
        {
          "bias": -0.029653280898232347,
          "weights": [
            0.2647482511845859,
            0.3534125045566325,
            0.04889677745922438,
            -0.11534655758416447,
            -0.3718437423328021,
            -2.694184560375558e-05,
            -0.4111853062068364,
            -0.4104119404261001,
            0.034073489075399664,
            0.3962163166833218,
            -0.3689961041010676,
            0.2034823358659747,
            0.35376708515598987,
            -0.07201408445612362,
            0.30435302782239954,
            0.1942098949246745,
            -0.5071859992955207,
            -0.5480156179128892,
            -0.35708334107158657,
            -0.12570446725359607,
            -0.2549260092647674,
            -0.003562830039684256,
            -0.03962828175274183,
            0.016960173685656926
          ]
        },
        {
          "bias": -0.09187302305812178,
          "weights": [
            0.4041765333031441,
            -0.5751190975823907,
            0.14642872278349495,
            -0.10697726014087561,
            0.3566186770678344,
            -0.12196067845911172,
            0.2872338293163932,
            -0.13115940598469064,
            -0.24454311914910154,
            -0.1958505531877988,
            -0.12617450200196528,
            0.14543459656499674,
            -0.13746557318219899,
            -0.3556736833226289,
            -0.19699533980194633,
            -0.1801301068920591,
            -0.03668385013930601,
            0.1481481182271878,
            -0.01621727032670011,
            0.2790164661696369,
            0.5461784327512434,
            -0.2088657387409214,
            -0.4917328810512445,
            0.4003958581253703
          ]
        },
        {
          "bias": -0.09831849377492699,
          "weights": [
            0.09697969184903597,
            0.2800673633422406,
            0.3228456617793083,
            0.06091758765589948,
            -0.18171356963576646,
            -0.4431977574197862,
            -0.02980666233002259,
            -0.013373979437758293,
            0.42022873753153944,
            0.41076222056184886,
            -0.2234321431370085,
            0.27291034931434044,
            -0.36961497259434684,
            0.13230348534739295,
            0.2613570232397187,
            0.24344634302388218,
            -0.12083231562707197,
            0.006122783696837063,
            -0.001396212923009945,
            -0.21042912490493573,
            0.10916469867577733,
            0.05681550255758821,
            0.22624625141068866,
            -0.07822615347138345
          ]
        }
      ]
    },
    {
      "activation": "None",
      "num_neurons": 11,
      "neurons": [
        {
          "bias": 0.0007202855714721338,
          "weights": [
            0.06663811432599992,
            -0.18925068146142388,
            0.21751235342477168,
            0.07749405394218545,
            0.0323168667014357,
            -0.1460238716471376,
            0.23192627511176137,
            -0.057015170597929876,
            -0.32047337599164777,
            0.17338242446260366,
            0.2931971572531804,
            -0.4180916989197655,
            0.2768032724141381,
            0.24136688960468333,
            0.14176166835753395,
            0.11387599426004065,
            -0.18617231624544275,
            0.1490300599464266,
            0.0025752697684555126,
            -0.01916073776702509,
            0.25805664954298685,
            -0.30199408262001715,
            -0.20844425141591708,
            -0.03140906376563889
          ]
        },
        {
          "bias": -0.03788963294784777,
          "weights": [
            -0.09397624219049591,
            0.4112924427365593,
            0.3910395707109392,
            0.12208517734451506,
            -0.0482589069792419,
            -0.3775719503083933,
            0.2538212401607996,
            0.2859530093711812,
            -0.3384113087357599,
            0.3704857203571641,
            0.07627616148638378,
            0.041435381750203316,
            0.06462129685361238,
            -0.210325415511689,
            -0.017087595716358685,
            0.33651044229778776,
            0.22120000434338033,
            -0.14067881799809046,
            -0.15368487445187518,
            0.13680323189959542,
            0.2308025631505866,
            -0.3186434865982497,
            0.04486880735180537,
            -0.04287328828194763
          ]
        },
        {
          "bias": -0.030144249389469573,
          "weights": [
            0.18535514223443583,
            -0.03967304109160582,
            -0.17176908571969746,
            0.2354172073610616,
            0.05148925859898534,
            0.13021375517893002,
            0.11192537737523041,
            0.2382608044553585,
            -0.07850640813222967,
            -0.08525802943543545,
            0.17369321894494386,
            0.0063379054978828795,
            0.19311152815877,
            -0.15480877535961254,
            -0.04567130044845766,
            -0.31003631832533607,
            0.33214321698636956,
            0.07581267451935564,
            -0.307850694964283,
            0.21389105887168772,
            -0.21914906907873993,
            -0.27312645915384853,
            0.13618395713815729,
            0.22043155662193878
          ]
        },
        {
          "bias": 0.08275185692900061,
          "weights": [
            -0.246618707028945,
            0.00026092479408766915,
            0.03027012251370987,
            0.10482922436892159,
            0.18442603657581425,
            -0.2898293918488061,
            0.05914091623161382,
            0.26566132508188683,
            -0.0860953547487727,
            0.21349722302496357,
            0.08452610122922577,
            -0.3984238592002093,
            -0.23997295611151648,
            0.029937120004223255,
            0.16155501571592595,
            0.27639499715390536,
            -0.29971982127046654,
            -0.030860831842068892,
            0.1359661170404195,
            0.015463177200008144,
            0.31026630094533575,
            -0.2680174962502819,
            -0.3227388109696202,
            0.05477400738141243
          ]
        },
        {
          "bias": 0.3060241856639168,
          "weights": [
            0.2768977882853554,
            -0.05562605375948148,
            0.0164252592612589,
            0.0061113775495084555,
            -0.11527927155608894,
            0.11119503910715121,
            0.14593762234664748,
            0.31358695619963595,
            0.0687155002307957,
            0.13107552109063625,
            0.03800392637609385,
            -0.5019833404454631,
            -0.22076533806868526,
            0.4055078873980359,
            -0.053081362532236206,
            -0.07112065113441154,
            0.19800475724539007,
            0.14094098107401326,
            -0.0677514643400916,
            0.41795802933149223,
            -0.19600080190487668,
            0.20823900026679015,
            0.43979100676609606,
            0.043975413416731945
          ]
        },
        {
          "bias": 0.1433036843796958,
          "weights": [
            -0.26736482248378574,
            0.27438564938691695,
            -0.14010733288107796,
            0.23637713193445348,
            0.27816632922264484,
            -0.36926818065152134,
            0.04936382377104316,
            0.37326780323766207,
            0.04382270098278196,
            -0.31637480283154246,
            0.019337867781794048,
            -0.021642346537743377,
            -0.4538297499152668,
            -0.17909844080804685,
            -0.07943955736669639,
            -0.14823300313101404,
            -0.05192878185491637,
            -0.12495079729263085,
            -0.43096616775185076,
            0.07722518684744208,
            -0.08769359830122438,
            -0.29100401525090047,
            -0.20918798665512744,
            0.17002344445069217
          ]
        },
        {
          "bias": -0.06552751134966307,
          "weights": [
            0.5043247333110679,
            -0.5508946661337382,
            -0.10957011329905496,
            -0.8530241440773261,
            0.22704575761538057,
            -0.10572938278151013,
            0.46638329787302246,
            0.36913435786871573,
            0.5524142906186683,
            0.7413507750223736,
            0.9618316457520901,
            -0.014808069873073077,
            0.22049828242948855,
            -0.579709058728027,
            1.2646461109548932,
            -0.1501014709387442,
            0.0932754531954555,
            0.5005448925538244,
            0.18003070722272335,
            0.08469190769171192,
            0.01588684473753465,
            0.4129035238547886,
            -0.15010293469434371,
            0.12342826926850448
          ]
        },
        {
          "bias": 0.387602366427722,
          "weights": [
            -0.17948622391010138,
            0.28196167247840304,
            0.7895007155572146,
            -0.3370255419462662,
            -0.13706456398533767,
            -0.17417648053990614,
            -0.1199083169962074,
            0.17215474686022653,
            0.498527196475695,
            0.2110638413664568,
            0.06969491087594956,
            -0.2640280157112179,
            -0.22106519935947078,
            0.2755517648313203,
            0.05349208885298879,
            -0.06982910062959416,
            -0.36907777297867134,
            0.8564405143708205,
            -0.13864541159701868,
            0.07537275144943743,
            -0.5095067525533515,
            -0.457851469356491,
            -0.6958599747109355,
            -0.6684393374109641
          ]
        },
        {
          "bias": -0.043170863320629624,
          "weights": [
            -0.20182382358311463,
            -0.2024961480418571,
            -0.7665924982002454,
            -0.14312323253926296,
            0.5340752239054763,
            0.28912190489210776,
            0.43707588721511864,
            0.19608021166447434,
            -0.3152081025441456,
            0.18426527607841287,
            0.944640617518355,
            -0.41151677851835083,
            -0.19504830874854528,
            -0.16462124488335564,
            0.44123601673513313,
            0.4917844159070187,
            -0.6055394171305509,
            -0.9591724896610421,
            0.04511630165304324,
            -0.0029311646582973866,
            -0.7850940072869462,
            0.051906792197392415,
            1.1834671975189193,
            -0.6307920885025899
          ]
        },
        {
          "bias": 0.0968147986194599,
          "weights": [
            -0.08342678856278438,
            -0.3265148226732021,
            -0.6991564590288772,
            0.8668189741379196,
            0.26291171261239976,
            0.07286145463759831,
            -0.6478986643259879,
            -0.447140107900881,
            0.03802979651624281,
            -0.008530514428990254,
            -0.5017866941040943,
            -0.19671228224431844,
            -0.6181570542808354,
            0.48854709793079615,
            -0.6540402607796583,
            0.36404064005171577,
            0.13798846545065924,
            -0.40651331542252883,
            -0.2896057513081858,
            -0.34980202100216057,
            0.1113619391135955,
            -0.1061791989958126,
            0.9297951716936802,
            -0.11132129407221222
          ]
        },
        {
          "bias": -0.10516092992506622,
          "weights": [
            0.11723591959038099,
            -0.3190719365972633,
            -0.15259674974919532,
            0.10103331512156213,
            0.31690065060138856,
            0.23786055670159917,
            -0.24062941407665328,
            -0.27532701437553153,
            -0.40258713767643006,
            0.3485855859884561,
            -0.1315575996579804,
            0.20130606968056033,
            -0.058007508381755196,
            -0.04852872109100981,
            -0.14412059760767998,
            0.07621244378074161,
            -0.22188152367001432,
            -0.12268511767184054,
            0.22923449562575812,
            0.20875998677856702,
            0.15232808433452788,
            -0.08508234259284769,
            0.16365470657789472,
            -0.3711918164548873
          ]
        }
      ]
    }
  ]
}