{
  "layers": [
    {
      "activation": "tanh",
      "num_neurons": 24,
      "neurons": [
        {
          "bias": -0.10711813726247527,
          "weights": [
            -0.18098297690745543,
            -0.25895536720681805
          ]
        },
        {
          "bias": -0.026885575914229225,
          "weights": [
            -0.45080279565746734,
            -0.09335321813741321
          ]
        },
        {
          "bias": -0.10556878477339196,
          "weights": [
            0.07800720458384493,
            0.3332186009389004
          ]
        },
        {
          "bias": 0.03798671945171736,
          "weights": [
            0.351781724052129,
            0.18243990981401462
          ]
        },
        {
          "bias": -0.06644334536229188,
          "weights": [
            -0.3553886000270193,
            -0.01249721943161339
          ]
        },
        {
          "bias": -0.037574594299187275,
          "weights": [
            -0.38886309812957415,
            -0.1568648988602133
          ]
        },
        {
          "bias": 0.003390892671055288,
          "weights": [
            -0.3224380238326394,
            -0.25394200966370273
          ]
        },
        {
          "bias": -0.053655169045076744,
          "weights": [
            -0.2637068316422494,
            -0.15336910744794985
          ]
        },
        {
          "bias": 0.004775940482556651,
          "weights": [
            -0.06016606785224895,
            -0.2798054562697789
          ]
        },
        {
          "bias": 0.013049473982718227,
          "weights": [
            -0.28525355642258743,
            -0.18368697864232378
          ]
        },
        {
          "bias": -0.04141313941803612,
          "weights": [
            -0.29704240033114454,
            -0.060125898170666395
          ]
        },
        {
          "bias": 0.017674831536677,
          "weights": [
            0.20659095573928699,
            0.21757960316625577
          ]
        },
        {
          "bias": 0.031506448867577155,
          "weights": [
            -0.40961381309104183,
            -0.10240852789776317
          ]
        },
        {
          "bias": 0.006420415275288057,
          "weights": [
            0.2909555089568094,
            0.26608849981503063
          ]
        },
        {
          "bias": -0.10399966545580294,
          "weights": [
            -0.35595625327314045,
            -0.030885822503828108
          ]
        },
        {
          "bias": -0.030968864520948026,
          "weights": [
            0.020171104163687115,
            0.20925988530141812
          ]
        },
        {
          "bias": -0.006059046450857804,
          "weights": [
            0.3561399924064388,
            0.196646832314999
          ]
        },
        {
          "bias": 0.0010860137348437482,
          "weights": [
            -0.1930705691939884,
            -0.1986963900094741
          ]
        },
        {
          "bias": 0.041202304138952685,
          "weights": [
            0.04774404770487948,
            0.2618524674273282
          ]
        },
        {
          "bias": -0.013814613522027168,
          "weights": [
            -0.1294439888650488,
            -0.24732610536872046
          ]
        },
        {
          "bias": 0.07942185785269237,
          "weights": [
            0.2532341438248236,
            0.1195465648502803
          ]
        },
        {
          "bias": -0.1028653191634925,
          "weights": [
            -0.22969702953532803,
            -0.3041631096769549
          ]
        },
        {
          "bias": -0.10680000121225079,
          "weights": [
            -0.03649728074617909,
            -0.24709799037307845
          ]
        },
        {
          "bias": -0.007923873486789355,
          "weights": [
            -0.3934710452757296,
            -0.2561295766085997
          ]
        }
      ]
    },
    {
      "activation": "tanh",
      "num_neurons": 24,
      "neurons": [
        {
          "bias": -0.005314202900452853,
          "weights": [
            -0.27928993715624634,
            -0.028945142239316327,
            -0.0005895028186978998,
            -0.0609614543754018,
            0.34249198466851904,
            -0.0011366371986879923,
            -0.31412551805355643,
            0.3062997521676423,
            0.11913881050526613,
            0.2802947254170225,
            0.007693492579361944,
            -0.30778787607505687,
            -0.14579676817593712,
            0.2604384546110939,
            -0.1191431618919804,
            0.26037436169227535,
            -0.10765340435711993,
            0.18761320995220038,
            -0.20193540885264236,
            0.20542382836499554,
            -0.08600190035277337,
            -0.07979541009152138,
            0.28658575598645736,
            0.0624741336751638
          ]
        },
        {
          "bias": 0.023715894548154693,
          "weights": [
            -0.15271485935080725,
            -0.17941400189338516,
            -0.25666914717583267,
            -0.12370370811187192,
            0.14187887140838748,
            0.30884551607273153,
            -0.15490705699991641,
            0.2048442272444534,
            -0.2486752506239084,
            -0.30216181366795425,
            0.27193014533682874,
            0.11779945518474703,
            -0.015054441461947513,
            -0.008804400018170459,
            -0.04258317243561094,
            -0.12785305087148124,
            -0.14611427562725654,
            0.04666705643455516,
            0.16299684857007604,
            0.18117797853811282,
            0.2666458889873141,
            -0.27805167254709995,
            0.12702772217013947,
            -0.08910344455870021
          ]
        },
        {
          "bias": -0.012010130736531777,
          "weights": [
            0.0010580655824489176,
            -0.18918468793504828,
            -0.2727520149615015,
            -0.2356098126038772,
            0.0019849847209122023,
            -0.02614213657892839,
            -0.026135715033522414,
            -0.18074643267060161,
            -0.23294375951319185,
            0.03786049796017792,
            -0.0484076108926308,
            -0.033742023950523115,
            -0.21453850821553952,
            0.3273076008974529,
            0.25097841503959223,
            -0.2895881513839572,
            0.3236456595961191,
            0.22301061932400304,
            -0.0010374256853270653,
            -0.150968649236477,
            -0.24797484855756904,
            -0.27601327569840756,
            -0.20624078823736247,
            -0.15064256447135113
          ]
        },
        {
          "bias": 0.022181010979933274,
          "weights": [
            -0.012040784121127638,
            -0.1607373826126083,
            0.1319132514408924,
            -0.23923412033925587,
            -0.30634115010003593,
            0.08924748909995177,
            0.3150494875623712,
            0.14342000060374682,
            -0.06961003318274163,
            0.21028166342357832,
            0.11176052982924284,
            -0.10267484800102049,
            -0.19939051685553405,
            -0.3044019468340719,
            0.22588654419970053,
            -0.14982042195593195,
            -0.039578057785198156,
            -0.22798448865845639,
            -0.1363423939496192,
            -0.13871544945107853,
            0.053653005275243415,
            0.11650412650223288,
            -0.09458797695350707,
            -0.0677466191888768
          ]
        },
        {
          "bias": 0.008667664923864738,
          "weights": [
            0.10666514686387506,
            -0.018048333645354724,
            0.23291076386745732,
            0.27816093257325836,
            -0.1281736907786823,
            -0.285622372388882,
            0.24130799299177833,
            0.17292917461404692,
            -0.04057046326295544,
            -0.08224791282080304,
            0.16879460920471803,
            0.2950002281080717,
            -0.12154182816998982,
            -0.186724458471413,
            0.17047889847952558,
            0.0767838030299524,
            0.29969972425059943,
            0.04114543095271355,
            -0.29231100545066857,
            0.3305930950466883,
            0.16118259349019592,
            -0.34221205052615294,
            -0.06809473896159499,
            -0.08226292423573724
          ]
        },
        {
          "bias": 0.01882790058289995,
          "weights": [
            -0.005773809960229551,
            -0.1570863439897147,
            0.37044149832718853,
            0.23641696007174168,
            -0.18082478149157188,
            0.05402206552083821,
            0.2627960326690163,
            -0.1361071703978137,
            0.17615765867449837,
            0.2589210551452222,
            -0.32695017419456396,
            0.08897408669779296,
            0.06548387851741934,
            0.035775712808454554,
            -0.02073383044685595,
            -0.2954597391989842,
            0.10536109360890601,
            0.29848447643977216,
            -0.31373908162089975,
            -0.2813989427382709,
            0.1788475474150341,
            -0.25725213275680214,
            0.06846133171087807,
            -0.028769546982584455
          ]
        },
        {
          "bias": -0.0018007531720691651,
          "weights": [
            -0.07110453435698133,
            -0.08003887992089462,
            0.20406442119286508,
            -0.3169892552997656,
            0.15215606444581103,
            -0.08705336762559938,
            -0.07069089381847832,
            0.042709562917955475,
            -0.10191938287648004,
            -0.014533310675813201,
            -0.002291340412758582,
            -0.29040851248082095,
            -0.15701441645838948,
            -0.3037541250731202,
            -0.11652553169060077,
            0.33486125725013843,
            0.01902316136173315,
            -0.06506336675008242,
            -0.2557132707736772,
            0.16984038048693725,
            0.13774792635055078,
            -0.14123546501305467,
            0.34741098217149574,
            -0.13145397219217594
          ]
        },
        {
          "bias": 0.02138461793252309,
          "weights": [
            -0.170978826257429,
            -0.25176517252511543,
            -0.024087510130024595,
            -0.09255950577328154,
            0.04216704564397604,
            0.291786482602269,
            -0.2461316573420264,
            -0.2468727707101861,
            -0.2384625515346659,
            -0.22912181415677088,
            0.14439232660735846,
            -0.21422543251676435,
            -0.15518726216930048,
            0.0132191130798809,
            -0.08513485892831342,
            -0.2805443633175222,
            0.11261748443704098,
            -0.23566216421515734,
            -0.12235026714409813,
            0.03839425972224906,
            0.1287569144415044,
            -0.1690054148409564,
            -0.13090586967639828,
            -0.02891876813698368
          ]
        },
        {
          "bias": 0.004327126103890109,
          "weights": [
            -0.306738862407043,
            -0.19108947542523763,
            -0.2962479551528967,
            -0.23409949976998856,
            0.34063612410629607,
            -0.37185589031544636,
            -0.11574390882185581,
            0.12602884587286606,
            0.11271922678368443,
            -0.33546705795262255,
            0.23255362303345364,
            -0.11292432538008768,
            0.25956362416397366,
            0.23616857188234108,
            -0.18969270819817047,
            0.07149784709499868,
            0.17209211035055352,
            -0.11283429980587927,
            0.08877974841349325,
            0.2736862248140608,
            -0.22362856332503825,
            0.25729895932125435,
            -0.23624659436940143,
            -0.11041933488830395
          ]
        },
        {
          "bias": 0.009213018880150003,
          "weights": [
            -0.16126584926551432,
            0.20892018417102132,
            -0.016954972372501546,
            0.24526859478444174,
            -0.34213600593710514,
            0.288555804508407,
            -0.11739777601620906,
            0.17377848690515094,
            0.08534090973500505,
            0.005204233434023427,
            -0.03660020539793363,
            -0.10395239256732873,
            -0.11434032876177495,
            -0.21145894373582474,
            -0.24799946731369002,
            0.05623513589114461,
            0.34213789917120385,
            -0.039227206264779005,
            0.09410375703488018,
            -0.13664143284546482,
            -0.059943592737505366,
            -0.1908090891782944,
            0.008129324978418964,
            -0.14544770548667826
          ]
        },
        {
          "bias": -0.0002753981511341848,
          "weights": [
            -0.15507031088395662,
            -0.15031667152083147,
            0.2782241848657982,
            -0.24181669572707534,
            0.3472709242464063,
            0.31082261728899063,
            -0.3306292998057034,
            0.01049974814331312,
            -0.07398756119184735,
            -0.125142033534627,
            -0.07124666768654254,
            -0.06908339296218104,
            0.29986727616294495,
            -0.18854235812554124,
            -0.21383042375887154,
            -0.11246976224580191,
            -0.30962339362295743,
            0.046158470873769106,
            -0.24817730639815477,
            0.22242125676454844,
            -0.33993009818674813,
            -0.17652307537038237,
            -0.024726489714247745,
            -0.33401846073649427
          ]
        },
        {
          "bias": -0.009006437813377509,
          "weights": [
            0.26107613981928596,
            -0.2702402155868374,
            0.23818094731313036,
            -0.0357179055898811,
            -0.060446501245378495,
            -0.02329263111529473,
            -0.24008064273872168,
            -0.27399204450434383,
            0.12484682225446248,
            -0.22156126534372397,
            0.013074092540358625,
            0.3669180864173521,
            -0.16071509686746585,
            -0.1137846408038117,
            -0.2903398893164793,
            0.022180376308682543,
            0.0842058544648617,
            -0.17350304047238768,
            0.34029961410539744,
            -0.29971829286514623,
            -0.2101151057155397,
            0.020069898351214654,
            0.08911479461292354,
            0.06507061951674965
          ]
        },
        {
          "bias": -0.008998849545144775,
          "weights": [
            -0.009260355044201515,
            0.1969972430268955,
            -0.10423414409103424,
            -0.006395816101973092,
            -0.11983445249375145,
            -0.34096494247535797,
            -0.09820914445544258,
            0.004057720843628925,
            -0.08819554921502577,
            -0.13301285199719845,
            0.2129169194283893,
            0.3370260641620262,
            -0.24917452444599553,
            -0.2722433165729026,
            -0.2537427619639039,
            -0.019887526332932514,
            -0.1878158096235873,
            0.10117324177221707,
            -0.2281487699506239,
            -0.2735420247417574,
            0.04609986504287469,
            -0.20302266802746236,
            0.22258621016157895,
            -0.3312967818425661
          ]
        },
        {
          "bias": -0.020043541083175836,
          "weights": [
            -0.07818403371397861,
            -0.3121531305435722,
            -0.06458509981198438,
            0.019903901436415062,
            0.006965412777470276,
            -0.015167124217810926,
            -0.03877316071317498,
            -0.2912737916858367,
            -0.003200010557595622,
            0.323666904775867,
            -0.09388673781703691,
            -0.324601160179899,
            0.06363474064313708,
            0.026047947546853023,
            0.051565776630285456,
            0.17975647597322936,
            0.18594469761434299,
            0.10460137747150752,
            -0.026206196590685682,
            0.05480129913968027,
            0.061406294041800834,
            -0.2797211460530142,
            0.11093636331401836,
            0.19278070468898342
          ]
        },
        {
          "bias": -0.02827419890520177,
          "weights": [
            0.17732920657856505,
            -0.0812445233606395,
            -0.1445095817271401,
            0.17704438007404238,
            -0.0753829868147706,
            -0.16365371542114882,
            0.09730968600132396,
            0.3326257239079267,
            -0.3056358538800934,
            -0.1150666468647124,
            0.30854459914733084,
            -0.22812273448161002,
            0.028261857139833913,
            -0.08077300840719369,
            -0.21628268510354076,
            0.24192700549172044,
            0.12847474108341442,
            -0.049949056210334075,
            -0.193602769526689,
            -0.24109858567886172,
            -0.17937094992631217,
            0.30714808747971556,
            -0.03166102629739526,
            0.19539551751248224
          ]
        },
        {
          "bias": -0.04001039505634494,
          "weights": [
            0.2978187882304033,
            0.052808093852321485,
            -0.10101046352603812,
            0.2125782900278381,
            0.12433445735498885,
            0.2449986064220817,
            -0.08683727567481749,
            -0.3106557983834071,
            0.11847405913518144,
            -0.30226445988622547,
            0.2461991245289125,
            0.26387202912057145,
            -0.1972427196686883,
            0.21927913377103522,
            0.2583064190504901,
            0.2791231373278269,
            -0.18071831373394528,
            -0.03743649803299582,
            -0.382548203896697,
            0.19010743757803555,
            -0.2799059057055637,
            -0.2830138553317366,
            -0.23838931844513597,
            0.24672397372447913
          ]
        },
        {
          "bias": -0.03295190492814279,
          "weights": [
            -0.16603102825223007,
            -0.06944838443285768,
            -0.23043198582461538,
            0.3207990980617177,
            -0.16515260664774495,
            -0.12017861081654801,
            0.31167723203975767,
            -0.1425304506057221,
            -0.376601489424684,
            0.25514720808523883,
            -0.20270532008223222,
            -0.15062723305496717,
            -0.27453584355926924,
            -0.2956911497477252,
            0.2611297815469601,
            -0.0034030395398891786,
            -0.23054093442124443,
            0.08783724363828288,
            -0.30275342786088744,
            -0.07950021177044728,
            0.05367207129323588,
            0.32298836483924803,
            0.33348460252894935,
            0.033010865739832904
          ]
        },
        {
          "bias": -0.0013310488541130334,
          "weights": [
            -0.02672751694634729,
            -0.02835693214743367,
            0.13981352198444455,
            -0.3463561631373615,
            0.19400890112457445,
            -0.18771018724730812,
            0.12211845446527098,
            0.30575866779847216,
            -0.29266708808325054,
            -0.30633813937500715,
            -0.30240993368083446,
            0.038979617293028554,
            0.30358831354463356,
            -0.33274963131282903,
            0.046828353467708125,
            0.29996695029657683,
            -0.32421985091329375,
            -0.07169624188122059,
            -0.09010200588436147,
            -0.09541311890453505,
            0.2702992034919211,
            0.19772570173292964,
            0.1955407749225312,
            0.0911522240590636
          ]
        },
        {
          "bias": -0.005639048635420695,
          "weights": [
            0.2199218984334529,
            0.14051433512984335,
            0.1568495436486223,
            0.02824853293207973,
            0.3024102132953264,
            -0.23522329093295968,
            0.25565615526601254,
            0.2132661089437309,
            -0.26986533015282566,
            -0.11459065501398752,
            -0.012759809892154812,
            -0.2911823526181062,
            -0.10673066675973494,
            -0.09073664981018627,
            0.05034062614652488,
            0.35743198996374564,
            0.17936404063670644,
            0.15928494231457765,
            -0.1252772244587033,
            0.16169176487613426,
            -0.25872012892558977,
            0.217184963858945,
            0.1295138340280486,
            -0.018850597309856828
          ]
        },
        {
          "bias": 0.00038246521013430234,
          "weights": [
            -0.0969907745952433,
            0.24248270666135804,
            0.06272866743450978,
            -0.2559103432731048,
            -0.1926282874422947,
            0.23124013229371446,
            -0.19110123710117735,
            -0.03157412178105384,
            0.2655362344006455,
            0.09685452415943145,
            0.01681434293604709,
            0.2827145834923543,
            -0.2909663502052738,
            0.25068502431360296,
            0.08683933129003142,
            0.25395569564717896,
            -0.05725876113342572,
            -0.01042791278805758,
            0.20423487639699303,
            -0.21044131340339778,
            -0.19041826665987518,
            0.09394073504354283,
            0.0923032668017971,
            0.03645688994250256
          ]
        },
        {
          "bias": 0.03593275256704283,
          "weights": [
            -0.3027190985004744,
            -0.26952750457223096,
            -0.22674820692064818,
            -0.04606181755155672,
            -0.3270150486169478,
            -0.17034669130003868,
            0.19669811264834505,
            -0.2508335063827526,
            -0.13933328935165382,
            -0.24199208025116176,
            0.29534295100265706,
            -0.08186255410793632,
            0.015863313394656423,
            0.003881971480377231,
            0.03774784837813329,
            -0.2783144462977809,
            0.026802185077584167,
            -0.2412858906373868,
            -0.12625437024394365,
            -0.014123485476553899,
            0.12477946104185596,
            -0.08234212262830075,
            0.06991703452053348,
            0.025494818217146196
          ]
        },
        {
          "bias": -0.026929871189781174,
          "weights": [
            0.33381099787925184,
            0.19032552721523782,
            0.17834983415604638,
            -0.20292749652873393,
            -0.3002508532252302,
            0.07881670680183588,
            -0.25260428682420005,
            -0.2989230078637753,
            -0.12170159951532786,
            0.21541182926523392,
            -0.2930141493719434,
            0.20277071373034616,
            0.28975361411679273,
            -0.23959043665119126,
            0.18446070952270127,
            0.09366189101510031,
            -0.23507890113729774,
            -0.2508884267375706,
            -0.19247821486022457,
            0.2464525389020866,
            -0.2485894382858628,
            0.06691919108613528,
            -0.15330878639078246,
            0.21162602295416427
          ]
        },
        {
          "bias": 0.03154320802982531,
          "weights": [
            0.14810951870125985,
            -0.2936874398193962,
            -0.08586630767927166,
            -0.15132382246658374,
            0.19992759676689825,
            -0.09674421312115206,
            0.07057971347204307,
            -0.14635695377086855,
            0.1643737073655905,
            -0.2700596999916878,
            0.021132929400974637,
            0.19047352947809623,
            -0.09174378358128425,
            -0.007696892272044843,
            -0.16356641705294428,
            -0.16014974620530703,
            0.07424903851092662,
            -0.05299755042291707,
            -0.09631693814372766,
            0.12265693718585004,
            0.2903947297044961,
            -0.2593143303401161,
            -0.32046772709910354,
            0.2854571063599208
          ]
        },
        {
          "bias": 0.0023730152120874245,
          "weights": [
            0.21704523899444594,
            0.3215519398476606,
            0.31664865607881304,
            0.06013172741553709,
            -0.06327596621690793,
            -0.20756726646782242,
            -0.11291160151508209,
            0.0955343568471391,
            0.3308520863210007,
            0.3095717736776887,
            -0.05606450906447897,
            0.0974644241552915,
            -0.3428418887369726,
            0.13097673241942803,
            0.1214688583276331,
            0.07256277345936414,
            -0.03895998751856921,
            0.11630177527727234,
            0.14592469645419898,
            -0.29934063341842737,
            -0.017281630604134894,
            -0.09492047791087715,
            0.10302768064090272,
            -0.00317494725342366
          ]
        }
      ]
    },
    {
      "activation": "None",
      "num_neurons": 4,
      "neurons": [
        {
          "bias": -0.022044525378784575,
          "weights": [
            0.08627464405467714,
            0.3716895857099884,
            -0.19378703264592648,
            0.07228001242156662,
            0.2425085475514924,
            -0.34194784758394947,
            0.04733969553567404,
            0.0641113378295146,
            -0.14693919376069517,
            0.22495500175100935,
            -0.14851444403350977,
            0.030055241685092125,
            -0.36287773031411347,
            0.2577062879695317,
            -0.24456789505174506,
            -0.12910100911883304,
            0.08948931096571507,
            -0.054083656242973434,
            0.12576577975107667,
            -0.07555018236214855,
            0.3490187444978302,
            -0.01726899364695418,
            -0.2771896306728309,
            0.18767973218479622
          ]
        },
        {
          "bias": -0.050418737085809955,
          "weights": [
            -0.1829929438146698,
            -0.17880625274854559,
            -0.02046836349389186,
            0.11620617123529743,
            -0.3014990068952822,
            -0.4425622479798987,
            -0.32061110007730786,
            0.24474390538205157,
            0.12326805797705884,
            0.1567141893727328,
            -0.038226461709148986,
            -0.16733791541897877,
            0.34960959447162293,
            -0.2058603644431489,
            0.16451815634340444,
            0.06640134867724137,
            -0.005907854218259939,
            -0.24256051065295878,
            -0.2717428918488982,
            -0.1442209631469389,
            0.2673062730911125,
            0.3075062636247521,
            -0.28481233511618637,
            0.05800370011123393
          ]
        },
        {
          "bias": -0.015007962052297187,
          "weights": [
            0.014879346391747114,
            0.11038723469522596,
            0.17746551854545148,
            -0.27350150686516583,
            -0.05198490674408551,
            0.11500338918682887,
            0.04719913966672164,
            -0.4459304723273947,
            0.20411770913364852,
            0.26960995748818295,
            0.3655826094411864,
            0.024377547721048873,
            -0.22214138733065414,
            0.2951437581453098,
            -0.2210825394335947,
            -0.3493313004668263,
            0.29340523681488045,
            0.31115544406558276,
            0.26705829435210127,
            0.30420712652035964,
            0.3816375617658555,
            -0.36671947173574,
            -0.22175834399466537,
            0.13989818124372702
          ]
        },
        {
          "bias": -0.03046160510724529,
          "weights": [
            0.06657552058592937,
            -0.2192584768687036,
            -0.11172484869652705,
            -0.15801277232349586,
            -0.3830331106571012,
            0.29790579472463863,
            -0.09629966376077978,
            -0.4000853072041607,
            0.2730639950707506,
            -0.008201316352616115,
            -0.14179278511344223,
            0.1858437156087967,
            -0.2965179539447985,
            -0.054253492654521784,
            -0.07637890212048563,
            0.015963246063161535,
            -0.002961952651132378,
            0.12979419743614964,
            -0.1932714295078162,
            0.02088399798833006,
            0.2911862056284536,
            -0.29682678510730287,
            -0.30820505493949246,
            0.2921463540598522
          ]
        }
      ]
    }
  ]
}