{
  "layers": [
    {
      "activation": "tanh",
      "num_neurons": 26,
      "neurons": [
        {
          "bias": 0.34057572552647897,
          "weights": [
            -0.7924945892794962,
            1.9723910238554982
          ]
        },
        {
          "bias": 0.6638944769341402,
          "weights": [
            -1.4163012064858975,
            1.5108665005865425
          ]
        },
        {
          "bias": 0.4034635654915857,
          "weights": [
            -0.7498594533662307,
            -0.9361155196127171
          ]
        },
        {
          "bias": -0.9712648460014434,
          "weights": [
            0.30448512209059425,
            0.1778398888787117
          ]
        },
        {
          "bias": -0.41905276355515464,
          "weights": [
            -0.9883679876147567,
            0.18814314509218244
          ]
        },
        {
          "bias": -0.9692345527828425,
          "weights": [
            0.5958566642430744,
            0.23862493574975663
          ]
        },
        {
          "bias": 3.0227275760428443,
          "weights": [
            -2.1648923993175377,
            -3.836503096291128
          ]
        },
        {
          "bias": -0.37534322417574617,
          "weights": [
            -0.35128291665533623,
            0.93754652918509
          ]
        },
        {
          "bias": -0.4388126455914305,
          "weights": [
            1.6084134471420524,
            -1.454855321753492
          ]
        },
        {
          "bias": -0.8119626713195155,
          "weights": [
            -0.13623782276950908,
            -0.5888016956063388
          ]
        },
        {
          "bias": -0.8177776319990506,
          "weights": [
            -0.6597764840524967,
            1.2185324242130444
          ]
        },
        {
          "bias": 0.5774383111628668,
          "weights": [
            0.3375403486074185,
            -0.23619245983346282
          ]
        },
        {
          "bias": 0.09740236036561839,
          "weights": [
            -6.586885092589314,
            6.307228055399988
          ]
        },
        {
          "bias": 1.3585646168093541,
          "weights": [
            -1.0057433984710626,
            -0.2393810212209545
          ]
        },
        {
          "bias": 0.41566696277685655,
          "weights": [
            -0.9776887834074113,
            0.7839307712636364
          ]
        },
        {
          "bias": 0.46070556740651614,
          "weights": [
            0.8555703908147635,
            -0.456655675024916
          ]
        },
        {
          "bias": -8.600484407836896,
          "weights": [
            9.995218709098705,
            7.013301385035052
          ]
        },
        {
          "bias": -0.8391735905356276,
          "weights": [
            0.5450610102228708,
            0.745305832463836
          ]
        },
        {
          "bias": 1.0762994388816205,
          "weights": [
            -0.07456682533466628,
            1.3765831248351488
          ]
        },
        {
          "bias": 2.041855562796286,
          "weights": [
            0.49033200517793984,
            -1.4292197614676507
          ]
        },
        {
          "bias": 1.9190740577982341,
          "weights": [
            -0.4241691146086244,
            -0.5276058640935851
          ]
        },
        {
          "bias": 0.8149037089246758,
          "weights": [
            0.5025103935123261,
            -1.1863568777996027
          ]
        },
        {
          "bias": 0.8247017469471295,
          "weights": [
            -1.1123860871993758,
            0.2572147530670385
          ]
        },
        {
          "bias": 0.9129400156750627,
          "weights": [
            -0.4047243377248708,
            -0.6075802437600779
          ]
        },
        {
          "bias": -1.3673371413149036,
          "weights": [
            1.4607784285043603,
            1.5860102937379041
          ]
        },
        {
          "bias": 0.5036232987999518,
          "weights": [
            -0.4635417859422352,
            -1.173453734976469
          ]
        }
      ]
    },
    {
      "activation": "tanh",
      "num_neurons": 26,
      "neurons": [
        {
          "bias": -0.14069855453226826,
          "weights": [
            0.3206132242036439,
            -1.0914334197123583,
            0.15960418197213594,
            -0.4987839426806204,
            0.2873913248928477,
            1.3676964386313208,
            0.055013499089982515,
            0.20770663296548267,
            -1.1713109677717695,
            -0.3777174226516917,
            -0.34836344181502765,
            -0.4401961212706913,
            0.36519963179747483,
            -0.26359908861249964,
            0.8298378637745103,
            0.8387440155962833,
            -0.11183531461174681,
            -0.17698375834510055,
            -0.2815413581813421,
            1.3193574303336266,
            -0.2975911509579771,
            -0.04798434964069745,
            -0.7314908440533626,
            -0.8215373960813198,
            -1.0387664914805919,
            -0.5774643466462798
          ]
        },
        {
          "bias": 0.09820698961663714,
          "weights": [
            -0.8552337063154218,
            1.9734108499986869,
            0.6625405698818624,
            -0.4019030252288014,
            -0.5941324175074022,
            0.6308600834854113,
            0.19376105763690046,
            -0.650040442524124,
            -0.9879422348733452,
            -0.14019122700702105,
            -1.113519397423917,
            0.226382605822764,
            -0.7411957237038628,
            -0.4787837960867974,
            -1.15746744482318,
            0.9048208163473141,
            0.20305493095184157,
            0.02589966045705402,
            -1.4195578638709667,
            0.12515267168231406,
            0.4740643313927083,
            -1.2468280808133596,
            -0.944747424825396,
            -0.7433864958118881,
            -0.03452459199713659,
            0.42827856909810685
          ]
        },
        {
          "bias": 0.4299141643744823,
          "weights": [
            -0.5360775875644548,
            -0.4444591939591886,
            -1.0577069606757845,
            0.15427709240863635,
            -0.7129713997902845,
            -0.5810448151034014,
            -0.12891015476427245,
            -0.6497243394573471,
            0.7645993478952029,
            -0.6287426863503096,
            0.49406228015562365,
            -0.008370592947900431,
            -0.3378404182116938,
            1.0505453022454792,
            0.42301484863492606,
            1.1458404605571442,
            0.1804248667563022,
            -0.22209498293255964,
            -0.25086882678194083,
            -0.011795352879574594,
            0.3802543768954038,
            -0.4770553230747231,
            0.8599602415863516,
            0.029842907601152303,
            0.181537929619826,
            0.7677365192744742
          ]
        },
        {
          "bias": 0.9690422021314189,
          "weights": [
            -0.3071396613198093,
            -0.7085657226934345,
            -1.0678496521407739,
            -0.14556710190527475,
            0.22870092848489354,
            -0.2603550367842344,
            -0.07545356703043368,
            0.16823522129117963,
            1.7504922136300676,
            0.01806083990172763,
            -0.8174167858063891,
            -0.07332266223546678,
            -0.20952419628330826,
            -0.316846044691775,
            -1.5421829452237936,
            0.34461318904724425,
            -0.020700870311390295,
            -0.0860382494190936,
            -0.774123554879054,
            0.7501453107980045,
            0.2188051636019635,
            -0.09689686637104565,
            0.2521003467945334,
            -0.2723566253020453,
            0.04547794498198347,
            0.8889642049002496
          ]
        },
        {
          "bias": 0.32276262639734576,
          "weights": [
            -0.2637816702962466,
            0.19335361642342658,
            0.5029388867984582,
            -0.9410574274224683,
            0.6742470487696565,
            -0.4301250007648827,
            -0.08094374288292386,
            0.34343374348190664,
            0.37396828221631395,
            -0.21044186343460636,
            -0.015598830511901739,
            -0.3505122773319659,
            0.08653096404286603,
            -0.3843319388271312,
            0.505724438622009,
            -0.16944939969537984,
            0.09507665603058102,
            -0.06705696569479355,
            -1.1255306769811626,
            -0.7118722746633344,
            0.3677499573185949,
            0.7738081017669751,
            0.47451963943974657,
            0.8581411826851664,
            0.22110932693593685,
            -0.1724248776982088
          ]
        },
        {
          "bias": 1.4613736343337134,
          "weights": [
            -0.2635807969505915,
            0.4780213417242808,
            -0.5396314247464082,
            -0.09933552291242573,
            -0.0019413769187588458,
            0.431052260841094,
            0.01799659527430721,
            0.34986328161884417,
            0.5350302694481683,
            -0.249483717680648,
            0.40895402189905655,
            -0.6379543115164361,
            0.48775481248547137,
            0.2788739585367627,
            -0.28476793069997286,
            -0.14159488786410895,
            0.04463269870195815,
            0.3187371918456111,
            -0.9363476946116179,
            -0.9588249995597471,
            0.2890453837154324,
            1.628092428951663,
            0.7501945637354995,
            0.12021435655025955,
            0.12478801950336228,
            -0.12095328002407137
          ]
        },
        {
          "bias": 1.269782077771682,
          "weights": [
            -0.2762533327510446,
            -0.9697286542980169,
            1.1304295133732134,
            0.30923247533289194,
            -0.5578103481645615,
            -0.16684608835841017,
            0.062180534785068534,
            -0.3002857690362909,
            0.4167142845437316,
            -0.7255722853451012,
            0.1144110357798888,
            -0.14789910654651503,
            -0.4613142148742704,
            -0.22186411159917577,
            -0.3286135719532787,
            -0.4792602317767015,
            0.13642550548423601,
            -0.36276846878740937,
            0.5327256392993399,
            0.8067964720239678,
            -0.48345650807419777,
            -0.727738853323781,
            -0.10546845165197972,
            -0.09741100627863673,
            -0.08595290015255305,
            0.3045606945951102
          ]
        },
        {
          "bias": -1.436344937862991,
          "weights": [
            -0.023757497785688243,
            0.05000499316348384,
            -0.07099255560007939,
            0.25675801668478654,
            0.7536857408209788,
            0.04467731726009612,
            0.9787083072912596,
            -0.08839594065119072,
            0.7072489622245111,
            0.2461221996949409,
            0.29321131332876477,
            -0.2506089495997232,
            0.12068408498424055,
            -0.6494089559156312,
            -0.22146661938354725,
            0.8053637666088567,
            -0.12818774203755584,
            0.4579847721416407,
            -0.580338632425877,
            -0.3065241291495734,
            -0.6175511524489636,
            -0.3186637842764289,
            -0.17711650740806942,
            0.1731116981891924,
            -2.6147307345421393,
            0.4189911893612558
          ]
        },
        {
          "bias": -1.6709178247448455,
          "weights": [
            0.11159544991727373,
            -1.684288172034084,
            -0.10698279545667966,
            0.3814658388692137,
            0.4144902306757004,
            0.18688724827599248,
            -0.11780248914387242,
            -0.34809314001761454,
            -1.7249088436081537,
            0.3507473112149504,
            0.18665068720583972,
            0.008940621647880117,
            -0.15611871089439983,
            -0.5402073793938718,
            -0.13521551557325148,
            -0.5949272495879868,
            0.0615874799488457,
            -0.4360275605146049,
            1.878527218780115,
            -0.052251574213021436,
            -0.4443083068481474,
            0.4864515009420785,
            0.19633684788378647,
            -0.0559676424060849,
            0.7351789671212213,
            -0.6364468828942093
          ]
        },
        {
          "bias": -0.31773955259496345,
          "weights": [
            -0.8174450694521,
            0.3327325752702776,
            0.13038416435964406,
            0.2627597616109975,
            0.3802196624760945,
            0.20247258035402335,
            -0.3746504552216082,
            0.6970278257611655,
            -0.6531969865504527,
            0.12545189914571642,
            0.023246594349026754,
            -0.27494617175721253,
            -0.7227002730864579,
            -0.8162791731717134,
            0.04127499002072694,
            0.1080912020151713,
            0.13947092119230442,
            0.4798469852364228,
            0.14318403821318704,
            0.10326472862571562,
            0.3530480077872518,
            0.6062680198624945,
            0.05873049645778503,
            -0.26971218454021517,
            -0.9045203986409717,
            -0.2766087348981644
          ]
        },
        {
          "bias": -0.06746526160692456,
          "weights": [
            -0.28803907044134364,
            0.7337030888045868,
            0.9463832039292541,
            0.1852358049550445,
            0.27788749720246,
            0.0540684287593229,
            0.21611562812008808,
            0.3464949703464228,
            1.3301627042456972,
            0.45994083083612264,
            0.3878693243355631,
            -0.1474125077545744,
            -0.110763848372195,
            -0.9603349152882976,
            0.6799958355804685,
            -0.19487240744923662,
            0.12157987942056071,
            -0.005207818964283618,
            0.5662334992188469,
            0.7376981053944952,
            -0.3586525610577944,
            -0.3373424560529393,
            0.26608485748968225,
            0.24092364293370527,
            0.3291974560989628,
            0.32383851783181766
          ]
        },
        {
          "bias": 0.47983414183516204,
          "weights": [
            0.1273256559758203,
            -1.3005861815868365,
            -0.7754923504265498,
            -0.5630793290996307,
            0.34315129228553226,
            0.5310562025917704,
            0.056339015926135286,
            -0.015635605696837175,
            -0.4330033648918155,
            0.04048966407488351,
            -0.4963236116863162,
            -0.10478260991921054,
            -0.18028950452425338,
            0.043876122485658184,
            1.0383423819409843,
            0.6290878150110526,
            -0.005878169323017302,
            0.2672937200324784,
            -0.160206525944368,
            -1.2003780231050707,
            0.17046811082028687,
            0.8792174414353122,
            0.7691875959489867,
            0.6667127379368786,
            0.6787632568533399,
            -0.09334135940031829
          ]
        },
        {
          "bias": 1.245596615737688,
          "weights": [
            -0.020767938738540652,
            -0.6706674031755333,
            0.4650442788694227,
            -0.46055591001946505,
            -0.5511526035543642,
            -1.3400499173813427,
            -1.0903793142254823,
            -0.6388694770442875,
            0.47096126896947177,
            -0.47906403515948154,
            -1.3378666577945926,
            0.7675621247975772,
            0.39688272328074564,
            -0.6196630054101424,
            -0.6577178049186757,
            -1.2557043527719258,
            -0.5762465310005337,
            -1.450564881608026,
            0.34702995449634233,
            1.334070703748058,
            0.8043915789889132,
            -0.5741404275948627,
            -0.4938607492636785,
            -0.13121445394754994,
            -0.6382608165085563,
            -0.4369595690283025
          ]
        },
        {
          "bias": -0.16113933195038543,
          "weights": [
            0.5664559991040803,
            -0.7333296357470316,
            0.07321854462693986,
            -0.18753376531104743,
            -0.18953871231869882,
            0.1798762100156674,
            1.3976515111960772,
            -0.7699630494647175,
            0.6971466746590625,
            -0.2921397003048443,
            -0.22799653405698342,
            0.09021360516407019,
            2.0000048606622673,
            0.3207281643225053,
            -0.013884744143663114,
            -0.5103800869940891,
            -1.2008501036327888,
            0.3567829632993923,
            0.6368218474530379,
            -0.20119615770135707,
            0.12656610888387324,
            -0.32070353313484334,
            0.2103419672715107,
            -0.13802612274159126,
            0.8712659524730978,
            -0.2244936408394999
          ]
        },
        {
          "bias": 0.8908549208974703,
          "weights": [
            -0.7546082619036318,
            0.21912265160028777,
            0.8177465747677717,
            0.17878943894044677,
            0.7320668714945086,
            0.13081493707751124,
            0.05722478627449527,
            1.0455824335331314,
            1.149848230452769,
            0.8317408688928996,
            -1.1177301080182045,
            -0.8312696439049195,
            0.3277224377976382,
            0.19276749137973964,
            1.071678449068924,
            -0.5155809668606556,
            -0.057672554648467156,
            0.6349608394621146,
            0.6183191784255085,
            0.1786301879889625,
            0.7423808279833467,
            0.7421856576469301,
            0.3832251577279567,
            0.8438943865541607,
            -0.00976159109316297,
            -0.9275736337122495
          ]
        },
        {
          "bias": -0.06414638216013424,
          "weights": [
            0.5367365864010235,
            2.172657439319578,
            0.45562044509988664,
            0.2670153701356168,
            -0.7790275263831549,
            -0.19073181948714418,
            -0.291633550037271,
            0.2720230966002434,
            -0.6663273966283972,
            1.9198392525106918,
            0.784052890053899,
            0.2422969109351823,
            0.4707990988830478,
            -0.1152186507812169,
            1.316321979884183,
            0.6679480285181354,
            -0.21473461860416174,
            -0.2044531420925866,
            0.36683682947369406,
            -0.6975699172099271,
            -1.939049092898721,
            1.3541165143426368,
            -0.6472122316922827,
            0.8642222374903469,
            -0.380760793660109,
            -0.7658437237464704
          ]
        },
        {
          "bias": -1.1680143192439907,
          "weights": [
            0.016632998153892242,
            1.338372546527438,
            0.09163121650124376,
            -0.1365001649736173,
            0.2645797884264797,
            -0.6624997923273057,
            -0.6178202518540516,
            0.37501524867896896,
            -0.6922586562371795,
            0.212291994228193,
            0.5309922311034021,
            0.18750947389277398,
            0.20279059789387271,
            -0.16465244116686034,
            0.3562872799999676,
            -0.6558212321862276,
            0.6356424100795591,
            0.1099039252746029,
            -0.5228985765348595,
            -0.41374935974709176,
            0.1633621630363099,
            0.8865429862672345,
            0.7110234135665314,
            0.5251660622851352,
            1.2210214016097558,
            -0.006762328108521788
          ]
        },
        {
          "bias": 0.3831880938416134,
          "weights": [
            0.18742900010941257,
            0.8808945026727006,
            0.12595528100378062,
            0.3418342845149997,
            0.4100265476009901,
            0.2585467568105887,
            0.24464630755243424,
            0.25695309335469385,
            0.04989247779713261,
            -0.3723704425775509,
            0.3563199728236628,
            -0.21626242390538863,
            0.11066658628474171,
            0.09984772147209384,
            -0.1389515360707992,
            -0.149224499857397,
            -0.17805726067363226,
            0.20379709315888947,
            -0.15113911337460634,
            -1.3779311200355862,
            -0.013404679132163413,
            1.060835019945105,
            0.06274885978374041,
            0.07847331545940964,
            0.04686445812835155,
            -0.24691042877404434
          ]
        },
        {
          "bias": -0.7298034484342149,
          "weights": [
            0.47683676654802115,
            0.9848505743247074,
            -0.3586001023377118,
            0.13179300492728616,
            0.8684236726214871,
            0.06102150464064909,
            0.22358271210700345,
            0.03285354807115374,
            0.930713821545501,
            0.8637715930834705,
            -1.0874099244047357,
            -0.09485727283696352,
            0.3834558165031905,
            -0.11270264261007519,
            0.08963200333004073,
            -0.013026922759543345,
            -0.24805080807369198,
            0.5386616041562563,
            1.0609105646497727,
            -0.551317696077932,
            0.09119243195087456,
            -0.7625798408011762,
            0.5256605259458266,
            0.04904681479227746,
            -0.1803668944504183,
            0.09111761618261205
          ]
        },
        {
          "bias": 0.469214630255039,
          "weights": [
            0.6714106124845979,
            1.2060820142592183,
            -0.08277389940778171,
            -0.3455985720751125,
            0.502651615375967,
            0.42371912337025475,
            -0.10209910993999594,
            0.2577782730312843,
            -1.0233705631136911,
            0.6425319702216827,
            -0.1952946902237011,
            0.8003595357009627,
            0.34650770576437867,
            -0.001507748281196561,
            0.0969715208274097,
            -0.3158437971633819,
            -0.08052399256110074,
            -0.8902840349473168,
            -0.3254479732092203,
            -0.8263778172927291,
            -0.30547585567991675,
            -1.4422090322107772,
            0.10269114697362315,
            0.38451622050983214,
            -0.18877525716099017,
            -0.3774376527422703
          ]
        },
        {
          "bias": -0.8989450360010565,
          "weights": [
            -0.5393496131648099,
            0.45381019964301056,
            -0.6824490395814308,
            0.3287068694157263,
            0.04849929378843494,
            -0.29675608225711375,
            -0.3674887552514102,
            0.2608948541042663,
            -0.02492629974800469,
            0.6004013914038442,
            0.23828195009680259,
            -0.29678233779193985,
            -0.27824461087953845,
            -0.3905608217159887,
            0.1521567046198432,
            1.6582538246041814,
            0.18714507047306625,
            0.07744094362721232,
            0.041398149033995156,
            -0.045575444156648284,
            -0.4290456958556192,
            -0.7447356187968553,
            -0.23956161558346756,
            0.3971845584329761,
            -0.3539443911822884,
            0.09430104470925618
          ]
        },
        {
          "bias": -0.6045071003150304,
          "weights": [
            -0.3640266758986035,
            0.8893719466411897,
            -0.5002707904882225,
            0.03688325324005536,
            0.40221950838491916,
            0.3717022162870733,
            0.7857978890854108,
            -0.28493865298164955,
            -0.7310983372550937,
            0.7150623246066482,
            -1.1414469908227225,
            -0.34922192313143163,
            0.3432643547231336,
            -0.9623969975044853,
            -0.42981882188814347,
            0.7959396768164917,
            -1.0768509634938108,
            0.19408733438012735,
            -0.6310942158544216,
            0.385377218001205,
            -0.31303092071318883,
            1.8113996259619298,
            -0.3674588916596423,
            0.020826906353618092,
            0.5445272902990387,
            0.37809847785219014
          ]
        },
        {
          "bias": -0.2902092792652529,
          "weights": [
            0.3672725060440965,
            -0.6089586217290369,
            0.8892437421420153,
            0.02997508783708193,
            0.10330852266142343,
            0.20974151311493786,
            -0.011115996477104243,
            -0.5764508960574916,
            -0.3667941804909886,
            -0.5675990279850156,
            0.7348593652872456,
            -0.2622945926469424,
            0.020675482356005838,
            0.3833463240933662,
            0.3557898511113034,
            0.58071160897043,
            0.05500159156173636,
            0.21641450636197904,
            0.11868878486030655,
            -0.34375494066771006,
            -0.11141875520436056,
            -0.30918256825555884,
            -0.007087534714702892,
            0.14622556131025485,
            -0.2940534457301161,
            0.3822792688585464
          ]
        },
        {
          "bias": 0.44494472136797225,
          "weights": [
            0.48060594655794103,
            0.6118845754120498,
            -0.07855470279117449,
            0.1213452911471921,
            0.20890001991475335,
            -0.24409139586995043,
            -1.9738286131026503,
            -0.13514001987196306,
            -0.2531046136860674,
            -0.2633732853773034,
            0.5849202436530662,
            0.31018724075803666,
            1.752828823385258,
            -0.15332952083008428,
            -0.06194420046308745,
            -0.012164863755992291,
            -0.037508469835835945,
            -0.4737487400442829,
            -0.11726557898070768,
            -1.025834586683028,
            -0.7978880249685272,
            0.29231135655297064,
            -0.08290813262044212,
            -0.13853636942416014,
            -1.1656307062022144,
            -0.37955501442682965
          ]
        },
        {
          "bias": -0.5615692470016225,
          "weights": [
            -0.924183652960255,
            -0.21229404990644624,
            0.0385130543073341,
            -0.4629255345809439,
            0.09938065730264262,
            -0.2910549692613993,
            0.9829406580736746,
            0.12733473811289883,
            0.3536797470056617,
            -0.3069603599543384,
            0.2393594861687741,
            -0.524011277794649,
            -1.2158145194116556,
            -0.3982342622117717,
            0.5052235864069482,
            0.9434415907543315,
            -1.0971260781439045,
            0.5146569382744203,
            -1.3035846956260564,
            0.6001691851517335,
            1.0515851906503115,
            1.608470735626723,
            -0.4572724343042646,
            0.537802913029285,
            0.34105458147409173,
            -0.3231567627579743
          ]
        },
        {
          "bias": -0.5879005510284114,
          "weights": [
            0.5274694657079187,
            0.5076356686290417,
            0.28706623067556436,
            -0.08828009402888608,
            -0.09578539309752143,
            -0.03570408461471238,
            -0.9909609632156109,
            -0.1436953594032554,
            -0.1925493879260663,
            0.4018166526538963,
            0.8197490555222412,
            -0.004063106548691488,
            1.1362893749281373,
            0.37614600319641367,
            1.1248823981273477,
            0.18953980429588363,
            1.0296950586684221,
            -0.5985535707027844,
            0.6212951843126611,
            -0.20315267608495063,
            -0.2900793137748172,
            -0.4380453858207172,
            -0.9237665606973943,
            -0.3265311583844568,
            -0.471020992260769,
            -0.45261646667901473
          ]
        }
      ]
    },
    {
      "activation": "None",
      "num_neurons": 6,
      "neurons": [
        {
          "bias": 0.3819268574730772,
          "weights": [
            -0.15237499779115965,
            -0.02781145827392842,
            0.1343572366408498,
            0.946667078559176,
            0.4571326848651981,
            -0.9439529770575664,
            -0.18087516548917107,
            -0.2929198584320173,
            0.10981508778721616,
            -0.575550832348483,
            -0.04002263561826919,
            0.27712181481854153,
            -0.8297780125633205,
            0.047392050127556096,
            -0.6483521141573259,
            -1.2377749902363973,
            -0.18113562348938864,
            -1.0451495839144036,
            0.9226351237198747,
            2.237453375858789,
            -0.37083128223215467,
            -0.06870165682095211,
            -0.16838043657829999,
            -0.04154779264668784,
            1.5692803077038793,
            1.7141766642890195
          ]
        },
        {
          "bias": -1.166974324972174,
          "weights": [
            0.2825339967681819,
            0.029021933856749546,
            -0.9601553501751324,
            0.3659771908351572,
            1.5746453367547015,
            -1.0991262478461103,
            0.13367846152652385,
            -1.7398329611873347,
            2.7807441626852563,
            -0.5220479733776294,
            0.8393613512920016,
            -0.9503220693142345,
            2.553373084765026,
            0.001817807660843154,
            -0.06851108074670237,
            -0.2133747562993321,
            0.034519742245230724,
            -0.16059038755017802,
            0.16865405019586802,
            0.6552770734677509,
            -1.0572708350531592,
            -0.010825384405337903,
            -2.4953531428316675,
            -0.0007338846540449636,
            -0.1407748481375442,
            -0.15216159826408063
          ]
        },
        {
          "bias": -2.0258399088097843,
          "weights": [
            0.22192241603214616,
            -0.42704455304096234,
            -1.0884152196556296,
            -0.07817592841899015,
            0.9059781556949279,
            -0.9643062572632893,
            -0.22493358120644896,
            -0.4377155148128213,
            -0.9578284658059614,
            -1.007481271442168,
            0.6524675780955315,
            2.576248513049483,
            1.666888748184017,
            0.017523363029144486,
            -2.2205546831267293,
            -0.20920104503136572,
            -0.03833070330789834,
            -1.9963501865811835,
            1.5573372817013458,
            -0.07627990730417432,
            -0.8840021083207531,
            -0.020197046827641847,
            0.9998070988901371,
            -0.0016889338487974742,
            0.019876468311668814,
            0.035189318267990335
          ]
        },
        {
          "bias": 0.07303933873365136,
          "weights": [
            -0.006348952555291503,
            -0.10804149467243446,
            1.308603296237767,
            0.16623184900879312,
            0.020681995190147733,
            0.2357355341193711,
            -0.1246646405107312,
            -0.6324519383913434,
            -0.04083357742346762,
            0.006855750287849127,
            0.41579851688064773,
            -0.655055279379706,
            -1.522507358293903,
            -0.007333782651126718,
            -0.3167865260070189,
            -0.14502833319135894,
            0.04385582273686229,
            0.3228928993582722,
            -0.12246930965575875,
            0.06425772286643087,
            -0.39487745197497004,
            0.012450248612815271,
            -0.2903991444291349,
            0.00034473214203726427,
            -0.5174623141572168,
            -0.6049480532374274
          ]
        },
        {
          "bias": -0.5765636577690412,
          "weights": [
            0.7830904353858872,
            0.08984604019159419,
            -0.8473673841746274,
            1.3389459074971786,
            0.45765306444443626,
            1.2750726680493834,
            -0.023588212538411972,
            -0.29377523346189305,
            0.7233243452480441,
            -0.20888526232305618,
            -0.3954216463478571,
            0.8035943327460511,
            0.3955016876203624,
            -0.0055934988397108145,
            0.16508878360362667,
            -0.03150763308383954,
            -0.024075273229016255,
            0.19005501393017238,
            -0.21065330352215528,
            0.7106024879518099,
            0.17223341427137553,
            0.004893808183813782,
            0.24913266760031014,
            -0.004631359108518171,
            0.27033211714465205,
            0.3010329090521289
          ]
        },
        {
          "bias": 0.5320604447865092,
          "weights": [
            0.3464332924003951,
            0.04653140315949736,
            -0.605329823867222,
            -1.2653041649470014,
            -0.37793252322921217,
            1.5573107188510373,
            0.3165092801225461,
            0.388013624994622,
            0.08633965272229072,
            0.9456678943117084,
            0.020497680152890475,
            -0.5591180144794582,
            0.3375613643045228,
            -0.0699394185847068,
            0.8992065895228968,
            1.8142780203507818,
            0.24531550051116355,
            1.777196075761268,
            -1.553132522900862,
            -3.224497891400822,
            0.19575475067099565,
            0.10237484324511753,
            -0.23493177833863665,
            0.06317806668858655,
            -2.119097392376465,
            -2.3121831846558423
          ]
        }
      ]
    }
  ]
}